492 50
1423 0.0112002486208 0.00175481394218 -0.0146626401164 0.0105814368538 0.038843151907 0.0180265315204 0.00668468905136 -0.00032976804922 0.00926676791784 0.00617214246006 0.0169630013501 -0.0113374473894 0.0236702950274 0.0115749921573 -0.00437514524265 0.00581228182486 -0.00886302215961 -0.0177281078658 0.0157489667606 -0.00584585802013 -0.0243818544097 -0.00558798497065 0.0215042132078 -0.0124356014952 0.00755236356162 -0.0123412119029 0.00290104012343 0.0222369502033 -0.0232006222577 -0.0145120790168 0.0116178935326 0.0078360698625 0.0117190826212 -0.000973528329277 0.00788827135669 0.0194090676179 -0.0213082568784 0.03068039898 -0.00697730455993 -0.0094081114504 -0.0100491753448 -0.0269379596764 -0.0204262388818 0.0199800288849 -0.0247611266781 0.00398127059981 -0.00678690659696 -0.00747064803465 -0.0202455419466 0.00820319775575
1220 0.0102765352079 -0.000118856550681 -0.0104943273362 -0.00524838973778 0.0381863174292 0.0324091379656 0.0174250280221 -0.000494262842846 0.00957784730399 0.0042837164141 0.0149601417876 -0.00843922943494 0.0206428379229 0.00254166014838 -0.0048629071619 -0.00288029021699 -0.0103410617138 0.000297976783695 0.00289056703356 -0.0199414901797 -0.0189282517367 -0.00628512026438 0.0284409783396 -0.0173549761806 -0.00574230654263 -0.00715162166957 0.00589081952935 0.0168009503307 -0.0260136174722 -0.0196076422326 0.00147400739972 0.0115997576545 0.0150489242171 0.00796281589082 0.00764914304337 0.00961394501965 -0.0125177057955 0.0307066969143 -0.00213794321623 -0.0183120201126 -0.00943919735156 -0.0176278275255 -0.00966762778265 0.0241955157438 -0.026390789565 0.00531883261652 0.00429919798046 -0.00457416146498 -0.025198897553 0.0115260938507
1483 -0.0215551597888 -0.0279121930647 0.000244156629659 -0.00937242283069 -0.0271177062763 -0.0165798768124 -0.0363406378177 0.0152119671549 0.0245115637153 0.00411452917717 -0.0130459909636 0.0128732666646 -0.00294195763323 -0.0126261550942 0.00254289093596 0.000222836331689 0.00482562955745 0.019315864205 0.00234418564135 -0.00322982401661 0.0371524499671 0.000852283661421 0.00211688133745 0.0073541041792 -0.0326212996024 0.033204547019 -0.0338212885334 -0.00948626538308 -0.0176005892023 0.00122229080486 -0.00221019669919 -0.00471030052578 0.0143812024 -0.0291241298469 -0.00792083499849 0.00291044010693 0.0289225546073 -0.00118986755423 0.0088201737045 0.000316845977541 0.00773848864919 0.0120519480518 0.00322452138501 -0.00618128461445 0.0462368141649 0.0228110919226 0.00275522916358 0.013955685344 0.00841123570763 0.00671889195631
842 -0.0154561754686 -0.0264502040671 -0.0099912894056 -0.017353473493 -0.029304314095 -0.0042078002102 -0.0198130506312 0.0216335693631 0.0325658267834 -0.0029925465484 -0.0150180997006 0.0222842648739 0.00666535598447 -0.0123658916748 0.00494210372401 0.0106122588345 0.00818344877286 0.0229326619237 0.00269516393413 0.00293176770304 0.0326782399125 -0.009557712503 -0.00711837802909 0.0124695399227 -0.0321794989459 0.043039930004 -0.0318476577365 -0.00601585345639 -0.00291715803064 0.0136181758462 0.00405078283862 -0.00617920525015 0.0133764604126 -0.0190987680297 -0.00237754802611 -0.00071351316858 0.0158423995343 0.00911531038091 0.0104405260771 -0.00355746663515 0.0188646955578 -0.00361517765775 -0.0120285265253 -0.0015592855563 0.0439690238678 0.0210243161816 -0.000204189157114 0.0120947153036 0.0131099099048 0.019194159775
1343 0.00558303342781 -0.0121645007662 -0.00510952702968 0.00823117432674 0.0247922775305 0.0165128186165 -0.0330420848344 -0.00817833342187 0.0119606700452 -0.00305375451732 0.0188221802835 0.0200803000158 0.0325918696369 0.00832132642123 -0.0205130997262 -0.0167865757916 -0.0252770407167 0.0183275675007 0.0636036107634 -0.0225974723947 -0.00357600641575 -0.0124364083324 0.0492703721494 -0.00470822153864 -0.0130914250209 0.0166492383551 -0.0247250267118 0.0140536297019 -0.0327689263937 -0.00219604180968 0.00719185907199 0.0176769883527 0.0182652008398 0.0184600797122 -0.0264201886015 0.0271168310562 0.00672277174129 0.0347302073202 0.0207722863182 -0.053607427523 -0.0179310335826 -0.0345780273063 -0.00591782949977 0.0204453580558 -0.0019589482958 0.0331629321921 -0.0178655874035 -0.00975962886413 -9.99230820029e-06 0.0503722131782
356 0.0102016159714 0.187913681556 0.131418136385 0.14304003362 -0.136326802815 0.0570316836532 -0.0507480660455 0.156974257207 -0.318436313258 -0.0795133429388 -0.0312778792393 0.0130565566768 -0.16154105371 0.0667323687127 0.196400464956 -0.147748178904 -0.00057036881923 -0.0402945510936 0.0387807624154 0.175479745426 -0.0565060076532 -0.120482236522 -0.202785358082 0.0245301096242 0.198459314813 0.0411147409513 -0.0213724006586 -0.0050366150028 -0.155491340721 0.111711612286 -0.068134531979 0.0547251774138 -0.0620584619757 0.00152649268996 0.0378253547162 -0.24253089747 0.155127070309 -0.141287944221 0.0875951436131 0.172906007901 -0.015474891752 -0.065636702797 0.113730688026 0.259650048346 -0.0158352305379 -0.176245727005 -0.0809490825509 0.208492198155 0.181310151123 -0.153397538187
349 -0.141336614652 -0.0346669796672 0.00453229991134 0.0573336822682 -0.221542476759 -0.156245222506 -0.180042218738 0.162237120983 0.00888637355881 -0.00284652635937 -0.042084659431 0.0387599542697 -0.0980746972272 -0.135944087299 -0.107785505492 -0.134733521741 -0.0710014255835 0.17635515592 -0.0313854905319 0.0209867937327 0.194951411686 -0.0114967157717 -0.179168342097 0.000445466434471 -0.0430598901706 0.109280148876 -0.218871768774 -0.0656649439096 -0.109778592302 0.151049874259 -0.0445618822812 -0.106512614158 -0.0609588037046 -0.074506827448 -0.0653431638766 -0.0213709614893 0.188508101813 -0.153052151601 0.073584321694 0.0714401119358 0.0950477558142 -0.00564726533627 0.0564355053893 0.0130144628684 0.214408465085 0.0666432215884 -0.152751001971 0.182846693125 0.131395470114 -0.0210449228408
1639 0.147244371858 -0.146905221577 -0.0482477401726 -0.0760340145767 -0.0565077754707 -0.12274562771 -0.00817136290716 0.0290945204787 -0.0135722481213 0.0274120663668 0.0789553245681 -0.0853139848436 -0.0162562988028 -0.00793256413217 0.143456719722 0.0848893420206 -0.158770500458 0.0326142436632 0.158692109492 -0.0624367155501 -0.145635000425 -0.133063522499 0.073474499392 -0.218227018795 0.0466945413726 0.0826433709775 -0.0426833954067 0.0827831752172 -0.0337445872073 -0.0446818838419 0.154379085364 -0.177556434423 -0.0415212455759 0.0280298462054 -0.118868294276 0.0844342413623 0.0453364671473 0.0772089304337 0.0856144846336 -0.000814594987694 -0.0534185360457 -0.0252213296324 -0.201966073084 0.153720966971 -0.0704522489487 0.174579628415 0.0404168302316 0.019072862762 -0.0415343881454 0.115607252124
1204 0.00121744596995 0.009371536759 -0.0102878384173 -0.00329415394953 0.00952158954101 0.00920908297377 5.14394897624e-05 -0.00950655267142 -0.00201419123887 0.00218722122753 -0.00363699107575 0.00341192443683 0.00807737063187 0.00814924701221 -0.00362466661074 0.0105805802102 0.0190197065265 0.00334736606947 -0.000564791342576 -0.00821932799049 0.00281204656729 0.00911656274156 0.0141085219456 0.0130103588018 0.00265691966551 -0.00337137560444 -0.00403095267928 0.00615258541458 -0.010799938298 0.00734494327634 -0.00443812346589 0.000208069144114 0.0104444818179 -0.00857988257227 0.0129078605369 -0.0137615996057 -0.00894176012895 0.0025288308481 -0.00174421018097 -0.000557603048707 0.00748219707295 -0.00556086677066 -0.00275110004022 -0.00369662482966 0.00331023896976 -0.0254170774912 -0.00434448046658 -0.00637538542664 -0.00246522797308 -0.00444996529918
8636 -0.00159602155791 0.0108300136056 0.0081504725517 -0.00530643784109 0.0124291249727 0.0047602961781 -0.00166869822279 0.00608156710782 -0.00157883408955 -0.000627856320979 -0.00306821977692 -0.00683790902553 -0.00305014796402 0.0123743041764 -0.00500614871785 0.00519287928343 0.0113821083072 -0.0104038721837 -0.00764028545481 -0.008989441649 -0.00535269832346 0.0103971836329 -0.00420285102281 0.0192762866473 -0.00889031978525 -0.00900866332286 -0.002001186411 -0.00792495969894 -0.00965756830183 0.00106182809794 -0.011414579574 0.0172248352381 -0.0049748659764 0.00600773347045 0.00890742309549 -0.000961210729213 -0.00600139336517 -0.00989043325217 -0.0119958213845 -0.000523633504416 -0.00643630074156 -0.000749634171913 0.00133087106979 0.00381669968988 -0.00711149589397 -0.0205886600008 0.00451461083943 0.00631496212243 -0.0120103180942 -0.00252232770584
2019 0.0159098703261 -0.0852533085376 0.0720199694964 -0.0340077941112 0.0292235712055 0.042875527077 -0.000449853059509 -0.155620602607 0.0204917525699 -0.00752318274142 -0.0337308479057 0.000652633147928 0.000938296570062 0.0750582305189 -0.0188985165654 0.0735580187076 0.00111041883881 -0.0920748192669 0.0213455614538 0.120193423271 -0.111633189202 -0.00975351473688 -0.128128012387 0.0167285242371 0.0596471077705 0.0864457845945 0.0853723033072 -0.0358104733424 0.154522799167 0.0125493501471 -0.061431992249 -0.0268018827082 0.00904421140589 0.00524078084048 -0.0484358672036 0.104265181347 -0.0708207057351 0.0827636060319 0.0388079270557 0.0669702781984 -0.0876556190276 0.0976724115093 0.0396907594337 -0.0558922098405 0.00396397259162 0.0458395856752 0.0976215178387 -0.151967456542 0.0595832596386 0.060476655634
1240 0.0100989295989 -0.00814322976258 -0.0140482394731 0.0151515185568 0.0389922085675 0.0154547966806 0.0185366600165 0.000330989295279 -0.00208205897997 -0.00906184889663 0.0112970584978 -0.0185684766709 0.0285260596065 0.00041661963814 -0.00657713514214 0.00690203977921 -0.00882370961908 -0.00909498176668 0.00892999587492 -0.0216031983639 -0.0232511848078 -0.00383433910637 0.0341707967337 -0.0165903792499 0.00631845959463 -0.0236038967428 0.0116732705689 0.0109354088979 -0.0273324586811 -0.0185763164647 0.0105292652943 0.0155275247053 0.00253018851342 0.000249416854746 0.00352276312327 0.0120592168461 -0.0243147010651 0.0247152042884 -0.00422010000055 -0.0265453116841 0.00410389732458 -0.0112989860358 -0.00460194786525 0.0145092102834 -0.0286413692917 0.00213468642649 0.000754166901195 -0.00671726463022 -0.0129076565837 0.00229916956132
1611 0.0254398339222 0.00328746163288 -0.0206475005113 0.0116546109651 0.0258677370845 0.0259844527876 0.00589357913321 -0.0126919265096 -0.00226670129131 -0.0110010057064 0.0194737459202 -0.00657320134337 0.0246960559554 0.00930640580277 0.000887335026719 -0.00335993631057 -0.00624101077428 0.000706970258298 0.00502810382072 -0.0126875407011 -0.0166190470358 -0.00307798586321 0.0289002967253 -0.0115088211208 0.0081191146102 -0.0208531970873 0.00187962984417 0.0112224730166 -0.0203155824205 -0.0214169815817 0.00565021712181 0.00137625959261 0.00413549651259 0.00563443143664 0.011291667656 0.0202795952425 -0.0229265991199 0.0150986022471 -0.0106298417701 -0.0199959240636 -0.01230759647 -0.020721011882 -0.00528005488754 0.0248211032275 -0.0328217605105 0.0126111028647 -0.00675968851365 -0.0135419732721 -0.0116416315984 0.000293777171299
292 -0.142393335801 -0.0453825296464 0.0147123245028 0.0605805751183 -0.231342924333 -0.156507750447 -0.173439173064 0.162199713641 0.00773118805964 -0.000506729255175 -0.0391427500684 0.0521355855818 -0.0926472377337 -0.138366132583 -0.106972455388 -0.133896660527 -0.0681385468546 0.174372697806 -0.0386171056734 0.0117542323255 0.197315617448 -0.00885193016156 -0.188940282789 0.00588674040377 -0.0572610151475 0.108935382875 -0.225161632682 -0.053222486462 -0.110890869287 0.162924210924 -0.0450408495677 -0.1129086481 -0.0677328652714 -0.0771233478799 -0.0597016648764 -0.0276190616509 0.183651933922 -0.154753463464 0.0683819892944 0.0751093604712 0.0836354182731 -0.0168846011606 0.0458671540442 0.0176015060343 0.200528713171 0.0659276880517 -0.144924394828 0.169030393371 0.133846301818 -0.0199879197929
588 0.0508623975261 0.202463518382 0.104502728147 -0.058175877958 -0.398644851578 -0.0383480219391 -0.0138644456886 0.305881945532 -0.0384002500829 0.0211267551704 -0.104325067423 0.171215671822 -0.0502462878141 -0.0717488883556 -0.13856743379 -0.124620126546 0.044594148561 -0.00420633578301 0.0912388297183 0.0998482919006 0.153608294536 0.15224496008 -0.220921394223 -0.10825583181 0.110048499476 -0.0133397982708 -0.148895298583 -0.254380216858 0.157523842282 0.000994273233724 0.193966492432 0.0887659516665 -0.0980929897413 0.035546793575 -0.164215433754 -0.174812925245 0.197092314383 -0.200545374031 -0.0396496941572 0.101142250248 0.0941922066133 0.0149612023484 0.094363400348 -0.0469146268757 0.0321570931449 -0.12823197231 -0.0102849648864 0.00997955674709 -0.00834499089794 -0.0782090730357
5878 0.000633748128184 0.00433700716831 0.00353845573013 0.00480784177889 0.00127899713626 -0.000867135172368 -0.00170133023445 0.00786678791837 0.00520506971336 -0.0105467927892 -0.00135539787127 -0.00322386222185 0.0112575129345 0.00907687275252 -0.000998543904003 -0.00703735006074 0.00355235603433 0.00991972656749 -0.0119441148865 0.00259485855819 0.00717086821074 -0.00312324466193 -0.00918187863048 0.0145097993011 0.00467846417866 0.00287541918575 -0.00172868814081 -0.00563457080835 0.00230823847061 0.0046094881653 0.00407848593392 0.00939162223496 -0.00302205154809 0.00469563616815 0.0118506831515 -0.0134169966709 0.0073514088247 -0.0142605477 0.00255371318393 0.00653252117041 0.0107351267896 0.00180998889179 0.0027824086605 -0.00403666450272 -0.00146429034808 0.00135307471904 -0.0101918133596 -0.00184691897247 0.00578199605744 -0.00984250386757
3160 -0.00332584096515 0.00098166152033 0.00880538968065 0.00522431927588 0.00185430695168 -0.000353076431027 0.00615862653254 -0.00873763531174 -0.00413283975079 -0.00743973442862 -0.00085220247121 0.00671655909777 0.0108505109852 -0.00728627789911 0.00134716381075 -0.0111411171749 0.00260730353126 0.010431266429 -0.0140437427401 -0.00514093327522 0.0133583932235 0.0152171299778 -0.00957963169672 0.00803412606456 -0.00490686080477 0.00276806184004 -0.00619887200719 -0.00787933122341 -0.00971157053812 -0.00136149539114 -0.0116095701864 -0.00304525424613 -0.00368038104128 -0.00963324712155 0.00996704458705 -0.0103021108864 0.00756028323879 -0.00786092300844 0.00295857071687 -0.00656738544525 0.00111441460991 -0.000262376493493 0.00625274989121 -0.00651489573996 0.00142502465872 -0.00902374890633 -0.0054970227466 -0.000224046157526 -0.00180281226055 -0.00261352188296
4641 0.00427059575298 0.00696207915926 -0.0025835483825 -0.00396057498142 0.0148267327079 -0.00586559339293 0.00496837442821 0.00332963595833 0.00257897893489 -0.00359425434827 -0.00716795851421 0.00139951271094 0.000666071633658 0.00682918815888 0.00300326084893 1.27088316124e-05 0.019283545619 0.00857347017566 -0.00809925086004 0.000936449217347 -0.0056873152117 0.0106967004279 0.0156808956741 0.00675435621854 0.00117238128036 -0.00569655127744 0.0036490234645 -3.12106303856e-05 -0.003118071014 -0.00651875966406 -0.00441803677934 0.0150067729142 0.0047456744898 -0.00149286029353 0.00246650095859 -0.00901001802386 0.00666884516721 0.00250495437761 -0.0134599714736 -0.00347219358989 -0.0063646263541 0.00541933323362 0.00662303698015 0.00726933903918 0.00652269554934 -0.0202868970333 0.00177661282412 0.00772852124117 -0.0021834851858 -0.00408472835463
3300 0.00510573921366 0.00340084738231 -0.00583356916279 0.00683608301492 0.0120241076832 -0.00127575676505 -0.00641767684649 0.00672858264271 -7.21313279003e-05 -0.011542035044 0.000469171918546 -0.00215927240579 -0.00380131248232 0.00213384591813 0.00113367200962 0.00412016180594 0.0174807062793 0.00492333281375 -0.00298144412951 -0.0022023864781 0.00483090483842 0.00761397945692 0.00671343863659 0.0153658852397 0.00435756800874 -0.00150149387062 0.00768693782785 -0.00731616440764 -0.00836953010625 -0.00596552968452 -0.0106684507516 0.0131216305052 -0.00757427067461 -0.00736902920879 0.0126231673962 -0.00584410562143 -0.00334789135596 -0.00399213387616 -0.0210226448305 -0.00860267280893 -0.00251727636454 -0.0131995032599 0.0101827731141 -0.00127919863575 0.00571827806028 -0.0101809102447 0.00533352272438 0.00858836387072 -0.00352401107708 -0.00921284389663
1831 0.0190761954158 7.42870026471e-05 -0.01389575449 -0.00969900600442 0.0148997872673 0.0171673085293 0.0198696152647 -0.0112566195798 0.00199343016486 0.0103608301228 -0.00060038672599 -0.000488456007313 -0.00338059160866 0.0137468806837 0.0159425784696 0.00855092587413 0.0117099464967 -0.00922792989091 -0.00284388323632 -0.0107648892359 -0.0125090993463 -0.00788157131042 0.0183762170283 0.0097543517475 -0.00362821198982 -0.023591036444 0.0111003887999 0.00976630259934 0.0107211722851 -0.0171624780678 0.0192092941893 0.00567806947157 0.0107262662066 0.0108441050949 0.0140617614394 -0.000717479573715 -0.0205357048564 0.0160438581817 -0.0252613514906 -0.0164577302205 -0.00380170662674 -0.0133849765073 -0.020121674937 -0.0117297103379 -0.0237385252599 -0.005525866649 0.0169565466122 -0.018172199411 -0.0198561069878 -0.000886645329757
909 0.00931226353468 0.0166107239001 -0.00730127262068 -0.000950462432595 0.0253366758527 0.0142827385991 0.0177269635881 -0.0153239473431 -0.000421976942536 -0.00464027806274 0.000749768698753 -0.0160355764708 0.0014399311387 0.016578961217 0.0106639640214 0.00480090714635 0.0217524708622 -0.0242381187617 -0.0172758954157 -0.019855417845 -0.0127301034275 0.00363423111983 0.018740895953 0.00374159196798 0.00290520827472 -0.0112926257014 0.0167530228493 0.0148609351401 0.00312460626066 -0.0280473155738 0.0102974034048 0.0128916682935 -0.00344724785046 0.00991239531008 0.00773814272846 -0.00778754870978 -0.00640066295735 0.00821027002117 -0.0239765796625 -0.022378259818 -0.0098753438992 0.00174263217091 -0.00801176218198 -0.0030355863539 -0.0291341608523 -0.0049217114697 0.0165507894887 -0.00927629680155 -0.0110734325383 -0.00191415458702
38061 0.0014347097945 -0.0139048175908 -0.0021087069532 -0.00047474224909 -0.00972072762204 -0.00476321263124 -0.0110820709374 0.00676972062367 0.000472158466143 -0.00547247822182 0.00978504325597 -0.0122718512048 -0.00615563662044 -0.00889819123248 -0.014209039396 0.0210215467352 -0.0112715197891 -0.00238502780309 0.0054376204459 0.00831232746113 -0.00629784950263 -0.00743381513423 -0.00422834700177 -0.0152505762103 -0.000953333221349 0.00399901634461 -0.0170635523405 -0.0184906525362 0.0028831953685 0.00893291660437 0.00444093054972 -0.00238226961984 -0.00195023778828 0.00367464895114 0.000490488809526 0.00302572645499 0.00647842310834 -0.00709165536108 0.011099404928 -0.00110303777093 -0.00256035331504 -0.00734534365584 0.00787949283307 0.022532290814 0.00813663540134 -0.000500933569083 -0.0091311866641 -0.00992367365238 0.00334761738511 -0.00563553789461
51255 -0.00730699170042 -0.0182387211744 0.00262595429336 -0.0090393295211 -0.0194203073716 -0.0116535416713 -0.00582306848669 -0.00560342039699 0.00756941870351 -0.00908767529044 -0.00761377808178 -0.0112168778831 -0.00684696298753 -0.000463348917539 -0.0126666752101 0.00692916841255 -0.0178380908885 0.00464422139754 0.000908231116901 0.00546956368686 -0.00318310962 0.00474206698656 -0.00216335851698 -0.00888982327765 -0.00397250760215 -0.00549605547807 -0.0146372892044 -0.00611942381355 -0.0144745186882 0.00418876932219 -0.0094974935112 -0.00728834091615 0.00705559341088 -0.00763991313354 -0.0126008003925 -0.00485804961675 0.00243780113214 0.000274282693989 0.00558350417918 -0.00504870285651 0.0111119374694 0.00264050094125 -0.00619657252068 0.0117253008864 0.0050072271307 -0.003260949939 -0.00792085599022 -0.00291937806345 -0.00823845570655 -0.00583605497929
4235 -0.0148497184497 0.00520584334359 0.00910584165148 0.00763486701198 -0.00272697432795 0.00929844946455 -0.00425523403834 -0.000721285429369 -0.00727461039792 -0.000384402852554 -0.00698577078322 -0.000140961072855 -0.00631952912758 0.00705845960666 -0.00535594729637 -0.00102528149553 0.0111918710941 -0.00295388176032 -0.010784043184 -0.00293408322924 0.00525020430671 0.014186399967 0.0060410455131 0.00479250344654 -0.0122962590853 -0.012846975947 -0.00412162521029 -0.00656751121029 0.00572154704489 0.0104214030927 -0.0145194829628 0.00785370246707 0.00974111528575 -0.00341617652182 0.0055851714133 -0.00910843413584 0.00280824313984 -0.0124595339532 0.00215426357193 0.00488575052354 -0.00276786164642 0.00165879769643 0.0121539255433 -0.00504983090735 0.00506950431458 -0.0132604645327 -0.00417488959689 0.00840718568212 -0.000211124969752 -0.00618315050916
26151 -0.0119223640293 -0.00231253953021 0.00355952108387 0.00372530428592 -0.00541512175987 0.00994014220253 -0.00693845322679 -0.00349504305333 0.00133351616505 0.00071618995722 -0.000343487372907 0.00964268106836 -0.00301078136775 -0.00109385548345 -0.00124784361008 -0.00437159784721 0.0108093077384 -0.00248211226319 -0.00590150330102 -0.00587518896154 0.00652615228517 0.0123434804761 -0.00918367466236 0.00116249555831 0.00262296387511 -0.00419992033595 0.00854854016127 0.00790976368901 0.00825857110854 0.0116819786348 -0.00450314681623 -0.00103587167645 0.00868303904889 -0.000667883413446 0.0105011360762 -0.00621178673395 -0.00717434752865 0.00519422890314 0.00302622860943 0.00456102848675 0.00203976351578 -0.00710237556607 0.00202530040814 -0.00240746035041 -0.00126752783587 -0.000121131499158 -0.0134909416674 0.000544658559686 0.00525206877295 -0.00235966145568
2583 0.0100438576861 0.0115096291871 -0.00994669258234 -0.0126544688723 0.0238646861583 0.0138326650185 0.0228067207408 -0.0169128083235 -0.00495717822971 -0.0012217793488 0.00817597557858 -0.0179486022376 -0.000849172773383 0.0150202907266 0.0170748181543 0.0178030788123 0.0127555687984 -0.0101730995143 -0.0144683237539 -0.0145476915072 -0.00574191026631 0.00637254787441 0.0215169294302 0.00471367049998 0.00290573897805 -0.0278842664473 0.00777749449684 0.0125353924237 0.00548666789251 -0.0109107271145 0.00250451398823 0.0196965032071 -0.00565269909806 0.0159845305382 0.00961084663008 -0.00154504207348 -0.0184546346005 0.014192128775 -0.0200707210983 -0.0135212084689 -0.00844645189695 -0.0130723803012 -0.0132357940705 -0.00462127891559 -0.0213658249546 -0.00571246125176 0.00280394877805 -0.00826002424041 -0.0123059190624 -0.00705644593203
1945 0.0205785790094 0.0136237506383 0.000153860323412 -0.0162997796129 0.0128263189893 0.0151435256147 0.0138202252134 -0.0146475890488 -0.00693800063349 -0.00819634494235 0.0123867802087 -0.0128490408757 0.00903810376446 -0.00103686918792 0.00383212934702 0.0165471828562 0.014267803373 -0.0225542839631 -0.0109403028714 -0.00817517243767 -0.012613955001 -0.00437073436313 0.0244752806478 0.00822383780222 -0.00964844078713 -0.0197326305581 0.0223504141802 0.0155818299885 0.00368251462762 -0.0225633643639 0.00381617817027 0.00268354139677 4.97825291584e-06 0.00667104102218 0.0162964447093 -0.0165960047119 -0.0243714918019 0.00561455863135 -0.0153525423912 -0.0187235865973 -0.00254448957695 0.00428559391607 -0.00500532013215 -0.012613779656 -0.0198467178952 -0.020948211467 0.0142671600773 -0.01932841944 -0.0132365274417 -0.0052685517133
428 0.0126842015744 -0.00654465400633 -0.016189816242 -0.0229226779655 0.0340361932545 0.0631022345275 0.024563853952 -0.0694182972725 0.0528844781965 -0.0116621094038 0.0134166750514 -0.0118845536385 0.0338088852053 0.043065032899 0.0452480526725 0.0513146676035 0.0447386653896 -0.0311263070334 0.0122852342952 -0.0228191027934 -0.0357172855326 0.0115459838544 0.058288019851 -0.00534822373809 0.00813125317182 -0.0457385990059 0.0676660766892 0.0102423460599 0.0180766243846 -0.0528514572227 0.00580701220909 0.028222105116 0.034228723151 0.0376850348775 0.00943482217976 0.0233692225075 -0.0634910535541 0.0390753136519 -0.0171830794298 -0.0253952353204 -0.0115359898268 0.0145596274181 -0.0362430213169 -0.0430233911963 -0.0486999580603 -0.0161204262652 0.0500576127349 -0.0628994884673 -0.0508274537215 0.0136310732178
208 -0.134061499679 -0.0480091146985 0.00489001783256 0.0557776677526 -0.234393890077 -0.150491414607 -0.168105788585 0.156692827044 -0.0031444543587 0.000113507993214 -0.0484400834288 0.0411128412521 -0.100109756505 -0.127548130795 -0.106606718848 -0.136393843037 -0.0789967163879 0.179227412059 -0.0354122901547 0.0133023979556 0.197305842497 -0.0129613483261 -0.192669432047 -0.00591289103981 -0.0567305828226 0.12598338473 -0.224606089863 -0.0563006487228 -0.10267153737 0.164413616582 -0.0330128289917 -0.108356857162 -0.0544026490611 -0.079640988816 -0.0564170573044 -0.0196279682741 0.181660502484 -0.162737474451 0.0760306409475 0.0633474372878 0.0937380536126 -0.0188649512245 0.0446401730298 0.0165585923856 0.204090015391 0.0599279167078 -0.14721056227 0.176021443762 0.130419824847 -0.0158857263968
2662 0.00639799347916 0.00648602745842 -0.0112015536051 -0.0171167561436 0.0270096657224 0.00761317964705 0.0172493674305 -0.00152491807327 0.00531478348636 0.00187857891411 0.0144546577375 -0.000831394358933 0.00456023352966 0.0108600145631 0.00233866140083 0.00503187019138 0.0142159093294 -0.00977683252467 -0.00919160055795 -0.00593503974478 -0.0111169525812 0.00444834016017 0.0302761462992 -0.00675598269997 -0.00428014982877 -0.0153115974152 0.00939615992139 0.00596501252993 0.0119176333319 -0.00916800258679 0.014299982919 0.0179773615451 0.000863356830614 0.0019804731059 0.0180969874774 -0.012666793993 -0.0180592206774 0.00764814609067 -0.00957277089749 -0.0194237067128 0.00387993877483 0.00155832918548 -0.0165634839305 -0.00131198348024 -0.0291513421515 -0.0193019228934 0.00770207945654 -0.0199719827409 -0.0225419530007 0.00202635307765
1405 -0.0398615049286 -0.0301525243861 -0.0270866704166 -0.0271493459251 -0.0590211289525 -0.00889565153828 -0.0259083978289 0.0308974169422 0.0468813734962 -0.0149921030714 -0.016972039976 0.0274747758204 -0.00140117057067 -0.0377657878332 -0.00189133308469 -0.00244233523506 0.0157852148374 0.0349558149389 -0.0197878863506 -0.0071866037516 0.0547872115279 -0.0101162628845 -0.00491652047413 0.00624771814339 -0.0496094253969 0.063481705514 -0.0467976612132 -0.0192433864788 -0.016814689546 0.0114667737443 0.00350871980182 -0.0116255157576 0.00809895726234 -0.0323248152412 -0.018901270236 0.00801087051429 0.00657319077462 -0.00125129405006 0.0117190109918 -0.00435922660823 0.0151836540722 -0.00222129105109 -0.00791923243816 -0.0230713637719 0.0580683794652 0.0295821361571 -0.0238973639307 0.0161255632256 0.00313131394038 0.00942035813388
1354 -0.023680006604 -0.0311560664088 -0.0113696410632 -0.0160284792455 -0.0322981078543 -0.010769459714 -0.0163837020803 0.0215615941155 0.0354995024562 0.00512650824515 -0.0143139501735 0.0218881227816 -0.000882888998273 -0.0176259112277 -0.00511268209939 0.00562695564626 -0.0015543144152 0.0129133383517 -0.00517591194222 -0.000887661905773 0.0380239912408 -0.00227189909235 -0.0100765325958 0.00912669548978 -0.0231086842411 0.0343796790036 -0.0225095500314 -0.0190729927755 -0.0110548127759 0.0136227471638 -0.00774634604653 0.00289863645451 0.00548853958386 -0.0305849517621 0.00734041534324 0.000460549137088 0.0257865158099 -0.0016481754704 0.0184894963988 -0.000638705166788 0.012422700913 -0.00347318806952 -0.00112378858635 0.00124230052232 0.0449530989276 0.0314787572262 -0.00264440096095 0.0206595392467 -0.000768013031066 0.00219089453072
2605 -0.00567199806367 -0.00507380764473 0.00797652898324 -0.00874170886448 -0.0022677591243 -0.0111434671454 0.00724775773377 -0.00654100994383 -0.00530371929774 0.00033459132263 0.00954225754682 -0.0187099274264 0.00659538032364 -0.00795183828546 -0.00961419505478 0.0125668238385 -0.011022112321 0.00570981816881 -0.0044221858522 -0.00516451957619 3.60183155876e-05 0.00331689422246 -0.0100768170659 -0.0123277293874 0.0118974279588 -0.00358780959767 -0.0106029447526 -0.00361209224121 -0.00206744262402 -0.0048444676452 -0.00260361345685 0.000357582839249 -0.00697223561283 -0.00307168002588 0.00988921435476 0.00626294019304 0.0138217814649 4.43075903274e-05 0.00368537094264 0.0028204140222 -0.00318334180261 -0.00162156635878 -0.00163950435712 0.0143383465073 -0.00312044945656 -0.0190858368288 -0.00917841339226 -0.00191261289041 0.00141347344876 -0.00174729024945
58559 -0.0331682442777 0.177839646719 -0.0540010691569 0.103827168757 0.106415537837 0.193490668308 -0.00677384073341 0.102241952897 -0.0262756894602 0.0180055647319 -0.000699585213989 0.191197937297 -0.028310814481 -0.0258495506387 0.12849185549 -0.316055547892 0.0405807977145 0.0574191448515 0.0993464585897 -0.0189567685614 0.0322384987697 -0.00063342374419 0.162589483924 0.0386309730451 -0.0783366240702 0.0933551884438 -0.00905026844078 0.130040423249 0.0144656605514 0.00391159363158 -0.0306785739622 0.0754649079197 -0.052671601749 -0.0430816627997 -0.0214245002217 -0.00828751907229 -0.048886811862 -0.022135255256 0.00521816692693 -0.0713129126998 0.0450324931817 -0.0392000128754 0.00564360164753 -0.162882522858 -0.0480208671226 0.204485930574 0.0349613069416 0.15811636832 0.0466628572302 0.130644319653
81834 0.0112029224903 -0.0196657549866 -0.00537111606814 -0.0121010970765 -0.00659778498105 -0.016602790708 0.00216169371546 0.00136416829852 -0.00669227815669 0.00172088203217 0.0100974902498 -0.0127243454571 -0.00900836167756 -0.00188497442881 -0.0170741929495 0.014937986908 0.00135322133172 -0.00825203088484 -0.00992477472254 0.00102611213151 0.000579101078269 0.00125854600084 -0.00249339634983 -0.00897946854913 -0.00518090170363 -0.000814658696345 0.00183181131681 -0.00764299626258 -0.0128621321799 0.00193478065313 0.00870841405352 -0.0119395425004 0.0101255228351 -0.00635572151979 -0.0063037293458 -0.0102790767934 0.0113962616173 -0.000750136392773 0.00150662305536 0.00609587361974 0.00520471076568 -0.00456934585992 0.000166160316868 0.00176440614775 -0.00532982329559 -0.0198903488296 -0.000341665319792 -0.0139020509577 0.00396135146894 -0.00828758276134
509 0.00823945652205 -0.0412670654679 -0.0167110806958 -0.0233140121208 0.0777559449324 0.0434335034366 0.0222834960243 -0.0743837854337 0.0432805655319 -0.0226578228012 0.0108021792101 -0.0232399895563 0.031422167416 0.042020890033 0.0345353529599 0.0589904018548 0.0216852996751 -0.0229399527291 0.00535963785894 -0.040496712663 -0.0452367552407 -0.0192060445849 0.0741017091104 -0.00433164143521 -0.0257402809306 -0.0118401027899 0.047122523296 0.0313082511281 0.00844514007162 -0.0512955966657 -0.00383024923852 -0.00132416050561 0.0365818988387 0.0234377584881 0.0206214645945 0.059014978965 -0.059139719241 0.0507038342363 0.0130492076769 -0.0317139135285 -0.0095756775388 -0.00743626530381 -0.0468552647451 -0.0216691680514 -0.0332295340769 0.0370426714383 0.0562589316804 -0.0387049763248 -0.0275493586307 0.0153501270927
457 0.0101095359245 0.11142466036 0.0719362893349 0.0901732230866 -0.22764754825 -0.173712399153 -0.095007231274 0.273430115593 -0.204888220916 -0.00798001021734 -0.045045383535 0.100411272714 -0.124473163213 -0.119734500219 -0.111125493349 -0.24780666693 -0.0747545183233 0.0898455070837 0.0334032767094 0.128617860193 0.108516031758 -0.0110090730205 -0.248723699995 -0.0321333868534 0.0830783184096 0.0804284624291 -0.206545083274 -0.094503742083 -0.0202116270187 0.145894415076 0.0387342703344 -0.0573487542429 -0.114607853331 -0.0369703494314 -0.0948253803097 -0.161774708564 0.229604360144 -0.211826652075 -0.0156808979959 0.185906068342 -0.00113768691666 -0.0309037195883 0.15003377035 0.126558233595 0.112866878447 -0.0789761832955 -0.191450148168 0.176222847062 0.137052617042 -0.0894237256317
21 -0.0425409866237 -0.00443740648523 -0.0556454476382 -0.0533607258693 0.0484199930368 0.0569666785841 0.0100006612639 -0.0268509524202 0.115646793214 0.00748510850987 0.0142896077298 -0.0483922195178 0.0183913432235 0.0250154844818 0.0021222948996 0.0544673805663 0.0477810099681 0.0237968412147 0.0335003281875 -0.0650904849226 0.0121559860403 0.0131105472076 0.0902714767918 0.000767391162829 -0.103344303865 -0.0667568790169 0.0528613452006 0.0107181783222 -0.0391031824315 -0.0392418018588 0.0198582463532 -0.0267299850231 0.0531659104312 0.015645475614 0.0113565902335 0.0875519064307 -0.0243686343714 -0.00516473427218 0.0205447455794 -0.0708168129546 0.0528928534334 -0.00261000757507 -0.0778707312398 -0.0434009586306 -0.0675288854024 0.0176162870464 0.047474533187 -0.0698212512317 -0.0617549410135 0.00460135157362
79702 -0.00188615578276 -0.0176593086627 0.00987616028699 0.00348440530006 -0.0121376820511 -0.0188103844122 -0.00688703870873 0.0105325274187 -0.00841319817123 -0.00775449305446 0.00737230272358 -0.000660133182884 0.00829503495108 -0.00546161662061 -0.0151489484463 0.00578598071169 -0.0181599638633 -0.00148520939569 0.00117678470279 -0.00103990608606 -0.00184069141478 -0.00471222954102 -0.00476886138257 -0.0120124049589 0.00581678074745 0.011773998435 -0.00671652303892 -0.0130427038222 -0.00333331352471 -0.000609449626949 0.00399045696931 -0.00231486594662 -0.00132877808234 -0.00738792228657 -0.00253263422653 0.006768322209 0.00236574721952 0.00412862349163 -0.00111473909047 0.00190038599604 0.000515409625481 -0.00134163377836 -0.00655767305887 0.0246940163368 0.0164176446055 -0.00858583186729 -0.00347814805608 0.00261853593865 0.00812152367781 -0.000650863759408
7153 -0.0727247382154 0.258173674953 -0.0742288907569 0.207103775526 0.112350385326 0.251608876822 0.014457954461 0.146769176055 -0.00128760181747 -0.00613614104377 -0.0138926611289 0.205757047628 -0.019679967238 -0.0380873944573 0.12365665313 -0.341909264258 0.00363947965449 0.0511247517309 0.00536049492741 -0.00120084126669 0.0671378620089 -0.0298495515686 0.157174951493 0.121575679865 -0.0914055667984 -0.00793994469731 -0.0462638484587 0.161488307662 -0.0248831698817 0.0227103644846 -0.0635922757886 0.0736710615423 -0.0123936647519 0.0213704627211 0.0120090778532 -0.0403569889189 -0.0752052867574 -0.00770583763422 0.0829254614451 -0.0521601884985 0.0212104748731 -0.0817680839576 -0.00389612826867 -0.140298083081 -0.0656837263076 0.172380927986 0.0402913238388 0.261545690651 0.0756999427638 0.0931449926208
89745 0.010163225781 -0.00672305545364 0.00630041858524 -0.00764055062906 -0.0163183696426 -0.00808408398529 0.00580223671764 -0.0067149489004 -0.010657861588 -0.00107217474132 0.00655608097639 -0.0120902828961 0.00818036450145 -0.000874309756648 -0.0016233134501 0.0154615770953 0.000921273770075 -0.00858094572525 -2.80530639785e-05 0.00456423266167 -0.0101246507447 0.00493360617214 -0.0034931607281 0.000934213390409 0.0126732536923 -0.000847432479686 0.00333857043443 -0.0152022064325 -0.0115699477747 -0.00345933956526 0.0110807474928 -0.014020097743 0.00193643901689 0.0114159786727 0.00352684287745 0.000884530610775 0.000980708846486 -0.00271700169479 -0.00249442743949 0.00739618166252 -0.00247964914846 -0.00606112240021 -0.00740833934531 0.0166949683126 0.00190124350102 -0.00922833319787 -0.00548078511886 -0.0023414293772 0.00042504987574 -0.0152379516242
98124 0.00412007185709 -0.0153683363261 0.00602977478554 -0.00289896366854 -0.00868127316172 -0.0152238646874 -0.00410804562314 0.00525215775136 0.00733329963363 -0.00938599142256 0.000138263507391 -0.0131206561016 0.00384863335324 -9.86633304693e-05 -0.00232279526108 0.0070297755806 0.000397689700327 -0.00792479530225 0.000152583292582 -0.00417888397238 -0.00619140016195 -0.000199166781787 -0.0182283655367 -0.00615714818111 0.000133426631752 -0.0106137355607 -0.0104893363725 0.000931360899814 0.0034036008447 0.00564716752002 0.00623148762607 -0.00267801961368 0.0047654752668 -0.000689176767395 0.00651953449548 -0.00586811467209 0.0101493335335 -0.00572667794087 0.00368942872644 0.00832991782245 0.00645657994388 -0.00734360439069 0.000711801465965 0.0195595947008 0.00456293543459 -0.0125252317702 -0.0071790699201 -0.000790513789206 -0.00662111578764 -0.0123948645363
898 0.013893720917 0.00564057664345 -0.00916965957721 -0.00657604148828 0.0258534561561 0.0146532821457 0.0257915199486 -0.000678855216742 0.000958318125671 0.00218121572882 -0.00323305252357 -0.00729710440076 0.0128356366954 0.00303980893152 0.00862414265954 0.00688776381178 0.0247132719852 -0.00945459300836 -0.0138053485656 -0.0163275129068 -0.012279303193 -0.00813689674423 0.0234943155774 -0.00474395801911 0.00883611670901 -0.0107924284932 0.0218046575311 0.0082607963251 -0.00291394991491 -0.0251253536265 0.00368324711478 0.0116846596417 -0.00633251848302 0.00325019905455 0.0174161501224 0.00313547300277 -0.0163321567169 0.0084344174482 -0.0242393398227 -0.0171389588323 -0.00102690313742 0.00232835993893 -0.0193781706303 -0.00104200711094 -0.0130464223035 -0.0152835892497 0.0174750982117 -0.0193697780057 -0.0151288236438 -0.00027894109199
1059 0.103317010505 -0.0785489212038 0.0877686665816 0.0483122347643 0.0581190263992 0.0215723842692 -0.0036921380723 -0.081423275386 -0.0405076244534 -0.0666255117778 -0.0157250314514 0.150510552781 0.0997204818075 0.0890443276653 -0.0780995334355 0.00438796714913 -0.14603551577 0.0176691854032 0.170842903692 0.0806500585193 -0.0702922682791 -0.0249017037015 0.0283978365059 -0.0570074966771 0.099619656283 0.0944418556234 0.0381850445977 0.0596436715472 -0.00396237386211 0.0403177569224 -0.104916678393 0.042345973508 0.0482937719329 -0.0103156052853 -0.0476716334799 0.0720812423216 -0.0693761952002 -0.0144490280294 0.043161065496 0.0389699253479 -0.038114887038 -0.0188049460018 0.0618967684094 0.0871080746169 0.0499698093069 0.0785041249265 0.00182727034204 -0.0143461154903 0.110704652367 0.068045733068
106487 0.0156516214542 -0.0205382029218 -0.0113798399504 -0.0168222401735 0.0380786087302 0.0135139980378 0.00535652922652 -0.0184119020399 0.01190732241 0.00324116973245 0.0215204754055 -0.0106793901165 0.023444376171 0.0149775442931 -0.0130422126312 0.0193506785823 -0.0114388625891 -0.0101597218421 0.0124295046621 -0.0298295731293 -0.0239094830902 0.00259769676655 0.02437526253 -0.012861010838 -0.00882095134595 -0.00208676281167 -0.00128460682547 0.0203956377585 -0.0107566131537 -0.0275996739431 -0.00784146071705 -0.00172163473997 0.0104467863711 0.00904789618248 0.000288900604822 0.0219482661219 -0.00955985495947 0.029860462245 0.00264141505511 -0.0277651933969 -3.65326736833e-05 -0.0210782193229 -0.023651442763 0.022734634371 -0.0243550180143 0.0100479167961 0.00408374992474 -0.0175187183096 -0.0226196870044 0.0135272177084
79132 -0.0572961598969 0.193274077256 -0.0734765492706 0.0168686086706 0.19486513668 0.17261146153 -0.00749359728395 -0.125540820246 0.0636490405338 0.0483270736175 -0.0433123375618 0.181772771001 0.0389938141245 0.0469611245952 0.281653216941 -0.222613402994 0.136774577842 -0.0298251836679 0.116375619343 -0.04386569176 -0.0011474161412 0.000526483239156 0.251896255126 0.144786085641 -0.00590255871909 0.0618560006762 0.153599614869 0.152378271425 0.157050542499 0.0024047181926 0.0379323586244 0.174871115193 -0.0243136047145 0.0246937149305 -0.0173677131984 -0.016459382641 -0.120063417386 0.00556609103226 -0.0245156938375 -0.162386035763 -0.0382903940334 0.0389530618683 -0.0210316752348 -0.272523780446 0.0512708746353 0.206295331382 0.156653939562 0.0402946470292 0.00138665817743 0.191591312364
1907 0.00144885784481 -0.0100742476692 0.000229242657158 0.00813925045464 0.00429874823454 -0.00035818865007 0.00896054444233 0.00572384371711 -0.0179732760721 -0.00429382132915 0.0108604338579 -0.0157049255083 0.000716251652973 0.0047032111054 0.00235856951861 -0.0087806806757 0.00703352068267 -0.000934988171745 -0.00464519767302 0.000289610870066 -0.0127972035882 0.00260758388335 0.00251319960458 -0.00169158383568 0.00182497695496 0.00457411313144 -0.00693429039922 -0.000687391070664 -0.00859615955882 0.00901486972443 -0.00576498945574 -0.0102700446044 -0.00694226177332 -0.00321583426071 0.00146714815894 -0.0031739110341 0.00258082017082 -0.0057314539284 0.00423217558505 0.000104313866023 0.012359548375 -0.000308387497652 -8.07665935092e-05 -0.0110524457406 -0.00235552124732 -0.0132297522332 -0.0128955230613 -0.00966470015552 -0.00235199184577 -0.00613368633456
4015 0.00358590394236 -0.00309014888829 0.00972812199855 0.00928010301542 0.0165813736727 -0.00712596692042 -6.01993665033e-05 0.00627707182082 -0.00974356570585 0.000251195208512 0.00278216671892 -0.00894067740057 0.00229627052961 0.00485562940503 0.00685608019867 0.00944139519248 0.0100508533948 -0.00344132873013 -0.00690964447651 0.0134433452042 0.00136015669002 -0.01348108065 -0.0104849954757 0.000677740801863 -0.00660044032476 -0.0133722804364 -0.00724069467874 -0.0120019605241 -0.00048493452588 -0.00436921339366 -0.000546232529743 0.00379133337134 0.00417382584808 -0.00188409414642 -0.00537411279438 -3.21910522114e-05 0.00232904887278 -0.00582131760915 -0.0119556340573 -0.00253887490248 0.00741764911415 0.00176909779565 0.00171473099876 0.00528902602862 0.00864250501611 -0.0112335241049 -0.00826108090922 -0.00596603348121 0.00344532180278 -0.00671071010728
296 -0.0800144447114 0.140580971458 0.0815586315746 0.0565812964334 -0.329684238829 -0.223160578328 0.0478813128561 0.159012791774 -0.213988573572 0.0124762331253 -0.181617415378 0.039520031336 -0.174878050623 -0.13332828115 0.0707744852932 -0.17561340065 0.0462464220924 0.0472033313958 -0.250205261663 0.16981732985 0.184809896875 0.0668618404146 -0.387207184904 0.179552589125 0.0327723764721 0.119669799245 -0.0853720202969 -0.105356487864 0.113917316952 0.204878717375 -0.00839959660947 -0.0660974670952 -0.0839408564077 -0.0167492804082 0.105062432986 -0.30302284848 0.179578059808 -0.252242272214 -0.12887783691 0.377067043035 -0.0890257098473 0.200180327413 0.210730140916 -0.0695631403086 0.272562571422 -0.245142494971 -0.145480770896 0.193176659791 0.108108179247 -0.215383185158
2502 0.0588681669877 -0.0987014130931 -0.0468071373384 -0.0462276868842 -0.000742471968627 -0.0304601523171 -0.0243247039144 0.0166203187044 -0.00363632044815 0.0122439881238 0.0690898277514 -0.0178187228954 0.0126499327332 0.00992675495007 0.0531069156304 0.0048885336083 -0.102135152397 0.0371817587769 0.0780340417706 -0.0837880627015 -0.0544977960768 -0.0393261211513 0.0814030467572 -0.132758606494 -0.00235689140149 0.00214105818494 -0.00841972410757 0.0480469919358 -0.0646280033115 -0.00223719039408 0.0715562076972 -0.0665748539865 0.017824089075 0.0107591167735 -0.0536166079987 0.0221315999585 0.064999066315 0.0456363393231 -0.00583639698083 -0.0584315693061 0.00374452157914 -0.0789688163916 -0.107021936328 0.089921650367 -0.0206776967741 0.110116313319 -0.0191117542315 0.0160122521451 -0.00777776379319 0.065377250843
2657 -0.0125917602313 0.00458562697121 0.000291294492937 -0.00305832153947 0.0187496937132 0.00345465625084 0.00961786813172 -0.00479455385537 0.000495579770371 0.00480990935865 0.00340035515741 -0.0101606851272 -0.00562051812941 0.0114500807836 0.00278836356992 0.0107325588676 0.0105944536767 0.00361881861764 -0.0174840342588 -0.00542015516378 0.0104965833857 0.00470592780776 0.00815192443873 0.0124154525988 0.000215359161659 0.00193274418225 0.0106253323694 -0.00706898400347 0.00211007792465 6.63829214629e-05 -0.00198454232181 0.00736928368676 0.00273189731203 0.0067333107362 0.0105597534544 -0.00609980666669 -0.000764924867527 -0.0059364711026 -0.00127039458209 -0.00566002287318 0.00811205085063 -0.0062914506136 -0.00354587113928 0.00836849516626 -0.00800758558888 -0.0246609141521 -0.0101483305922 -0.00277141471436 -0.0111482532975 -0.0108636205838
1250 -0.00124859821341 -0.0932948409162 0.0773720450709 -0.0348916882484 0.0368457761894 0.0283986142709 0.0139942146937 -0.163369053744 0.01085383465 -0.00590434281151 -0.0329895895572 0.0070358309357 0.00626347904329 0.0723642024003 -0.00795268463289 0.0794323033059 0.0020067537009 -0.0857216196277 0.0370647296842 0.116722522166 -0.125402505195 -0.0205923387832 -0.123714797267 0.00625785985413 0.0493824251039 0.068296056637 0.100000055794 -0.0253147896081 0.151658263434 0.0179296142522 -0.0669407719676 -0.0377541591874 -0.00113465335152 0.0154622558467 -0.0367371889129 0.0992024228807 -0.0593381513675 0.0926553505731 0.0340694719867 0.0526977461919 -0.0858005726873 0.112877411832 0.0350708854313 -0.0513543948792 0.0155646078379 0.0505520820598 0.0896558680445 -0.148632250919 0.0559490613062 0.0583330352976
4975 -0.0020806620762 0.00144332421892 0.00384866751788 -0.00549475161325 0.00946274637039 0.00309316481474 0.00896806129198 0.00563523770493 0.00388426176944 -0.00311410168869 -0.00584272603741 -0.00347903895024 0.00752247099341 0.00669210615528 0.00302717230806 0.00478223524431 0.000984338918024 -0.00747492236845 -0.000985674614278 -0.00981330045824 -0.00458861971965 0.0121061457857 0.000855667010563 0.0189866213088 -0.00681209685073 -0.0051973403429 0.00778528446073 -0.00204580527756 0.000432829816579 -0.00283957113131 0.00250020599396 0.0170187735876 0.00262485135372 0.00400985323078 0.0121224586432 -0.00414138959524 0.00469928036394 -0.00910106473726 -0.0159692061836 -0.00937964330886 0.0121593944904 -0.0012595188917 0.0102327743285 -0.00189334484212 -0.00656235849787 -0.0150482441958 -0.00250084695381 -0.0024489695038 -0.0103241728777 -0.0136425352724
2571 0.104930805365 -0.231513176475 0.2523508631 0.0716128408432 0.191540334055 0.162550307476 -0.0538137393159 -0.360612093871 0.0255547617177 -0.119372448196 -0.0751345252757 0.203122656808 0.164189079482 0.180477756219 -0.266974236049 0.0822389124165 -0.210087379016 -0.0528053459482 0.167753023149 0.245660246512 -0.196889269787 -0.0151411725059 -0.233440348002 -0.0131182345519 0.128592996025 0.182931384806 0.163821439663 -0.0882848016066 0.323948252448 0.113288817449 -0.253363146655 0.0286896157709 0.0849295403482 -0.0803350906969 -0.154435252759 0.246072624926 -0.134659108386 0.101936542475 0.192613118904 0.123162084234 -0.1211655842 0.131196571505 0.198413843777 -0.0420913917506 0.172393520262 0.289154150304 0.114412605663 -0.214753281553 0.241556315218 0.0897366366634
1270 0.00175216932998 -0.0136391762805 -0.00299770305722 -0.00870672078834 -0.0105097022226 -0.0168335362143 0.00884860851285 -0.00183111378192 0.00290838833893 -0.00360800198373 0.00629485413809 -0.0166333903591 0.00401354405632 0.00229323734903 -0.00183610653587 0.017745973735 -0.0101377613632 -0.00318853378049 -0.00747802717654 -0.00740494025592 0.00588993258631 0.0112419198428 -0.0128385044581 -0.01399293432 0.00909574863446 -0.0092245275226 -0.00576884319524 0.0022499912595 -0.00847601957072 -0.00542910764161 0.0047005439295 -0.00545342047904 0.00145601917018 0.00705926343587 0.00399033149021 -0.00330451210148 0.00373900346091 -0.00799864088302 -0.00511100690116 0.00898197087962 -0.000253465671819 0.00937433659418 0.00409537960557 0.0119437680534 0.00511744787119 -0.0159550404854 -0.0111243994732 0.00186095704159 -0.00579391437721 -0.00381287138401
1707 -0.0055725869612 -0.0158114191238 0.0113354013305 -0.00131805330835 -0.00916592949796 -0.0186019871589 0.00690419990755 9.67207754643e-05 -0.000555404723547 0.000443436407521 -0.00120403175488 -0.0193016068275 -0.00766819084207 0.000863244282559 -0.0171106063532 0.0142634671255 0.00448905805967 0.00638619873483 -0.00703432151053 -0.00530875179717 -0.00129315200521 -0.00745497774414 -0.0115625102538 -0.00400840465415 0.00940833471307 0.000395006193327 -0.011054458142 -0.0048280517866 -0.00550995987694 -0.00321894849961 0.00895178906198 0.00401885492586 0.00492968932323 0.005876018875 0.00132769919176 0.00606549439264 0.0080597650966 0.0075719559569 -0.00579464958087 0.0129971947496 -3.22015967482e-05 -0.00816316188669 -0.00824170493476 0.02006129102 -0.0031914592066 -0.0201557258981 -0.00811802446652 -0.0149044644952 -0.0101748201544 -0.00926728243019
339 0.008967389463 -0.0278227172646 -0.0125647459367 -0.0320596518699 0.0628634029615 0.0578275830681 0.0244023790567 -0.0658336772568 0.0462997780206 -0.00947340162503 0.0207669766459 -0.0250361221004 0.0335473379884 0.0413989631498 0.0261018591134 0.0595886721032 0.0153310261122 -0.020758312258 0.0100412703154 -0.0395062686144 -0.0460438464212 -0.01312083811 0.0853694850165 0.00592895510517 -0.0260186743486 -0.0124878611591 0.0467835938651 0.0462278620077 0.0123669861216 -0.0343417479593 -0.00414624003778 0.00152732161901 0.039709672653 0.0209210876763 0.0071036360745 0.0551315957301 -0.0666275069279 0.0593333458714 0.0149879947206 -0.0346245439598 -0.0118656501852 -0.00151892794251 -0.0447557462882 -0.0268606945731 -0.031421374424 0.0363133492129 0.0441853191784 -0.0436832125277 -0.0186920395035 0.0285266546064
185 0.00732986752026 -0.0442574094277 -0.0147582039507 -0.0331340196591 0.0671417053131 0.0537049019502 0.0241313980251 -0.061489607012 0.0507105916126 -0.00732416183376 0.0233958248091 -0.0158218559655 0.0417256696592 0.0528720666039 0.0347069748904 0.0480892703065 0.015921700816 -0.0181580567992 0.0127189077309 -0.0349189844904 -0.0418716661367 -0.0166517403232 0.0884923300097 0.0102467242071 -0.0215249777073 -0.0216694419808 0.0619612798126 0.0399414276982 0.00648886123263 -0.0471771735952 0.000580940799291 -0.00704589629628 0.0427433746093 0.0163089473885 0.0112191937699 0.0540293414545 -0.0505847363461 0.0488658149292 0.0164401259334 -0.0368088586055 -0.00385677296721 -8.56193000146e-05 -0.0314612772229 -0.0255739039086 -0.0315956865223 0.037050159541 0.0586422883935 -0.0337625818461 -0.0295482504418 0.0213975282638
344 -0.218848276334 -0.0416757384597 0.0059301411113 -0.0356685899953 -0.325124361764 -0.263880956173 -0.174337618344 0.124318962168 0.00436048742565 0.00438958173543 -0.104836321382 0.0418924626092 -0.178966429969 -0.142150553485 0.0857823086626 -0.137059382241 0.0647921969987 0.186952298254 -0.0958976876945 0.013054885549 0.265633967312 0.0459502269073 -0.203872223458 0.0635932713311 -0.079208747122 0.157563608098 -0.197324092941 -0.060457798783 0.00755945579463 0.162735045565 -0.00789778206563 -0.145991880011 -0.0580296370821 0.00493905560086 -0.0194972660281 -0.10647937137 0.198827101342 -0.25461841501 -0.00653503423353 0.120294028374 0.0511454605659 0.0909249188657 0.0523975272872 -0.0572348810842 0.273431759062 -0.0376210618925 -0.0918905433583 0.23863933583 0.149808100821 -0.0239784209508
440 -0.160541305223 -0.000986298339648 0.0566490261044 0.125094383704 -0.120855565457 0.109366801874 -0.16281992213 0.0229394625744 -0.0693452789873 -0.07814976506 -0.0286408479016 -0.0787758445022 -0.120246839706 0.0454386829354 0.197916675799 -0.035094961212 -4.64611735851e-05 0.0609194080599 -0.0319905677946 0.0505912404137 0.0193658319744 -0.159062295816 -0.0989420671424 0.0711818381603 0.0433152003576 0.0670905014849 -0.0464319341012 0.037592394954 -0.268676678302 0.133219863679 -0.154721225163 -0.023900762879 -0.00178850483086 -0.060859953417 0.0752419321493 -0.0699380517282 0.0618649595513 -0.0911727161272 0.21317607663 0.0435669975535 0.0838962285493 -0.0883785474876 -0.00918223236148 0.163803389652 0.0686409705647 0.0302766345621 -0.0505949387972 0.207337531754 0.204084072728 -0.0637319915669
432 0.0239353470112 -0.00511860207432 -0.0174664631565 -0.042431386937 0.0364873152627 0.0475299899244 0.0351114758873 -0.0688459569258 0.0412800050024 -0.00171143530843 0.00973266244442 -0.0176292484258 0.0340510440827 0.0445303313605 0.0408515298091 0.0543479601963 0.0427109111904 -0.0288189185203 0.0123531525442 -0.0352925234396 -0.0352793286239 0.012724415188 0.0627332347672 0.00720274371846 0.00225599690391 -0.0342897914909 0.0656919410235 0.0122334142163 0.0253962643077 -0.0455357416775 -0.00186292658931 0.0198839720708 0.0390820935833 0.0359489912974 0.00208064606814 0.0347731553011 -0.0755599962891 0.0351922185289 -0.0173992354617 -0.0226610351445 -0.00391936953184 0.0019787142247 -0.0227377580665 -0.0326452399981 -0.0530828462583 -0.0152324751625 0.0421720663776 -0.0613316584039 -0.0488087923431 0.0148698277247
377 -0.166436693642 -0.00929734899039 0.0483149197715 0.120832429334 -0.110325170826 0.105955261355 -0.171518049692 0.0235022023352 -0.0763423968358 -0.095612899108 -0.0219067365507 -0.081403631399 -0.120250662342 0.0489923395107 0.188250039983 -0.0228492992233 -0.0133467064984 0.0604324553449 -0.0314774376078 0.0536573061108 0.0195130068538 -0.147656129054 -0.105224435313 0.0688482970417 0.0458300027602 0.0689047709765 -0.0500004629233 0.037605851164 -0.282484008376 0.138076738021 -0.162073409588 -0.0189790816324 0.00572145234514 -0.0504389314616 0.0672310329802 -0.0698783608579 0.0632703186199 -0.0850545414653 0.20292924144 0.0484828984811 0.0855456393315 -0.0745605067672 -0.00610301852879 0.152025078715 0.0666980946214 0.0144617885121 -0.0565675948182 0.20864494622 0.194738152164 -0.0683468179667
4069 -0.000840317655449 -0.00392248656343 0.0103889703618 0.0063465622538 -0.00233956567034 -0.0120382710844 -0.000144383905524 0.00215252554776 -0.00233857383096 -0.00239212465555 0.00471924614663 -0.0067984373026 -0.00308894667078 0.00402916823179 0.00395870700657 0.00599342523121 0.00203651165908 -0.0144737998065 -0.00504786442924 0.00848101632362 0.000925558767561 0.00308585497174 -0.00580954227326 0.000519881491528 0.003965924383 -0.00649168841245 -0.00242393171593 0.00245378220332 -0.00021759672784 0.00337282386812 -0.0067107466756 -0.00504446289443 -0.00568481892931 -0.00216409657069 -0.00829699755891 -0.00652262771251 -0.000936890583507 -0.000140377412997 -0.0113693440296 -0.00687857391626 0.0130448913214 0.00948670671065 -0.00253102380975 0.00386530245001 0.00778742895327 -0.0041427935922 -0.00564770178146 0.00555506427338 -0.00291236942093 0.000490732290791
4014 -0.0214041717724 -0.00474466717253 0.0210297750018 -0.0250100075839 0.0416630195532 -0.0470476167903 0.0261973356338 0.00281464940924 0.012058487334 -0.00117684613214 0.00647294316366 -0.0381473797219 -0.00168448338849 0.0177226093078 0.0106131563486 -0.00570788063065 0.0408845740929 -0.00942333840793 0.0508671226017 0.0182517942544 0.00281544827929 0.0212354925235 0.0279589839685 -0.0250666316192 -0.0420885146169 -0.0121183019792 0.0213209170544 -0.0150683604655 0.028158910612 0.0120772411714 0.0016014352863 -0.016497086786 0.0264769859028 -0.0113886910644 0.000867262124264 -0.0307487314187 0.0299383320399 -0.00794281158172 -0.0209745729106 -0.0200870218681 0.00683020056437 -0.0451154155541 0.0142887258985 0.00973863603323 0.0209130822529 0.000266918361291 0.0501436660326 -0.0392088781796 -0.0068239481633 0.0471151735523
1193 0.00142167189159 0.00748012973572 0.00665790045304 0.00829545766156 0.0100912716868 -0.00389140672833 0.00529264756425 0.00714214655658 -0.0173565921918 -0.00247967346515 0.00399029724474 -0.0121338707582 -0.00650480097838 0.00251808867452 0.0118190693565 0.00433382379136 -0.000285883919827 -0.00601861546848 -0.0162409826623 0.00158255306532 -0.0122027605117 -0.0014119788342 -0.00673989394322 -0.00455497577708 0.00313555330714 0.00386371781957 0.0049385815496 -0.00363419963959 0.001326764746 0.00727793480626 -0.00314261871496 -0.00410090309999 -0.00937463952867 -0.0135474059489 -0.00749490907489 -0.000220214580526 0.00238053010293 -0.00123223582814 0.00165228536242 0.00401437054852 0.00749961095938 -0.00901527644818 0.0049312031807 0.00131311285096 -0.000581530881356 -0.000428840558319 -0.00113580788969 0.000560968769938 0.0101460606737 -0.00380568394492
2081 0.00224024386895 0.00582294986856 -0.00646637196483 0.0181757738858 0.00891233321831 -0.00337092411247 -0.00623540613999 0.00294137572579 -0.0051665401725 -0.00146271864618 0.00842770230253 -0.00662502416184 -0.0149896802746 -0.000363052225779 -0.000475509187078 -0.0063121608811 0.00663022263241 0.00143097941635 -0.00918370742905 0.0101740086939 -0.00342784194634 -0.00151369574853 -0.00403601301929 0.00236049087667 -0.00265246067284 -0.00700873123787 0.00226703271342 -0.00619683583487 -0.00384131279329 0.00713556722806 -0.0174433907062 -0.00338206160026 0.000182293265019 -0.0117074862049 0.00324922177353 0.00491269671862 0.00290375347267 -0.00552694346295 -0.00984810034779 -0.00151148497267 0.00184008321566 -0.00706997501553 0.00272728679604 -0.0103326068736 0.000242518517074 0.00610187975178 0.00365743274076 -0.00382657198036 -0.00135635856987 -0.0127390027204
2490 -0.0208472672367 -0.00863451495065 0.00881266663036 -0.000763374264822 -0.0188360333381 -0.0228261210041 -0.00858331192744 0.0133643111186 -0.0113180542074 0.0113170207651 0.00213103612255 -0.00409635548985 -0.0109656070979 0.000610566297127 8.817262394e-05 -0.0134479656416 -0.00834704951987 0.00367317674913 0.0153848218205 -0.0102557372069 0.0088661459033 0.00775815180256 -0.000867185262393 -0.00922965157662 0.00946894811584 0.00706769270152 -0.0109568159881 -0.0156288747541 -0.0152556475678 0.0165554940729 0.00632458653834 -0.00624949135978 -0.0105555632352 -0.0046240667089 -0.0157813065528 -0.0144606879865 0.0244020065548 -0.0108615257275 -0.00668882207056 -0.0115345443713 0.000111619474211 -0.00794469457455 9.4995063057e-06 0.0124254649425 0.00484647997762 0.00652587899071 -0.00279487610898 0.00562820394445 0.023670548281 0.00538773824737
2427 -0.0174057330983 0.000794274702877 0.0104410605352 0.014199012013 -0.0144007001116 -0.0311577049575 -0.0155741474944 0.00383700302284 0.00325497664723 0.0148746802075 0.00461908309976 -0.00568831161938 -0.00964634347734 -4.85266038726e-05 0.000725020458867 -0.0175502006829 -0.0131532120119 0.0115380836941 0.0149546100956 -0.0150557865344 0.0130449382537 -0.00355100216958 0.00163438287945 -0.00530501133193 0.00690707813804 -0.00160686207804 -0.0210501115769 -0.0108627301402 -0.0160607898235 0.0107711778187 0.00701685361126 -0.00315867265894 -0.00667804634167 -0.00403925228274 -0.021394837201 -0.0123167771345 0.0189939063904 -0.00284308202806 0.00350058225077 -0.00184277825036 0.00303808023218 0.00537957210391 -0.00581568501506 0.00920359524216 0.0138028712333 0.00248964090635 -0.0067193983108 0.00977685299634 0.0238773399508 -0.00924737016777
152077 0.00259100218682 -0.0127484569778 0.00426207807834 0.00442281829715 -0.00118610540009 -0.00689345448789 0.0022384686824 0.00171485127975 -0.00824181675929 0.00367253279858 0.00395396240359 -0.007061967186 0.00459300134662 -0.0114834126547 -0.00872142960634 0.00491291292067 -0.0155775227516 0.00162912909481 -0.0103927583121 0.000588325235359 0.00544220214776 -0.00194332708754 -0.0103413692489 -0.00801290305285 0.00499755578516 0.00402078799807 -0.00842222405703 -0.0105031866897 0.000996079089382 -0.00651925420327 -0.00861567262521 0.00205201117269 -0.00542426699522 -0.0105098722001 0.00269972566662 0.00965943829698 0.012373158715 -0.0029889620203 0.00619462173586 0.0129102443154 0.0134544773327 0.00348570691117 0.0097711067356 0.0264022796939 0.00520543239522 -0.00237289614098 -0.00478814946118 -0.00941452524684 0.00701307406956 -0.00313359903531
109487 -0.0010875904588 -0.0217830374834 -0.00717714090963 0.00120044773072 -0.013922878903 -0.0161820164525 -0.0130564277141 -0.00710745971158 0.00644144023125 -0.0108738921578 0.0125914658913 -0.0136648659156 -0.0075201013673 -0.00680055412953 -0.00892928870042 0.00490597692201 -0.0139209608002 0.0130285547116 -0.00639953731255 -0.00286898924185 -0.00280581778271 0.00330389465966 -0.00415178307622 -0.00288641494245 -0.0081868100724 0.00539922971967 -0.022815702925 -0.00400862159079 -0.00434995393594 -0.00570643883615 0.00276707387052 -0.00490176819106 -0.00205029982555 -0.00408330653356 -0.0106914028692 -0.00300699150035 0.00240684928197 0.00190303453982 -0.00178822800655 0.0101909165301 -0.00359077579513 -0.00411149493098 0.00422087921579 0.0203418687685 0.00854099223669 -0.00687506022939 -0.00460023709052 -0.000572507439543 0.00847002170657 -0.00748090077467
785 0.00262235168668 -0.0130908299722 -0.00760556099742 -0.015909895972 0.024095577836 0.0255288293686 0.000799888294626 -0.00684691604702 0.0247226940031 0.00682496872863 0.0319330140062 -0.00770831366434 0.0244473159767 0.0145566073372 -0.0186416753627 0.0180818663588 -0.00296024234353 -0.0051986409215 0.0141407347273 -0.0183038033589 -0.0258024978471 -0.0032206835796 0.0287679288572 -0.0118214378079 -0.0196163992237 -0.0153037747822 0.00315249262062 0.00383419156204 -0.0202203018165 -0.024637364363 0.0006233549887 0.00715754114404 0.0211319088309 0.0114714263018 0.00461946197732 0.0399491778809 -0.0127279491773 0.0205227590126 0.0113037496925 -0.0205762369156 -0.006439094367 -0.015356989277 -0.0122117543734 0.0078506502347 -0.0386561525257 0.0157394000758 0.0118166408464 -0.0071828581569 -0.00801925339712 0.0127899757321
91500 0.00493674358432 -0.0169878640282 0.000730562591145 -0.00467569248461 0.0331833182289 0.0131182638975 0.000641381033954 -0.0105084040227 0.0284114787169 0.0065827543935 0.0198338170837 0.00143583918867 0.0154372916468 0.0129366462113 -0.0121213713609 0.0239483883117 -0.0109099483979 -0.0102464837605 0.0135858146659 -0.013353607826 -0.0223087374388 0.00189019369093 0.0274984284944 -0.0185418222667 -0.0108052644685 -0.0184315018583 0.0106367787533 0.00573477880235 -0.00831237726542 -0.0233517388426 -0.00543784775182 -0.00966927955985 0.0151525179236 -0.00122459650844 -0.00307997592607 0.0294812949341 -0.019765357375 0.0369586618262 0.00664110769186 -0.0395538350991 -0.00606904954461 -0.0140849862852 -0.027809681965 0.0139951825264 -0.0216848204897 0.0193169541555 0.00207587795782 -0.0155550447467 -0.0103457945588 0.0132455277556
337 -0.17664825234 0.01942102885 0.0507912270134 0.132141850949 -0.145402181755 0.146893865815 -0.122633043561 -0.013577075962 -0.0678787423823 -0.0937715500061 -0.0512905865923 -0.127819215258 -0.187457475279 -0.000453690088375 0.246373251662 0.0133641629216 0.0529947909303 0.0267549115487 -0.188573613344 0.126702967952 0.0298500875101 -0.170063138184 -0.169334156488 0.10543370468 0.0226783493357 0.0131214648041 -0.0105814036015 0.0250996564277 -0.274311694582 0.134165172342 -0.238207182809 -0.0211039367047 0.0406214092697 -0.0996445459124 0.0895675897176 -0.0863159838818 -0.00647295300598 -0.0988829627554 0.249094819574 0.110476111896 0.110750375261 -0.0391055339698 -0.0205499483329 0.0783174793599 0.102934254119 0.00857215538994 -0.0718469676712 0.234325403767 0.16257298079 -0.125940247086
1206 0.0172028229465 -0.00148500570549 -0.00349540508745 -0.0084125586387 0.0109665508885 0.000122441191774 0.0253412432288 -0.0162298126852 0.00433104013198 0.00652704625864 0.00263963643257 -0.0155876981169 0.0083853142821 0.0019974011163 0.0193492980267 0.0113813795864 0.017787556355 -0.0177063113904 -0.0149749167613 -0.0182007727544 -0.0174523175085 -0.00312968877627 0.0287779895889 -0.00330067273189 0.00899196558126 -0.0127812510346 0.019704637653 -0.00374765469322 -0.00540144063861 -0.0122545358969 0.0176133267588 0.0171039288248 -0.00160766448544 0.00855004624152 0.0233555920669 -0.00451188103542 -0.0109582258886 0.0164662996565 -0.00847471848149 -0.0151010965145 0.000444869627728 -0.00502974075629 -0.000961787273186 -0.0104691784669 -0.0293881483481 -0.0173779900532 0.00211724749665 -0.017933131326 -0.0226754142991 -0.00219704415533
153 -0.0955614911889 0.0725450986758 0.0297051306305 -0.0768796855327 -0.342389867502 -0.0529853860054 -0.0930103070024 0.162466598735 0.188699016114 0.0707963718513 -0.0862974545298 0.0641637283082 -0.0191745913721 -0.102178564173 -0.174667034872 -0.0111790329489 0.0325909568917 0.0773293626674 0.0515289865506 -0.0224842347557 0.202261212778 0.176615145646 -0.115795663321 -0.0997457118199 0.0116603300285 -0.0519238779281 -0.12820317038 -0.223872350929 0.0593836960772 0.0013893474558 0.114522468326 0.0147825900198 -0.0625940444788 0.00201508219835 -0.142953488689 -0.029831686509 0.11592641602 -0.200195821216 0.0244167673796 -0.0412020102763 0.138231863175 0.034764151283 -0.00108601134122 -0.180993968199 0.0279955566767 -0.0180898422363 -0.0171863775698 -0.0676672040005 -0.00509085355734 0.00289165276474
110 -0.205498112545 -0.0262760889768 -0.0290850738121 0.0308298980025 -0.215409462119 -0.180592036051 -0.191755575993 0.195071380569 0.0383549326727 0.030435587598 -0.0310360275222 -0.0248169127664 -0.131968979202 -0.188107219274 -0.0725347146292 -0.147415538939 -0.0448131793798 0.200231808372 -0.0867201201976 -0.00158316919675 0.259389327603 0.000754721167381 -0.202774995088 -0.0137252949847 -0.128693126992 0.0616803324554 -0.240805054413 -0.0482743466607 -0.15247297151 0.177479418024 -0.0356660952221 -0.148721516974 -0.0413439324788 -0.0599735571126 -0.0472640404952 0.000741675715641 0.254374580502 -0.244941153379 0.0726521470534 0.0920802036854 0.0972693627354 0.0168396410222 0.0371774321349 0.0170600086264 0.189487563771 0.0328528869282 -0.168594400067 0.188471086809 0.118329134889 -0.05591413458
593 0.0610224909984 0.15370311269 -0.126955686832 -0.0220987760549 0.0146435709385 0.148104522936 0.214926713062 -0.00135204607739 0.0424171363586 -0.0640526541635 -0.0291021747785 -0.0435396923943 -0.0737457348614 0.0199313020588 0.117304122109 0.141759005201 0.20957006819 -0.0985964189344 -0.255249439001 0.0249493038309 -0.0187608324353 0.0120383705194 0.0745635484221 0.194402989706 -0.0757640405201 -0.0214977494308 0.122971274265 0.0653682938084 0.0297759690034 -0.11032507141 -0.050592152973 0.0949491919249 0.00534368328054 0.10796554574 0.233071499678 -0.0564838477867 -0.234342232859 0.0436405095909 -0.0641984629178 0.126621796364 0.00157286736092 0.0766539162177 -0.0583430866285 -0.0880229625132 -0.106763171258 -0.216686583186 0.122317716614 0.0218889389219 -0.174357634553 -0.0512020322611
778 -0.0302891391195 -0.108008188774 -0.0723515235906 -0.0794719176475 -0.0157724222641 -0.0255495244517 -0.0698257409769 0.00905281753369 0.120706834991 -0.00124532832725 0.0569572424903 0.0370251051505 -0.00428577046585 -0.0578130938735 0.0205911582522 0.059674068876 0.0458179420769 0.0581159179867 -0.00246613401614 -0.0139489840313 0.0178096579221 -0.0294648718186 0.0586063584351 -0.0608383695108 -0.0362473558173 0.074868710123 -0.0682250846012 0.00954556335733 -0.0942867467604 -0.0365420458248 -0.0236128595203 0.0174011783207 0.00223495712436 -0.038875743804 0.0159235696311 0.0917161019031 -0.0118491151186 0.0711343319178 0.0555551509354 -0.0391137173674 0.00825040714445 -0.0136441806646 -0.0624585429927 0.0672391229142 0.0545589482019 0.00938961423655 0.0177854800505 0.0364655248352 -0.0639780976618 0.0299129867356
1391 -0.0178434533483 -0.0212119679007 -0.00847632075503 -0.00290279470295 -0.0324103372802 -0.0147004280844 -0.0235596753562 0.0196496002228 0.0247542730637 -0.00914062839367 -0.0166412266303 0.0244492857699 -0.00318490811859 -0.0118328094539 -0.00156023427571 0.00431544288302 -1.31536420107e-05 0.0234225401992 -0.00190131596996 -0.00205296570157 0.0319459748234 -0.0110051685666 0.00236166558793 0.00432888516779 -0.0177408227975 0.0333207799366 -0.0273438637798 -0.00294211592934 -0.00804363889846 0.00205904880219 -0.00415263511717 -0.0153976058595 0.0152274250166 -0.0300862109224 0.0054145813973 0.0186226913083 0.0202375994939 0.0148401189262 0.00413713352699 0.000668110590639 0.0178711218861 -0.00362528981069 -0.00736095670332 -0.00135596270662 0.047322409094 0.0301650539318 0.00263955940893 0.0205025666236 0.0167579669254 0.0154829536745
8368 0.0029618588428 0.00673171914115 -0.00150948851043 -0.00820017383633 0.00463351249525 0.00126921866156 0.00576810028944 -0.00491344784116 0.00468052422138 -0.0110187856051 0.00330387852172 -0.00216905268957 -0.00799741364697 -0.00146817084945 0.000682986301855 0.000709466163791 0.00420945723645 -0.00381279203146 -0.00288551645186 0.00300306673695 0.0105733354236 0.0082309038698 -0.00301899016132 0.00970572549892 -0.0126138549172 -0.00258077170166 -0.0029109531449 -0.00521564148145 -0.0117687525273 0.00625476922178 0.000870825775614 -0.0011838864095 -0.00863817531635 -0.00161221552203 0.0170488210754 -0.00777800743184 0.00426406480951 -0.00760118322996 -0.0208465859641 0.00321849791471 -0.00362620423984 -0.000492380506215 0.0101792675908 0.00901162049806 -0.0040327553235 -0.00759991324329 -0.00202792526787 0.00166056760611 -0.00673274985242 -0.00729081335639
2761 -0.0100535014361 -0.00412314745099 0.00786847202372 -0.00808546789967 -0.000445677950749 -0.00674966696841 0.00492022507824 -0.0067445528669 0.00407264583605 -0.00592030238522 -0.0088647422833 -0.0109704964168 -0.00264848526988 0.00107385576854 -0.00195692516518 0.00526326764333 0.0149748793063 -0.00231260661921 0.000116062947169 0.00288147649067 0.00915925204096 0.00345622368217 0.00792891035842 0.00413556832864 -0.0154649131229 -0.0142285049789 0.0143775483391 0.00316645588259 -0.0155504334618 0.00308879000309 -0.00222535212579 0.000703034641151 -1.90616278628e-05 0.00395805655121 0.00952145569507 -0.00697203561586 0.00449838166151 0.00855917634349 -0.0182956283546 -0.0121841875197 -0.000583959886622 -0.0132893618476 0.0137872918385 0.00244874304301 0.000269016234452 -0.0166374605776 -0.00661914698227 0.0032909713754 -0.000665034804105 -0.010660465714
31 0.0340265596784 -0.00513478076864 -0.0180613143617 -0.0407597771104 0.0749533310906 0.0611058638151 0.0582440081358 -0.0776485247691 0.0525790412119 -0.0107042050914 0.00382016835216 -0.0340410644397 0.0357464627252 0.0437925998999 0.0615497197382 0.0631541815759 0.0486014613222 -0.0350287785434 0.00419394865648 -0.0152044063238 -0.0523889791826 0.0175657459085 0.0867612664031 0.0141048063833 0.00439150417381 -0.0365355384453 0.0805643915239 0.00178230364361 0.0486604353431 -0.0645560756763 0.0115732285727 0.023384486682 0.0351913772441 0.0127207443599 -0.00181312220966 0.0454137704131 -0.083675722331 0.072206217472 -0.0243808808111 -0.0353023796966 -0.0147620508995 0.031442986462 -0.0153182259017 -0.0344716060543 -0.0458317712717 -0.00110781989609 0.0789777709771 -0.0705618439273 -0.0617969135167 0.0140375670012
204 0.0160140494138 -0.00484677403813 -0.00793006466499 -0.0252857220873 0.0487761212296 0.0550408219478 0.0346143030609 -0.0560613757138 0.0526579372214 -0.0112428976421 0.00448368468532 -0.0270324674445 0.0308204114053 0.0278978312224 0.0300991151082 0.063847973623 0.0369930168021 -0.0281337088479 0.00955495412231 -0.0274161629062 -0.0456340445114 0.00339362714591 0.0674276924659 0.00846867430494 0.0039423051264 -0.038504263497 0.0654318274996 -0.00121776971631 0.0196096175907 -0.0578000109614 0.0106519284312 0.0161915117566 0.0417789344648 0.032264274437 0.000802830842204 0.0252303022493 -0.0711662269563 0.0330333278567 -0.0143576864038 -0.0279233708547 -0.00425182723714 0.00578056225321 -0.0300444181717 -0.0356959749673 -0.0489078531055 -0.00936439736523 0.0501257332175 -0.0616216427449 -0.0480203300162 0.00497861875712
77455 0.00429852664286 -0.0163269098441 -0.0177449875905 -0.0154056412878 0.0312208130073 0.0229674955622 0.00642562557423 -0.0102073917277 0.020508129573 -0.00221405497875 0.0287772028606 -0.00699283713633 0.0236465869384 0.00531713559177 -0.0120590742894 0.0137940580381 -0.00853655482858 -0.0119663406827 0.0147804889575 -0.0199459469194 -0.0139208027281 -0.0100594697676 0.0240784437409 -0.0271551767606 -0.00105946134181 -0.0142721036559 0.00497195028066 0.0175423000967 -0.00553300613842 -0.0133825670587 -0.00148894711039 0.0027048581244 0.00792461963461 -0.00495840960227 0.00544764576833 0.0284841857113 -0.026560724038 0.0262756604142 0.0161082919061 -0.0356860494231 -0.00654573470932 -0.0251869674137 -0.0210918763105 0.00685608189156 -0.0224321634506 0.00821363584741 0.000773562654426 -0.0233390043146 -0.0183211212112 0.0220350829026
91529 0.00406460851652 0.0167609726882 -0.0610847689021 -0.0270937030228 0.117896474108 0.0381771057918 -0.0157573404119 -0.0691780855777 0.0530398346917 -0.000399227399079 0.0185377482251 -0.00495773713149 0.0542796771968 0.0362353106547 0.0356570806405 -0.033821422495 0.00965439146947 -0.0396779508122 0.0758579127263 -0.0522664310958 -0.0358387273642 -0.0436621937984 0.110103054223 0.0373616766911 0.00375548183382 -0.0219114915984 0.0683786785153 0.0498725025902 0.0143641874846 -0.00872690415682 0.0361301024572 0.0795069986296 -0.0239931504243 -0.00485024966697 -0.0309865142134 0.0547848826846 -0.0559133186299 0.0406860675583 0.0165696109336 -0.118111929042 0.0122084671821 -0.0127302998242 -0.00710851425552 -0.0179167938062 0.0158567166022 0.089746196204 0.0489658118229 -0.0462753436719 -0.0378043754712 0.103917441032
733 -0.0662874409294 -0.0325246533072 -0.0933582170563 -0.102541552736 -0.0114599650314 0.111275828576 -0.0519459968155 0.0044439429288 0.144224936234 -0.0538578213691 0.0404748114849 0.0332785413844 0.0827028787092 -0.0144571604564 0.000134700217531 0.0241254649796 0.0165422141964 0.0946682868913 0.0637581988138 -0.167856732331 0.0279544659383 0.0206778908113 0.0239503860722 -0.0355259666483 -0.0570358711503 0.0909895808132 -0.0635900909934 0.0190205749894 -0.0495633860568 -0.0217183546662 0.0845898245515 0.0329735709115 0.00599089530674 0.0520924662891 0.0538146663825 0.0545422151906 0.0413836936423 0.0865935805139 0.0600868475181 -0.0481082426767 0.00654404550725 0.0186335894492 -0.064417885885 0.0806253030525 0.0160255268349 0.0940395802457 0.0926227594232 0.0740084238852 -0.0309551679811 0.0958888035893
1358 -0.0206622035912 -0.174179771381 0.222721077776 0.0367577755668 0.226283518653 0.144452843757 -0.0718825817682 -0.261806691258 0.0305774935157 -0.0223314862152 -0.0228340650426 0.13267882606 0.105422329629 -0.0164681034063 -0.22384364379 0.0101706131758 -0.0641779126786 0.00419636686125 -0.0718944618592 0.136148565414 -0.0864278170207 0.0272479119506 -0.243818423944 0.0183148398362 0.00877472606429 0.0583874327831 0.0871250445848 -0.119087538746 0.372088839914 0.121858968489 -0.159105197971 0.0298393427864 0.0490755084665 -0.198463574182 -0.040932903006 0.139317174492 -0.0301032228574 0.134712824315 0.18604675444 0.056931021943 -0.0389716653258 0.138942702581 0.181538560478 -0.090218705841 0.253215832744 0.263102328168 0.0177856480638 -0.134755403217 0.137694708912 -0.0842349936929
266 -0.0981498170362 0.0645940857385 0.0376912737599 -0.0791643131855 -0.339531962274 -0.0544703276863 -0.0855725270721 0.16815072939 0.186035097506 0.0656280243656 -0.0810847271536 0.0748580507517 -0.0214074461412 -0.1047010969 -0.176096578169 -0.00337707516152 0.0281852242945 0.0684305027913 0.0498336081549 -0.0324668232604 0.192518290907 0.180654159478 -0.127579011481 -0.0946144288118 0.00920896772257 -0.0528439594091 -0.120559876124 -0.225362735939 0.0539114551477 -0.00412913537707 0.123429479385 0.00551406792336 -0.0649570648393 0.0017027842207 -0.142493518322 -0.0325119408426 0.113016310544 -0.201130869838 0.0099071738511 -0.0447118997378 0.140728971804 0.0306554890267 0.00356417270908 -0.178676906537 0.0224238685197 -0.000997500601773 -0.0220466245424 -0.0632645032888 -0.000506309052843 -0.0153656359571
648 0.184544699191 -0.100967786805 6.76586895355e-05 0.00236955770558 0.171842079955 -0.10656904185 0.206381590063 -0.113569775983 -0.046451594026 0.0928138321612 0.0580675642192 0.0819249105334 0.0557847630614 -0.0537163639064 -0.052163698006 0.0555607727176 -0.00308818747971 -0.133055684267 0.0503399349325 0.0125460467326 -0.101795185317 0.00361543949656 0.192723668396 0.00783155612608 -0.00480765690209 0.0982794172481 0.0756420909758 0.0936074716272 0.149711073868 -0.128367547151 0.0184017419444 0.0841398597067 -0.00551239358303 0.03224916901 0.0776937476079 -0.0498220451594 -0.0710454166234 0.165472531325 -0.17604147746 -0.00866060483636 -0.216586264529 0.0885544797334 0.0422042714266 0.0495955844348 -0.045868262451 -0.142527896564 -0.00415698391949 -0.197458133225 -0.087387878354 0.00631163610184
62 -0.0318071875076 -0.0340868274974 0.00923420630533 -0.0192404771899 -0.0336795910314 -0.00350636925162 -0.0260123169065 -0.00551784013995 0.0478821803558 -0.00275074042346 -0.0196769289703 0.0100848862108 0.000351491118113 -0.0147012644302 -0.00224090509543 0.0255302786656 0.0158910496539 0.00343253341431 -0.00508119134727 -0.0149744050678 0.024922346665 -0.00165929169795 -0.00346122636995 -0.00425468796808 -0.0152119092616 0.0114629173029 -0.0142591965648 -0.0207000072796 -0.00519646256395 -0.00493233354794 -0.0100214410544 -0.0102359308794 0.0114662687508 -0.0315394858461 -0.00410115304282 0.00783285045071 -0.00796425422736 0.00430615794948 0.0166380072329 -0.00853420224332 0.0128494686378 0.0106288115437 -0.023371736879 -0.0314119351436 0.0447983906009 0.0279286675817 0.00398831827618 0.00435293782118 -0.000363013771156 0.012289398537
300 -0.0957729241307 0.0802494761497 0.0432922940494 -0.0727107554025 -0.34181933905 -0.056050034115 -0.0829644319529 0.17027620532 0.184669407131 0.0562707586147 -0.0830979844306 0.0676646419979 -0.0188039867155 -0.0992050019057 -0.164683973192 -0.00938459198928 0.0261599315968 0.082296469355 0.0486314551711 -0.0308814357805 0.206115439612 0.183581647189 -0.115646079449 -0.0902454542227 0.00721543003366 -0.0543697573803 -0.128890496198 -0.219881862162 0.0526628504828 -0.00746505313156 0.130563080088 0.0075719797347 -0.0565384327406 0.000228002953966 -0.138127875527 -0.0366113966249 0.111263023879 -0.189268564828 0.0127270041136 -0.054921018999 0.140856096353 0.0361027190902 0.0157763420644 -0.183027768263 0.0348897105858 -0.000679189867534 -0.0230016099102 -0.071928594087 -0.0025457193342 -0.0135194787688
81562 0.00644349481348 -0.0231347384502 -0.00489054570813 -0.00348526079101 0.0348501967291 0.0170979204201 0.00747169932334 -0.0136863932556 0.0273758587891 0.000244287755815 0.0167668840704 0.00158159570944 0.0224886032808 0.0150298585769 -0.00711430669752 0.0229167061977 -0.00404645173114 -0.000198866563632 0.0155210972391 -0.0296025350166 -0.0274635565476 0.000804532601747 0.0250657094897 -0.0135865605234 -0.0151273658682 -0.0193468886021 -0.00188420830588 0.00704705933497 -0.0101190380258 -0.030228163555 0.000246725459742 0.0056021436481 0.0160425903572 0.0108995094282 0.00395384599795 0.0291851806897 -0.00793902331984 0.0287151347569 0.0198613072511 -0.0263087923707 0.00949404151563 -0.0128589462305 -0.0111954643636 0.00965162211903 -0.0368268000928 0.0132328890614 0.000516403207442 -0.0121161140825 -0.0227593157488 0.0105646165356
88129 0.0102695904717 -0.020129231928 -0.00865639896531 -0.0141767363569 0.0337861043814 0.0208036101538 -0.00913165693121 -0.00859639740554 0.0262281052186 -0.00684861290147 0.0243441150331 -0.0181063484268 0.0160395060334 0.0112125543329 -0.00657288657868 0.0105773698612 -0.00227831549544 -0.000647710599904 0.0153952360442 -0.0192295448246 -0.01546216291 -0.004942494418 0.0236692514073 -0.0221278230919 -0.00718294020682 -0.0116713953865 0.0129492509806 0.0104685045528 -0.021073553257 -0.0129196849114 -0.00580236771577 0.00396786993717 0.00757326285759 0.00748017640694 0.00160657852396 0.0310581529516 -0.0172896937743 0.0365950120805 0.0180844810062 -0.0279431700821 0.00653183059485 -0.0169343432444 -0.00987004373724 0.00776636947277 -0.0383974275752 0.0109131053359 0.008480287005 -0.00944626021813 -0.00903343585946 0.0172025673682
260 0.0737056898906 0.201533243022 0.0400006628068 0.0470677325468 0.13963520119 0.0760019331943 0.0761696326928 -0.0553697515924 -0.147287850976 0.00475604060096 0.0560732717402 -0.220601316946 -0.029704939375 0.201597139894 -0.00144663763592 -0.00502309716719 -0.047480787629 -0.129022749319 -0.00193206046324 0.0364123463565 -0.190815808221 0.0426477349742 -0.0848611745298 -0.0809022977926 0.170762195321 -0.366218096538 0.147378909564 -0.0127015296668 -0.0344058552277 -0.0197448446482 -0.0493035860825 -0.0593863015455 -0.0250179405925 0.137208349023 -0.0529856870378 0.0103840686651 -0.129238472592 -0.136333973586 -0.0228679966138 -0.0251222413279 0.0310923955341 -0.108944300844 -0.0298072836069 0.0197347344849 -0.356314703893 -0.0948222140947 -0.0222623113567 -0.0929813240338 -0.0508845127737 -0.0776343846139
637 -0.0382464890953 -0.02520565167 -0.00403129983516 -0.00376897706641 -0.0273600956305 -0.00311373362435 -0.0187251876851 -0.00497865241342 0.0370493941161 -0.00507757806802 -0.00642727188365 0.00505271774219 0.00410507151898 -0.00496421429229 -7.12889858284e-05 0.0238375958988 0.00720981648086 0.007980789732 -0.014333119255 -0.0124840478246 0.0206978237372 -0.0138479143027 0.00941311746928 0.00427663900378 -0.0169377106661 0.0184373699588 -0.00494847278981 -0.0151592204892 0.00112552046979 0.0127744608492 -0.00871727327358 -0.0116224716978 0.00402588207481 -0.0240792459042 0.00514486150386 0.0080253726766 0.00511196295876 0.00270998251001 0.0152680314234 -0.0108466699722 0.0287565746036 0.00397816480452 -0.0204737197645 -0.0279182450339 0.048193045503 0.0338971257277 0.000218340210866 -7.76754886848e-05 0.00466416523347 0.0143977876687
7361 -0.0404754912122 0.0701419575117 -0.0416899832772 0.0935911711807 0.00496566988198 0.0775681074126 0.0121708525414 0.0849797533461 0.0111108848561 -0.0233479721365 -0.0142693699922 0.0254744637386 0.00699104328501 -0.0340009573327 -0.00753673595698 -0.100068879549 -0.00668323618583 0.0163256449161 -0.0413381872965 0.00743245022367 0.046772879311 -0.00596018376214 0.0216382351337 0.0473579563666 -0.0427545640342 -0.059853029905 -0.0781147822119 0.0535951280116 -0.0457016852746 0.0123368610217 -0.0462630983632 0.0136474407161 0.0209361501936 0.0261746026644 0.00777993838111 -0.0205842591884 -0.0133965607988 0.020148149135 0.0515541118912 0.0132264726193 -0.012176589723 -0.0657389807295 -0.0104603743243 -0.00635477559328 -0.0296544427755 0.00198433953845 0.00868360793737 0.124414727599 0.0207415592368 -0.0213253791185
293 -0.00864824325924 -0.00239521115368 0.00582581071953 0.00103276335181 0.00474133152794 0.00292474395221 0.00081933326424 0.000764452278131 -0.00786941310244 -0.00706840121031 -0.00882625742665 0.00351533773468 0.00169587190973 0.0109674208022 -0.00157376818845 0.00983322465333 0.00627495842854 0.00733968325741 -0.000623448028038 -0.00914160285045 0.0117312670783 -0.00577075780773 0.0143293278512 0.00292560060618 -0.00990682203418 -0.0145835365293 0.0138937127801 0.00766037216949 3.79744169597e-06 -0.00498504783513 0.00529426810554 0.0141694436694 -0.00698027199648 0.0058437001729 0.0119591655186 0.0024913331706 -0.0116824085442 -0.00205826759392 -0.0169969521435 0.000787519237325 -0.00382936677243 0.00206542806706 -0.0023716385356 0.00815712503728 -0.00228141382512 -0.0186868825507 -0.00245393887558 0.00224486574992 -0.0144902950616 0.00296421518411
318 -0.0616172499859 -0.106489784109 0.171497714452 -0.114955076693 0.105734373921 0.060370167676 -0.00817984038465 -0.403755188747 -0.00882693361216 0.0731483415074 -0.178290409233 0.0332039107785 -0.0317222950018 0.0645199108071 0.0207524092331 0.0796801865136 0.0498010430838 -0.121288954839 -0.086115599609 0.0665147130144 -0.0738469899945 0.0538894137855 -0.191536868441 0.0102939755347 0.0833420181342 -0.063936618438 0.219300882649 -0.103215493919 0.470789974935 0.0428728473122 -0.0768092051101 -0.0677689610059 0.063278603018 -0.0892669853356 -0.070255268542 -0.0402919499603 -0.044561521461 0.112270181227 0.0265606966683 0.036936916368 -0.107414847249 0.250583234331 0.13143092351 -0.232950124234 0.0857556159266 0.185820394655 0.0663959726083 -0.164006032019 -0.00903170904545 -0.0995027321175
1197 0.00919240413528 0.01688952156 -0.0310669985945 -0.068935858321 -0.069598287541 -0.0977323423063 0.0983160461076 -0.0144705518028 0.0767171829909 0.0337477757503 -0.00794658352068 -0.0526077309872 0.03954936332 0.0597841808268 0.174421524039 0.118809185697 0.114085400682 -0.034325428512 0.0239550769606 -0.0702561357924 -0.0187865127303 -0.0368236994487 0.103035948163 0.140237836485 0.0489449244439 0.0819646506358 0.197619455108 0.0705443215719 -0.0191132609205 -0.0250617941922 0.123804818488 0.0657867499275 0.0422822030464 0.0472043977459 0.17667981845 -0.0749169084288 -0.0255992028167 0.0913418415824 -0.0365832354285 0.0314215139502 -0.128077253426 0.126571378305 -0.0657076184822 -0.0295044625598 0.0320520020415 -0.16402146191 0.0358771485179 -0.0923033130882 -0.00679544986819 -0.0312451383224
329 0.0117352367331 -0.0272427734539 -0.00925372319345 -0.0454797125291 0.0340631030947 0.0251721371842 0.0301828905442 -0.0457138209667 0.0623708892919 0.00732507096258 0.00914109136602 -0.00913898742433 0.0425293216 0.0172578071954 -0.00759112417039 0.0472574173987 0.0334276169333 -0.0302398732827 0.00401978954526 -0.0228885866073 -0.0176002654497 0.0187251249683 0.0504904058102 -0.0114804639055 -0.0196695709256 -0.028157362262 0.0448393682303 -0.00611813495533 0.0477689415778 -0.0335836747636 0.0162763721618 -0.00106589841186 0.0372577695221 -0.0010183109034 0.00587884353371 0.040618953586 -0.0397983363376 0.041949962709 -0.0248156484476 -0.0379964874087 -0.00471935223138 0.0129114411904 -0.0341636181177 -0.0595807098682 -0.0305547585663 0.0232078827712 0.0446211617924 -0.0663136132836 -0.0584155559434 0.022525110046
595 -0.0666397699798 0.0942396208569 -0.0152598799357 -0.130167121266 -0.377832576246 0.0737590443539 -0.0776393020056 0.164879243311 0.278428352569 0.033914470701 -0.0855817637777 0.127536990357 0.0142524175102 -0.108736973021 -0.221103425101 -0.031853935859 0.00923063357207 0.122795794875 0.0892729748575 -0.0968485669834 0.24081209276 0.217870575727 -0.169816487792 -0.111012139766 -0.00930144475296 -0.0217392456473 -0.17801199667 -0.183702545164 0.0470769634189 -0.0462893543599 0.164355151348 0.0595270538206 -0.0686484025637 0.100038524242 -0.107417671341 0.015482959462 0.104965483104 -0.193202434075 0.0277763606036 -0.0510112387394 0.0960032646642 0.0373382686036 0.00456626448462 -0.116094000413 -0.0268725984783 0.0246470223443 0.0595540111125 -0.0221034717493 -0.0551921411963 0.0640463627488
1296 0.0049495495409 0.0157800231508 -0.0175983005841 0.0013254295107 0.022615990503 0.00607979816992 0.0168602463082 -0.0142927741689 0.002989983194 -0.00808109900221 0.00520542526502 -0.00275676469286 -0.00189254690461 0.0102589379441 0.0177181739866 0.00972422113081 0.0228967963938 -0.00705698230971 -0.014527461969 -0.0174446573559 -0.0238812719601 -0.00192602384827 0.0221945025675 0.00715020849077 -0.00290541056062 -0.0162860584407 0.00786078033098 0.000694000330296 0.000451847425623 -0.0140480158247 0.0167236827404 0.017184869187 -0.000653910199983 0.0115098305041 0.0158242144548 -0.0108255658745 -0.0206762544673 0.0158284754013 -0.0173127252815 -0.0106209382283 0.00206939753423 -0.00315736404137 -0.00495180981389 -0.0121571583155 -0.0261890322487 -0.00693125137939 0.0166401331888 -0.0192399749289 -0.0207497146202 0.0098022465285
1079 0.019111556255 0.00462541142818 0.000934796858496 -0.014857356721 0.0103142080144 0.00162799332497 0.0141598696718 -0.0141171371368 0.00264242324829 -0.006502472096 0.0159577571284 -0.0119272212554 0.0101873810112 0.000713019861119 0.00524612340395 0.00340283276938 0.0145213623232 -0.017337143711 -0.00776840843005 -0.0121784105235 -0.00278097387412 0.00108125204973 0.0294612402482 0.00252474402807 0.0066207270525 -0.0161375646423 0.0180559979913 0.00217883020135 0.0058037201473 -0.0243896979767 0.0039453532089 0.00365897670925 -0.0010281369657 0.0118327116974 0.020545882734 -0.0126762019939 -0.0214743280074 0.0198020610448 -0.0109906548564 -0.0220038144666 -0.00367702201155 -0.0153355997815 -0.0181379502027 -0.0180328253929 -0.0166890403153 -0.00826534206038 0.0160355680339 -0.0171725008465 -0.0228295160147 0.00318159419872
5669 0.00494281452758 -0.0273004104837 -0.0114059685251 -0.017226726496 0.0268513322787 0.0210164539498 -0.00928124284389 -0.0112586185479 0.0192074727423 -0.00728953709565 0.0304533914797 -0.00579091409364 0.0148405826045 0.000380526082607 -0.00487598704214 0.0241529130141 -0.0142797786137 -0.00432307554786 0.0163149823714 -0.024500514374 -0.0149346086461 -0.0026107901113 0.0253808991037 -0.0213967711264 -0.0205650114186 -0.0151804688069 0.00826373357922 0.012982051877 -0.00401986647204 -0.0200707797861 -0.00813252628609 0.00640048557319 0.0207163102634 0.0017467843027 -0.0114780943185 0.0219402260511 -0.024538091605 0.0355514993848 0.0196011900713 -0.0320408457256 -0.00899599733402 -0.00789186965232 -0.0140979844273 0.0199451394739 -0.0329648484311 0.00388379702825 0.00258489111865 -0.00744113661155 -0.00888527210225 0.0257200433957
3424 0.0145662288396 -0.0236560920741 -0.0132807381871 -0.00945875536534 0.0388437110558 0.0200230313032 -0.00529757620878 -0.0184237763783 0.011408791376 -0.012389361681 0.0264303627963 -0.00690242371914 0.0183045725391 0.000942604587506 -0.0113756039076 0.0217428965201 -0.0164997347988 -0.00993626414273 0.0186805805605 -0.0191540355062 -0.0321261844264 -0.00652196351643 0.0393037644286 -0.0104992229063 -0.0118207695195 -0.00118770405135 0.00690288920187 0.0148667092031 -0.0143946763041 -0.0115381904164 -0.008962812387 -0.000541687903579 0.00644263597795 -0.00079833714915 0.00469929984933 0.0216181462161 -0.0244771343682 0.0316939096443 0.0131808337569 -0.020814288186 -0.0026601511338 -0.018889009615 -0.0173606376111 0.0128552033777 -0.0308824139022 0.0112224168362 0.0059352347101 -0.0159946413992 -0.0186079956637 0.0107738799422
73 -0.0213612443653 -0.058152349418 0.00217876929332 -0.00866379456013 0.0294291582383 -0.0155191087368 -0.026139315941 -0.0304486203096 0.0431472297936 0.00335146386327 0.0249282214452 0.00414786449405 0.0376350423961 -0.0028283136726 -0.0545904032444 0.00634914079896 -0.0155213641453 0.0345138774928 0.0429736691253 -0.0454059393382 0.00346739100074 0.0184980772261 0.0288194125199 -0.0222402892024 -0.0108445337953 0.0114279937923 -0.0258090513955 0.00798553418948 -0.0229229602678 -0.00716009947601 0.00788184121206 -0.00737036103988 0.0291778765746 0.0165010828821 -0.0259626296591 0.0246757393024 0.00830182297977 0.00507367360017 0.0264071787197 -0.0396286102936 -0.00714898545551 -0.0123074441292 -0.0144508177484 0.0401379396085 0.00175714410286 -0.00794703322615 -0.00519498227913 -0.0419721834609 0.0159728254455 0.0313671791308
2391 0.0983271077375 0.118009739116 -0.0848042618073 0.0296963665245 0.128514641224 0.136549121781 0.155401091638 -0.0236025776601 0.0282171251952 -0.0275726746069 0.0418795846878 -0.105087908193 -0.0491797629075 0.00792691414659 0.0156724491707 0.130143675886 0.158733774461 -0.157274595372 -0.234905559202 0.0582055375258 -0.097830737338 -0.00314230920683 0.081373798968 0.0975335909624 -0.112427144387 -0.156990331984 0.117049539823 0.00972767246923 -0.0027828287725 -0.13767801291 -0.114913328475 0.0742680054631 0.00460497495857 0.0137528757691 0.112203076404 0.0415934919523 -0.259244361297 0.0699891775781 -0.0169207732312 0.00622044478513 0.0753156132176 -0.0507708903862 -0.0908997757002 -0.115224242715 -0.19564143964 -0.139333789294 0.0281081551884 -0.0720119514737 -0.205748392084 -0.0354748183715
47 -0.0485619198082 -0.0564675302428 -0.00375137774737 -0.054466678267 0.0418815951239 0.0250274384557 0.047021012365 -0.0684367700084 0.0694925600405 0.00230029119345 0.00555257778861 -0.0714509091622 0.0627501049315 0.051105643562 0.081287483825 0.091831852808 0.0244063161822 -0.0329207941365 0.00976789136511 -0.0382357464457 -0.00701824933303 0.0247062088514 0.109952502914 0.000322838767226 -0.0181183596825 -0.0536018727139 0.0828762344699 0.0201603951411 -0.0214675026189 -0.0481502265566 0.0277001313964 -0.00376457988266 0.0947301707802 -0.00989998808012 0.021101580582 0.0111051112054 -0.0417589551014 0.0539354438792 -0.0168093652292 -0.0216715314207 0.000274714688172 0.0183419299543 -0.0656334926567 -0.0778694416404 0.0315851021701 0.0356897749216 0.0775118195488 -0.0461603261212 -0.0508688190789 0.018783465569
589 -0.152172458212 -0.00485111100139 0.0576320855454 0.132818470734 -0.106891807382 0.107605580721 -0.161527143712 0.0273133282379 -0.0772405597174 -0.0843864982471 -0.0162116891369 -0.0849915993589 -0.1242298563 0.039427228762 0.198608729307 -0.0287700435599 -0.0146032286795 0.0700384316335 -0.0388544928401 0.0455849998648 0.0271337917847 -0.15187221119 -0.108616958522 0.0602638825635 0.0394628472265 0.0628243684838 -0.0313445838937 0.0348123494607 -0.283247130559 0.134079466595 -0.145837829861 -0.0189637133054 -0.00836412220241 -0.0645920974598 0.0755709629208 -0.0616927721162 0.0685283521011 -0.0814710893593 0.205404353399 0.0434466785996 0.0962978691551 -0.0817028984372 -0.00329261606012 0.15475641675 0.0624455490115 0.0210303297968 -0.0591629631222 0.208474406774 0.204705014957 -0.0611374375137
2291 0.0987587265075 -0.0863286100537 0.0748465272836 0.04484220579 0.053158663159 0.0287770790585 -0.0122868592875 -0.0838570937856 -0.0355395370391 -0.0663779403118 -0.0114561060627 0.15076180122 0.109724661327 0.0752433958535 -0.0766107777453 -0.00839701014936 -0.153720202524 0.00911174842936 0.156566990272 0.0829530273958 -0.0729247686065 -0.015785118737 0.0367348118059 -0.0532741870708 0.0953045658679 0.0898439888368 0.0348220343469 0.0528270007467 0.00421763128864 0.0486269352332 -0.1042902422 0.0509813413795 0.0417419567465 -0.00355990181205 -0.0541187625912 0.0839934313428 -0.0814256769837 -0.0199662668037 0.0532353013332 0.021466638179 -0.0456098324704 -0.0221651089584 0.0538437200977 0.0858802770491 0.0491041307564 0.0813145401705 0.000476137598318 -0.00459703397286 0.114414895525 0.0532778132778
2628 0.0201998178881 0.0253692212623 -0.0157024947419 0.0316691017626 0.0348477362274 0.00341763927614 0.0160777411137 0.0188334938808 -0.0485233515617 -0.0169881673797 0.01553502213 -0.0323957828397 -0.0349027717717 0.00781031341929 -0.00890546754594 -0.0140574231065 -0.0124760482354 -0.00843799138309 -0.0558255526821 0.0279060018369 -0.00179984332133 -0.0093943877864 -0.00560370445654 0.00346444329654 -0.0445259341293 -0.0177951394236 -0.0231830415238 0.00245315721846 -0.0207112576572 -0.0373858619342 0.00501494709042 -0.0164816103971 -0.039726379539 0.0347693290961 -0.0278161482723 -0.00847437850085 0.0254486169818 -0.0158264863279 -0.0252796931134 -0.00405040126326 0.0587226200949 -0.0607256404233 -0.0189152677091 0.0169946178631 -0.044838328163 -0.0415126456074 -0.0318062251803 -0.0032177291356 -0.0443222090876 0.00266413219883
1198 0.000773291448319 0.0180172054896 -0.0321414271387 -0.0776761647068 -0.0533205018976 -0.0923457922584 0.0996370005051 -0.0099004229102 0.0756365456004 0.0342167424375 -0.00469675657638 -0.0519010636072 0.0311317204601 0.0661764785841 0.175549361807 0.115399401336 0.110987388785 -0.0374785978182 0.0310033144355 -0.0649402251236 -0.015805921649 -0.0437020612259 0.112623440888 0.134836747753 0.0321534958486 0.0702345215562 0.205607626276 0.0618889214857 -0.0323906065119 -0.0283679968555 0.130479776529 0.0464865397461 0.0425949298862 0.0578454290487 0.172649863153 -0.0727684059788 -0.0231377336503 0.090910984948 -0.0283768344207 0.0370969396865 -0.129566283446 0.131320756256 -0.0540463491305 -0.0405791167762 0.0437262234001 -0.174389578527 0.0366450743842 -0.102936240576 -0.00093911640459 -0.0319778776444
1127 0.0206963536871 0.000571117585799 -0.0143703126644 0.0043418411589 0.0294840981829 0.0275875299793 0.0122180063204 -0.00734070478436 -0.00650925185294 0.0037207016825 0.0177118833752 -0.0195519896326 0.0302609473971 0.0117807133331 0.00192113198965 0.0075835864394 -0.0205855404915 -0.000830976351348 0.00810670211528 -0.0133791449615 -0.0292055223526 0.000717270341575 0.0236359433278 -0.0031682959148 0.00661591395938 -0.0144961405983 -0.00460112953134 0.0135976607856 -0.0185787576924 -0.010881223349 0.0107248473424 0.0178734968703 -0.00328313030909 0.00710747843355 0.00976741903288 0.0103212253549 -0.0230535735398 0.0305865043426 -0.00291861516354 -0.0183165448638 0.00432291733511 -0.0297961426528 -0.0117751817447 0.0137632447758 -0.0325636058999 -0.00277832849872 -0.00133366745871 -0.0160305843275 -0.00941796436644 0.000882758747127
2300 0.0200441452937 0.015467967534 -0.00254706173345 -0.0164757188604 0.0271874494355 0.0168010534704 0.0279110886833 -0.0147805643975 -0.000377433085396 -0.00662425840991 0.00176693863427 -0.0118526187897 0.0059230510374 0.0125516192239 0.00734828895815 0.0106744056373 0.00835962362915 -0.0135553434618 -0.0126636470909 -0.0149826519631 -0.00675995762673 0.0032762871322 0.028434708491 -0.0036576748844 -0.0104672626363 -0.0148731208993 0.0149808637452 0.0138681315675 0.00543710785477 -0.0130993008654 0.012444575429 0.0133183327648 0.0074805465702 0.00650776851127 0.0229386471686 -0.0054565961251 -0.014303358622 0.00774096189645 -0.00861448200643 -0.0187030033532 -0.00566477798709 -0.00170358211933 -0.00881054139553 -0.0182036190422 -0.0306106066206 -0.012392311469 0.00376212832005 -0.0022343799666 -0.0198723053003 -0.000812745171011
1252 0.021119990179 0.00741977176128 -0.00423812907324 -0.00668674860826 0.0133946576245 0.0101223239043 0.0272807531199 0.000956098759684 0.00309672217406 -0.00633471925006 0.0029725943204 -0.00361977638133 0.00852240778703 0.0188708201945 0.0144856850204 0.00259672286943 0.0223535249289 -0.0133990550811 -0.0144028782255 -0.00459779318115 -0.0171487727624 0.00574081714511 0.0355947397049 0.00255728999851 -0.0010201323442 -0.0199838549205 0.00794369172061 -9.68428793276e-05 -0.00287249821861 -0.0293802275696 0.0179846742925 0.00762947301676 -0.00125108266974 0.0147482060241 0.0115171555094 0.000637696775508 -0.0212760848482 0.0159578443027 -0.00821352920722 -0.0114607647821 0.00176145033427 -0.000993456946852 -0.00239315765296 -0.0105749838662 -0.0226618255378 -0.0145643772306 0.00196214992511 -0.0082142189185 -0.0112482656525 -0.00589873468257
2455 0.00247648553 -0.00448052415799 0.00984612524476 -0.00325702677993 0.00019415461418 0.00129900205955 0.000493300315795 0.00466861710379 -0.00817614040021 0.00256943097141 0.00599493424889 -0.0102858245471 -0.00381078092536 -0.00708579777515 0.00724206965834 0.00888899412604 0.00972170685218 0.00247290842343 0.00415836862552 0.0111598416303 0.0102553559774 0.00756915672877 0.0101870926123 -0.00355642111706 0.000634693938642 -0.00693893319768 0.00124488119835 0.00624278056978 -0.00201094760912 -0.00471358298813 -0.000816964943425 0.00824544934983 0.00245162931959 -0.000919972663678 0.010335126176 -0.00125449506727 -0.00538760740556 -0.00394989355916 -0.0107492690444 0.000195478370972 -0.00308160268867 0.00940878411511 0.00905610707333 -0.00356784497269 0.00360956674342 0.00353549703983 -0.00399636459606 -0.00131095773687 -0.00647843299031 0.00482418924549
1339 0.00982117404036 0.00812732239444 -0.00356357426389 0.0116632684117 0.00416769236263 0.00998830575348 0.000998934561549 0.00409323330762 0.00922214072293 0.00906613342568 0.00472750575975 -0.00825154385494 -0.000700180970832 -0.00628425886283 -0.00160029648204 0.00170484262421 -0.00252576389417 -0.00969046700742 0.00228151636983 0.00218177561229 0.00523680237056 -0.00325624737078 -0.00595558993884 0.00410639835292 0.00173691625254 0.00617923853499 -0.00361636578237 0.000629646959968 0.00220866949569 -0.003027398877 0.0085521839897 0.00110096984819 -0.00616547942073 4.8944108244e-06 0.00495353223768 0.00680437208245 -0.00614568565041 0.0076641153614 -0.0082028879567 0.000262589419943 -0.00839739788418 0.00675033596109 0.00237813207721 0.00468288633698 0.005855464812 0.00838396681675 0.000328905627084 -0.00774321200715 0.00223276213959 0.00733003926202
160 -0.0206069799646 -0.130813248656 -0.0925799705731 0.0454920308806 0.149036076008 -0.315940341835 -0.00540822866668 0.0791715048853 -0.0866658078105 0.0831510247766 0.00621015222432 0.0598801841859 0.00464148704775 -0.164370486078 -0.181846558587 -0.107461082808 -0.132156681368 0.118492389832 -0.10823831717 0.0344439388766 0.121802905643 -0.00996148813964 -0.00616626784122 0.0511765852976 -0.156521557381 0.173760629402 -0.140956031217 0.0734353997647 0.0600919662454 0.0899120729806 -0.0277959369767 -0.144972543854 -0.0531612973073 -0.138064274872 -0.0042765787882 0.0418910085746 0.110502999829 0.0733263392993 -0.12046728735 0.0223633447515 -0.0455589081088 0.0552135803067 0.0501481634756 0.0242715409205 0.235466201337 0.129647137983 -0.0957600619057 0.100544023464 0.00149004623049 0.0525822515278
