2066 50
2291 -0.258251825062 0.231264347918 -0.0310523875826 0.309315940503 -0.0663464628692 -0.0399628569597 -0.118758078496 0.0119049600125 0.00425566680142 -0.147651608986 0.127020846403 -0.0640206991875 0.265292551564 0.394892312091 0.00278848305038 -0.173779123671 -0.222652187106 -0.379571815884 0.213724707589 -0.173419211189 -0.376959773203 0.176039283796 -0.192999342799 -0.0140401411682 0.0692006569709 0.0777288476882 -0.519382249159 0.0644272102587 -0.0478059515846 0.200748010018 -0.100060749974 -0.254264731769 0.158694134158 -0.00841702872069 -0.0702074892892 -0.17787299519 0.166557941713 -0.013915866328 0.177096785098 -0.0248704235013 -0.223793370869 0.167046923042 0.0831111461887 0.259875475336 -0.195565549439 -0.0611483915217 0.304005249787 0.417851989417 0.163407255604 0.131863450467
539 -0.747002647436 0.020313308957 -0.016717504839 -0.404225445243 0.332126990782 0.210296433023 -0.235977268789 -0.0148905975716 -0.29051363479 0.488156389222 -0.358305069612 -0.0511420861359 0.00834352595884 0.0670646390808 -0.0801665402503 -0.127918190146 0.00689387431072 0.334230756118 0.0508732159566 0.296234619004 0.0381439980795 0.362108089804 -0.473537115535 0.0455336151581 -0.0291261043476 0.0813742096807 0.0154891245659 0.00075102055922 -0.470388975782 -0.00576930552509 -0.130344651524 -0.38332838532 0.453927764424 0.328387218598 -0.00925680845617 -0.425718528284 0.187672244173 0.249207113821 -0.265443263644 -0.112022215188 0.501727663139 -0.119782055164 -0.112880601707 0.570458323544 -0.114904632327 -0.371376523454 -0.481382961349 0.136764332966 -0.45452519161 0.127684280581
96655 0.0120168874182 0.0199762061428 -0.0265745414428 0.0650177072051 -0.0313256329204 0.0322814571654 -0.0052866437568 0.00609171867985 -0.0115148739148 0.0156022481999 -0.0211336513682 -0.0541960966114 0.0232072481353 -0.0147289211405 -0.0275889688439 0.0272411752025 0.04918612091 -0.0656454804284 -0.0263189763417 -0.00600251871598 -0.0184120740761 -0.0414290281588 0.00344649073311 -0.00935324009423 -0.0369660841908 -0.0258231159916 -0.00651568827899 -0.00277748480113 -0.00667228419347 -0.00832253598773 0.0148039661262 0.0505770551335 -0.0913486903162 -0.0001448436482 -0.0617711546483 -0.0110890511524 -0.0567556388717 0.067421315374 -0.0423449829612 0.00464451750844 -0.00378308528832 0.0939437445364 0.0382817282372 -0.00828106614883 0.00350673274532 0.0124376045891 0.00824093092621 0.0106110279908 0.0381907286529 -0.0373353258118
318 0.662048055428 0.556464955151 0.450891196792 -0.32085922396 -0.0845187075077 0.229529747445 0.568534435593 0.959779034451 0.0284196113857 -0.130644601604 0.0812014173234 0.00780670360294 0.336541817312 -0.00727550387487 0.599375440825 -0.31224240286 -0.669280046625 -0.246544458492 0.364008940466 0.576699875596 0.0952769700965 0.117056019438 -0.0772301968797 0.0535185623253 -0.54084488006 -0.222309957131 0.400818719756 0.291709290964 -0.241624550264 0.783219960972 -0.00724777692422 -0.487386163525 0.1773355994 -0.196142826179 0.269439999646 0.0797421799466 0.312011666899 -0.335720378102 0.336322444408 -0.0943827143491 0.129453750004 -0.67404717796 -0.604769482689 0.0158644373951 0.2987404797 -0.150573534574 0.170095768673 -0.175471951938 0.0339701564463 0.244808759079
1573 0.0716448986321 0.296021769692 -0.112636150027 0.0361016953927 0.329747010476 -0.262985797135 -0.0821986521856 0.187511332064 -0.184764337446 -0.0556449558212 -0.480097591479 -0.220914406049 -0.323190960118 0.263191742449 -0.0933083744171 -0.351579975834 -0.129885509434 0.265477472303 -0.124298019211 -0.114694312716 0.221061813971 -0.0404460316945 -0.306762500164 -0.137696696798 -0.175351061516 -0.0543766636352 0.194902473647 0.0690645513797 0.457720216372 0.161986059691 0.0683950661462 0.159836555535 -0.0349676527305 -0.0798877427397 -0.21837980744 0.025805715823 -0.144709161968 0.135637150621 0.521434301407 0.0975488054131 -0.554163216903 0.00205794100957 0.138455186491 -0.118526401674 -0.125349654786 0.256582968476 -0.175405019314 -0.17207841907 -0.02515933443 0.0195460573068
1250 -0.312549252242 0.0941079530457 -0.154432102806 -0.0504683629109 -0.00616889204024 0.0799419358384 -0.478695922987 -0.362358421357 0.136058673947 -0.0335397663049 0.0851353307307 0.281402453094 0.156440710115 0.381311264661 -0.0543571225426 0.161700315148 0.00371941702837 -0.063704154528 0.081447682309 -0.0368719783848 -0.303505696027 -0.263110580704 -0.280396519497 0.0807598883985 0.308737900096 -0.262612656361 -0.165958875768 -0.263275716074 -0.197193174276 0.280349096997 -0.344032893593 -0.364824071101 -0.299801629238 0.0115120460403 -0.53390426621 0.320119539949 -0.128838680676 0.00999844300681 0.13677624284 -0.208553688613 -0.14870250972 -0.20729651512 -0.23227527493 -0.182021594478 0.0380191138223 0.120039782584 0.28634154199 0.671787445326 0.292972393235 -0.260826617866
356 0.00854059408346 0.525713068591 0.204297429849 -0.46554955427 0.0917005859179 0.00872496185618 0.413771047737 0.198993865537 0.056564924785 0.123116765356 -0.0747828307011 -0.401828389541 0.240086479961 0.0327845957099 0.238565853411 -0.678587321791 -0.649973336109 0.0561239425403 0.550019659923 0.535296729565 0.341411707559 0.148328566647 0.324094308844 0.0546152351445 0.138269233272 -0.454107931832 0.625205814762 -0.0628751984772 -0.312707053694 0.379998786537 -0.602825670846 -0.157370506739 0.134788268318 0.121523679949 0.0128470483968 -0.482966856683 0.536835459842 -0.342459399663 0.654908327052 0.140683573451 0.223140857258 -0.0967836578704 -0.446832548166 -0.107033969396 0.279462203631 -0.113455394073 -0.225285693242 0.13848434351 -0.466053010083 -0.148543984972
349 0.0679752408546 0.408497956679 -0.20829611274 -0.123659733286 -0.222416788838 -0.0100649752138 0.147407963846 0.112570815501 0.144430908167 0.06591133815 -0.418467860779 0.115133810109 -0.381003483631 -0.275995176314 0.389938780854 -0.318527885444 0.0973377751904 0.251228298705 0.468067151597 0.443550406258 -0.441172531969 0.119598281053 -0.201071241703 0.264917338853 -0.227970748895 -0.388866071211 -0.000584034549777 -0.42845809877 0.366031186891 0.303692225578 0.150481768288 0.437569106578 0.365086047032 0.439570266447 0.141507175184 -0.369642550978 0.381141509842 -0.411193094761 0.527983678773 0.076845068723 0.564519973369 -0.303901227048 0.46010092309 -0.430580844189 0.404851070901 -0.0874551311664 -0.42737479115 0.0677198136929 -0.464417660997 0.047298594373
608 0.201697787163 0.32814409848 -0.0531934621517 -0.539686655094 0.237535750373 0.182818035568 0.0322453787139 -0.442215270688 -0.130912367826 0.18478209303 0.599275388966 0.264704805868 0.439613304036 0.548363580627 0.176206176133 -0.406520105576 -0.0298208690756 -0.224843678841 0.636174895114 -0.146459208565 0.510470390124 -0.0347675929514 0.244225722279 -0.107386039145 0.265286890805 0.361696331976 -0.249644891201 0.166097839366 0.807557397527 0.109063571869 -0.616796022956 -0.452273397237 0.482221736456 -0.246477256584 0.759837634442 -0.120505901946 -0.385020471782 -0.19384527269 -0.19940163438 0.525893665531 0.209022726692 -0.463786774494 -0.181164176364 -0.333721281964 0.0837367126686 -0.1950848079 0.124529280147 -0.210188871854 0.0864861423621 0.35592117356
1265 -0.401059628056 0.43014947579 0.22798863084 0.133096620721 0.269569555091 -0.00529038520139 -0.184501896015 0.326915513728 0.00831428729177 0.32623717189 -0.268174450119 0.312694221215 -0.0263163894893 0.287561772735 0.0968798828744 -0.141344600511 -0.481108110763 -0.0339746585179 0.00837277670223 -0.220409374131 0.154225641481 0.215245011788 0.113978946451 -0.316229547035 0.32068568644 -0.263512194686 -0.103031239413 0.252889661115 -0.342722881913 0.0795428020863 -0.0146069703911 0.281504303826 -0.108612474811 -0.270520016166 0.336110735249 -0.357231483123 -0.293775359541 0.0396904238084 -0.0650432692095 -0.0625295438564 -0.285547159075 0.119774122618 0.124901770597 0.253193624082 -0.176516916025 -0.280687984718 0.110095673179 -0.336071504718 0.0375791280372 0.101031706504
8961 0.282839696207 0.406957748389 -0.278397490299 0.0611156031771 0.334557115632 -0.340675062299 -0.0202380594312 0.666062075221 0.303643503378 -0.0779791419192 0.0187283005419 -0.2664998701 -0.0854434146535 -0.343597791934 0.185590098004 -0.0121319695612 -0.459324739281 0.532717878846 -0.289748355837 0.474465260507 0.0336538875869 0.017458892856 0.133580660294 -0.204484930543 0.325003608244 0.160030848226 -0.644296754512 0.178244607364 -0.0866433072675 0.0793545669732 -0.186483571448 -0.178842317764 0.523247102691 -0.170799684098 0.0321482999905 -0.00336212163468 0.145469756669 -0.121408663177 -0.278080630683 0.0616459004135 -0.167733325895 -0.389970170135 -0.023761571787 -0.129081019238 -0.325362365165 0.0399565878637 -0.0735049697794 0.00768142424468 0.20984487018 0.353639393534
6870 0.128306465836 0.115302573092 0.0284477496639 -0.0630598418994 -0.0664136502809 -0.102475514718 -0.201519924089 0.00879891240484 0.00423296765932 0.10631430997 0.205722659094 0.196507357465 -0.148841411403 0.165018361771 -0.193330674175 0.0769845958629 -0.0299029648758 0.206655808697 0.244854501211 -0.155349334034 0.177656448335 0.0496081059928 0.0655384516589 0.0293204126357 -0.135305283291 -0.361976851712 0.0758930002638 0.083422419112 -0.0387474252154 -0.00223054097662 0.0363000644368 -0.114988965568 -0.0225627288861 -0.0152729999179 0.146890220947 0.244103072266 -0.261110688254 0.187528259242 -0.0186753002322 -0.0544568200169 -0.156399729448 0.0692314166574 0.0662484442527 -0.0317381433219 0.0700728710365 0.0694996305345 0.0327764397821 0.272416028693 -0.157016015069 -0.150069319466
4993 0.588693393848 0.300764009312 -0.201686361724 0.130820376216 -0.01118676941 0.238968535091 0.139341326959 0.0582554477989 0.437276428369 -0.2206701024 0.12162675319 0.425484024291 0.26010663499 0.108641812446 0.095017647349 -0.790278510277 -0.359602216002 0.133040898523 -0.640649889644 0.243064038697 -0.217991099552 -0.22169940925 0.23118087888 -0.132188395798 0.153350361844 -0.229932569523 0.283297045806 0.00169510120048 -0.0801633585342 0.128760239436 -0.292578730152 -0.117892351475 0.410557551365 -0.207912100874 0.0834330291092 0.014178223466 0.31702842708 -0.273859109688 0.230255998005 -0.0366800864624 -0.292280303121 -0.124155312681 -0.105770199001 0.28205198102 -0.0839673420791 0.0872110350118 -0.487021454718 -0.0508598384783 0.504054832155 -0.156538239411
102125 0.11751226545 -0.352175532695 0.143709350402 0.106608335795 0.00488043427601 0.0582791425215 -0.143793351841 0.228565145168 0.168857847188 0.133267862565 -0.138796339702 -0.0271162574127 0.158063266269 -0.014496087755 -0.0451857215183 -0.0583856017935 -0.180076756635 -0.0613850085209 -0.0617337789698 0.0463930112144 -0.0432876044541 0.00665110326376 -0.038144715895 0.0953338992226 -0.145592475937 0.105125019394 -0.0231649632557 0.0715571255556 -0.0634558378598 0.0619764297446 -0.119808981098 -0.0242966669276 0.083672629305 0.101884747465 0.180302217002 0.0403818384109 -0.269028378465 0.173749836358 -0.0685313828559 -0.174947173173 0.0892888544853 -0.113620666357 -0.180197465637 -0.0800846394991 0.055052394522 -0.0666926904022 0.1070112897 0.150037575602 0.0638236763575 0.193755851221
47518 -0.0309865155517 0.0287603377087 -0.0423831172917 0.0145362143245 0.0199092545037 -0.0252237010432 -0.0177762189299 0.00648289142565 9.92094034752e-05 0.000107625024155 0.0216703741561 -0.0115488438419 -0.0175857622721 -0.0165786130244 -0.00270581916917 -0.00915108287054 0.00663425180903 0.00692000090738 -0.00998396648151 -0.00737011903412 0.00960444083036 0.0216835168945 0.00208762470035 0.00251845607329 0.0328946258373 0.036606679738 -0.0389024843298 0.0175748024186 0.0280655536321 0.0222623408984 -0.00866367969678 0.0166889777023 -0.0297184571563 -0.0260689506264 0.0148117435737 -0.0250831662841 -0.0466417919189 -0.00441053862338 0.0354244345707 -0.0283597708713 0.00753388407735 -0.00107665203512 0.0190274716571 0.0414090509023 0.0299667345189 0.0120694909889 -0.0254779245357 0.0372195605684 0.0260035257486 0.0215309930026
52287 -0.0261633242976 0.0278836875566 -0.0390678986364 0.0152555177867 0.0178765154337 -0.0233430366814 -0.0172914789109 0.00679559166081 0.0103537137913 -0.0121628989332 0.0209688078291 -0.018651715337 -0.0163388953344 -0.016364425332 0.00596903392876 -0.00810834940079 0.00683563173929 0.0188465816358 -0.0183894710076 -0.00357991968232 0.0032653018874 0.0160952071716 -0.00572727363799 0.0124072837048 0.0375921656488 0.0376532541188 -0.0304771959394 0.0104246820706 0.0273517967763 0.0214793932067 -0.0117670002625 0.016550400177 -0.0285505239753 -0.0204529973067 0.022841415493 -0.0261429317721 -0.0353712119328 -0.00882466335729 0.0381195629129 -0.0220118803797 0.00264270228469 0.0020248064615 0.0208108545835 0.0428732150433 0.0225378192166 0.0207324075158 -0.0316819564031 0.0315538249601 0.0240959390893 0.0174935041153
1193 0.198153599617 0.387565009379 0.693601010927 -0.0869159533173 0.617458580026 0.151070577086 -0.394967483707 -0.245035494499 -0.402220060694 0.0756203570492 0.160252678623 0.879737799904 -0.18420639987 0.271088458056 0.0415141111603 -0.0385047610549 -0.56692631111 0.163147142703 -0.224317850785 -0.0492137372106 0.0975358986153 0.104120001959 -0.264133624746 0.530274545307 0.169118971962 -0.0593053703287 -0.281763686233 0.138761952203 -0.325001789539 0.0890660497072 0.0273569420034 -0.570936107292 -0.138338360627 0.212753261198 0.333173276396 0.531606480056 0.0768665746675 0.537619658807 -0.0765243185598 0.0883028793603 -0.234913172149 -0.476883959805 -0.5214774385 0.0531065126119 0.144232507929 0.246314210728 -0.0978424041851 0.0551963408123 -0.456336977152 -0.129085126313
58559 0.0575028889419 0.830203189228 0.0517398116251 -0.601320699724 0.371965775379 -0.116098611783 0.0920249245688 0.228481512157 0.391232391404 -0.152652878214 0.359944313411 -0.11749110589 -0.11521324045 0.1831355861 -0.0626308780646 -0.252677323917 0.0392709703294 0.0677169752911 -0.253690883497 0.511000322921 0.0626452984292 -0.0973418323279 0.713721210365 -0.0897288528442 0.381343248582 -0.218005895958 -0.0893813014317 0.0296133680441 0.14517677413 -0.518339345361 -0.258595504974 0.027355600359 0.544427762435 0.125957680497 -0.123456581476 0.387423360602 0.205062898498 -0.0884647340708 0.204002151263 -0.690835493322 -0.432134675412 -0.17450822904 -0.247611992529 0.292597038286 -0.290323784542 -0.00392899542505 0.174021121734 -0.232811847849 0.582132745728 -0.0178461289735
168 0.0772113751893 0.0674611852331 0.137055582086 0.186377140663 -0.316500776151 -0.447064360421 0.15198285769 0.284906556704 0.241846020306 -0.451146894609 0.226698782191 0.00762624114447 0.221826461533 -0.111782500095 0.192200389535 -0.39250299559 0.209582472241 -0.951300575143 0.436703548566 0.599036791163 -0.152229822675 0.134115561486 -0.439687347583 0.180351133542 0.0640842605834 -0.124490480954 0.465358855432 0.0168716093561 -0.117070633461 -0.00448668327365 0.0569711288818 0.372556818791 -0.067964882451 0.0270524636352 -0.242290103426 -0.140503242386 -0.469374083548 -0.0927100830365 0.257478905878 0.84878042143 0.244481357025 0.083541319346 -0.289581251137 -0.11178815267 0.115369230447 0.181197131945 0.265235326637 0.217139934082 0.157901779068 -0.212242337139
50 0.63531502627 0.241607755949 -0.0315628705095 -0.594061048978 -0.0132998682426 0.149798600309 0.429448067923 0.0619402353707 0.096086082319 -0.178943920618 0.272115994133 0.234901024031 -0.0159695368098 0.208800871384 0.174180359125 0.0617117739179 -0.331142315368 -0.151613587548 0.316069721019 0.303254594015 0.0818659846055 0.366640847683 -0.122894135057 0.112127857315 -0.383078850502 -0.353004709463 0.167809105621 0.399250274536 0.135934883117 0.651270424077 0.147537726735 -0.490377746882 0.423789662763 0.110145093145 0.490877130018 0.190745168352 0.351046465148 -0.113478302108 -0.0847039974753 -0.0393452700572 0.298327481224 -0.106919872684 -0.756919799136 -0.0181222364175 0.088364610141 0.315810424605 -0.0572114454486 -0.415725599808 -0.0781128738359 0.0459442847195
1876 -0.156140771048 -0.411463021235 0.202822689335 -0.165332408271 0.203648297143 -0.12129325025 0.218864696471 0.0272390835395 -0.274154066037 0.154145977869 0.053586084931 -0.280074586997 -0.207487993368 -0.0236860092235 0.214105137989 -0.568539930154 0.150377872089 -0.144795685753 0.22467555141 0.0477183845415 -0.266910861537 -0.109072570209 -0.168023971141 -0.0527858725341 0.509413724776 0.119217222242 0.336540761169 0.170286727603 0.503841558845 0.247449740949 -0.0577074253786 -0.286514675879 -0.189297779494 -0.137701518134 -0.128901643331 -0.215803457133 -0.025798873816 -0.00583295689421 -0.0705518193171 -0.201502143181 0.100866414585 0.163543413002 -0.149936422884 -0.0498686034083 -0.206557812484 0.511615703884 -0.286410418009 0.0310762823411 0.51887715007 -0.0669213262161
1962 0.14380279652 -0.245050259729 -0.139500160886 0.013385825878 -0.0676923443833 -0.213912084534 0.0156360494436 0.059097198221 0.0871873182082 -0.0373940407505 -0.32599195848 -0.0901803534285 0.108913489471 0.00671151527484 -0.270817747794 -0.0208380680018 0.477213464443 -0.246686934173 0.196126855753 -0.0481928367014 0.0498402776841 0.154807264544 -0.231570594262 0.0275865877367 -0.0932124644605 0.00794048004282 -0.057596389027 -0.0429469070075 -0.00784754162804 0.204900353226 -0.289655510675 0.116278293014 0.271805740623 -0.178065328192 -0.144335347678 0.132977037848 -0.0334486203157 -0.0475511884192 0.124495880941 -0.181158545181 -0.128491954567 0.233794538687 -0.23977126166 0.370237860716 -0.0281358538849 0.165983521576 0.0502469306642 0.00659458218184 -0.204105755755 0.344411874011
1527 -0.267426329801 0.188759494622 0.24504016868 0.617177540286 0.151030597072 -0.125654370344 -0.0674954562306 -0.418828906217 0.484728171891 -0.446936639432 -0.146533742526 0.370396655509 0.187555283365 0.0457311616974 0.0589019730282 0.0404185527225 -0.226511213762 0.405836818159 0.0301248721605 -0.366708345527 -0.12889016955 0.0382725657384 -0.0881295247673 0.0520113349545 0.190146503239 -0.260807342622 -0.0708710291677 0.121002530006 0.188011543666 -0.375812285161 -0.162930085784 -0.18573834081 0.0602522145732 -0.0766894232408 -0.274401092966 0.0333151486311 0.280626406077 0.199748417546 -0.0940798756186 -0.383944017744 0.0961104882432 0.464135212204 -0.0811649592113 0.244541004722 -0.0770005727318 -0.291915225777 0.0929172752477 0.102696595058 -0.149638719826 0.356523522526
1690 -0.676366934146 0.172064087678 0.49400957454 0.252081370844 0.314719110592 -0.0588757376842 0.00704825026499 -0.0542253979302 -0.547538061035 0.00501735328485 0.0551088276123 0.0241580148211 -0.0187372289465 0.0776364600693 0.251011992317 0.0405859416659 0.12474977673 -0.682912299236 -0.0649408088233 0.257119865603 -0.160132022557 -0.148507510208 0.595688033696 0.00612790585767 -0.243804852604 -0.361578318385 0.107936503941 0.242315469303 -0.294953350373 -0.139963083168 -0.0952732672698 -0.0901496652351 0.150803368201 -0.148780106697 -0.037229387774 -0.0853773433324 -0.160734544036 -0.00890337474392 -0.000393166362941 -0.236328506114 -0.138642216818 -0.0480574579495 -0.154222634223 -0.403006988956 -0.0132337004261 0.233854624317 -0.232147341729 0.108405405986 -0.1401655328 -0.0160732505642
1320 -0.321502774442 0.589689706253 0.36107649521 0.192536173295 0.159253364681 -0.187865377841 -0.116447058666 0.182720996153 -0.0497865578783 0.178965942413 -0.0639492433958 -0.152511336857 0.203818815269 -0.126294881997 0.243992897818 0.0550449471353 -0.0747940247028 -0.288864439195 -0.436730970703 -0.199924759292 -0.108916406902 -0.0598453473251 0.317176148284 0.0145706687464 -0.035740801912 -0.154609106803 0.126828494113 -0.264474156752 -0.0277097366677 -0.244614658824 -0.0853224644611 0.0712647525261 -0.2671059319 0.186625646326 0.0467744291069 0.156434987202 0.259219209995 0.0625785860502 0.346649767785 0.0304876745413 -0.089438858577 -0.118312292594 -0.0986939585057 -0.245173204033 -0.216459973501 -0.201946097347 -0.00766786291997 0.0362714224149 0.134158789955 0.142355816249
3052 -0.198500473869 0.435377328556 -0.131241956114 -0.125774729762 0.173895945574 0.0526065771927 0.238594068459 -0.110938853506 0.0799694152805 -0.662884226567 -0.0903398387924 0.110507926973 -0.229817397451 -0.144362682043 0.244244632455 0.0893013380366 0.0234976943101 -0.328753050714 -0.281560404338 0.139871397661 0.12318081559 -0.189269172212 -0.374807873016 -0.0741002498946 0.315004123617 -0.00058711910499 -0.261171572232 -0.29939464852 -0.211152295506 0.23785914414 -0.466869771817 0.490788371311 -0.247537033681 -0.306523675123 -0.314412637602 -0.132583199296 -0.325101896676 -0.187149373767 0.0311357613986 0.116729926279 -0.0516284227027 -0.191370823798 -0.0878301829835 -0.0572847473233 0.464882513238 0.0749580455648 0.0272777218526 -0.148102250712 0.223661947682 0.0571680883314
428 0.179472711817 0.00483909112543 0.0626431607891 0.115463838667 0.0584504906528 0.0675154685042 0.04012461288 -0.00244842312238 0.0442117636502 0.0265990280355 -0.0646340596165 -0.189102270768 0.0816108657994 -0.00133786257555 -0.0199039658542 -0.0181619015759 -0.0324850973753 -0.086029273542 0.0562518716962 -0.0821879953549 0.00475438088231 -0.1625097853 0.011312590823 -0.0494173306703 -0.0520283439666 0.0364803286815 -0.0078579593996 -0.071439778154 -0.171639024263 0.00379873253492 0.027707095008 0.0242902613596 -0.15607539873 -0.0686618303688 -0.0520752260207 -0.0373109883536 -0.00196380637983 -0.0691262730824 0.133637800769 -0.0408655188639 -0.177354159268 0.0983615880812 0.0265305957606 -0.0540836482437 -0.0469780704977 -0.0382476274541 -0.150613447925 0.113542356098 -0.0412765697834 0.0116093024954
337 -0.111071306087 0.230421191368 -0.139132295781 -0.159647041035 -0.349291459722 0.321416649811 0.157571045364 0.442019639735 0.30408950468 -0.241956740734 0.545662209934 -0.331615042133 -0.13153823084 0.0987672822849 -0.31842226456 -0.194304638588 0.33170729679 -0.147484987345 0.541091740151 0.218838561531 -0.616286882845 0.346381116544 -0.0529611502019 0.0276350669921 -0.286943779771 -0.506232163822 0.320556019125 -0.320805771045 -0.493955551417 -0.0138631059252 0.178593727913 0.171899820463 0.342961010059 0.0128249150972 0.270142174368 0.125834919545 0.0313049668203 0.169174893715 0.0904361963069 0.325931718197 -0.314743703672 -0.35116734425 -0.154138270776 -0.0539440458516 0.0377825191368 0.153613908508 0.107232918149 0.327859388334 -0.505529477313 -0.180895005962
1674 -0.0739172172461 -0.0423110543418 -0.114478842148 -0.0522658690329 -0.094797638415 0.0674226358918 -0.0387731833156 -0.216408992624 0.318416109697 -0.433020006277 0.145722437072 -0.236262899105 -0.0258594774943 -0.0327034570577 -0.281544811824 0.0936152250073 0.0666908071383 -0.293420704681 -0.098229071917 0.0407696684343 -0.0817358704152 -0.191514196777 -0.240987524208 -0.133482806408 0.164421132875 0.114589255363 0.0778306511427 0.0976877811747 0.133477366443 0.0851350630062 0.113985165739 0.178818298617 -0.00576897946995 0.0953567844435 0.243887765655 0.154814691256 -0.0230010080561 -0.13397497671 0.413686348573 -0.0480082516876 -0.111417504202 0.196426528558 0.0536432686769 -0.258661086415 -0.0535602560272 0.122337904772 0.219249047469 0.33118419635 -0.160609801429 -0.201296608645
344 -0.249108544727 0.543769108526 -0.0367434948092 -0.24637221854 0.0858121001173 -0.199480773951 0.0758656085424 0.0604901034559 0.255285046329 -0.107800029795 -0.057585098998 0.0956733477611 0.235825781567 0.0428433772471 -0.288512176055 -0.108735127486 -0.0486721803514 0.025226471771 0.123550906136 0.603809532952 -0.18263981141 0.314011668578 0.0294094850826 -0.284745067747 -0.286612901469 -0.294742003179 0.363513330064 -0.339797273147 0.0995818784707 0.383610048115 0.108523230524 0.184512795019 0.232901359885 -0.272707683767 0.216238301926 -0.505224703974 0.738052631748 -0.42285217321 0.19021068727 -0.216304188003 0.443537271078 -0.362100324324 0.202844626043 -0.358867734788 0.00738635997963 -0.0101967233552 -0.28761588162 0.0910962194875 -0.539116357657 0.36123619659
1831 0.00263137829842 0.13027472004 0.0173740678638 0.0676680262366 -0.164860601708 -0.0351199889098 0.205765359768 0.00564246331788 -0.0670733896254 0.087311619103 -0.0918848774825 -0.031144915501 0.0324045013543 -0.023798012255 -0.0763413249505 0.0158627507483 0.116914238417 -0.0391290630456 0.0574635048693 0.00973333467797 0.105203576124 -0.0954282874978 0.117871254514 0.00398101973717 0.0879984300387 0.113895468152 -0.146379910105 -0.0485409927141 -0.000677880745568 -0.185897875339 -0.134865883033 0.12166381115 0.0693684608952 -0.0315685582752 0.0824350072117 0.0428458162779 -0.228809300799 0.0522057951973 -0.205949249629 0.0583389064655 -0.0585649083346 0.00717880902897 0.0197128193241 -0.164830657895 0.047752177375 -0.127725743225 0.0270460857875 0.000182989616119 0.0209289711373 -0.0487845419224
909 -0.0660118442972 -0.0357141042391 0.0620236384588 0.0869033399353 -0.29440934201 0.0920756522965 -0.122771411374 -0.251423322445 0.165834003112 0.420961793828 0.185786067527 0.0388723294123 -0.231662339574 0.223057608819 0.175458885155 0.45857086918 -0.0755957356879 0.191162448549 -0.0745112822051 -0.388305174292 0.0877361726585 0.139059025526 0.165838200936 0.19479991361 -0.0917483873351 0.0174780603079 -0.0280184568794 -0.0790373598232 -0.082370891038 0.101795508861 0.217823877204 0.238914824085 0.0867085617966 0.258871575267 -0.0411425826121 -0.00228351673424 -0.0359763216041 -0.356071717987 0.136101700102 -0.102663089998 0.0819765745827 -0.141670201665 -0.0112705387113 -0.0208295947651 -0.0282345051205 0.469795279741 0.367121714147 -0.0706490731883 -0.0884974016033 0.272073950044
3646 0.0113577186681 -0.105029113212 -0.0400980782997 -0.0263883614512 0.00058678000525 -0.0441256315411 -0.102846614945 -0.0274710185341 -0.0563120122192 -0.01854796052 -0.0106871425167 -0.111350070044 0.00480099044324 -0.0646847359921 -0.0555012472227 0.00309349710774 -0.0126826977798 -0.0813244360062 0.020129813592 -0.0430516481907 0.00284469944832 -0.0482740100262 0.0102144340422 -0.0273167908622 -0.0716747164736 -0.00320425572381 -0.0890374260626 0.0485904857486 0.0432348435665 -0.0553839190602 0.0566404339177 -0.00123332903396 0.0422288525936 0.0281781101453 -0.0198973448038 0.00599674721629 -0.0747973104257 -0.0294708574788 -0.0500553448386 -0.0401276425393 0.0634029793254 0.182128047686 -0.113693398464 -0.136123944997 0.0382783627052 -0.0022391352844 -0.0233234633049 0.039231769397 0.0704635050943 0.0295760380281
2542 0.109834758917 0.13143871578 0.107381403201 -0.708301743418 0.349807426363 -0.00585955516554 -0.317760075384 0.0571400944182 -0.324422083362 -0.0934434804773 0.174120458471 0.330401449701 0.199165260316 -0.0707130658455 -0.237988036158 -0.41334234944 0.410313002021 0.0161680548759 0.195970035503 -0.217232408953 -0.0128859243275 0.197373393486 0.0988691880701 0.57763127654 0.461261912657 0.0378701819929 0.335321692656 -0.263545258251 -0.449481069452 -0.0345178507097 0.257465279113 0.108454814827 0.207869232545 0.355884310879 -0.0975095009695 0.104395602356 0.159542627321 0.245067952942 0.379972150192 -0.898839301947 -0.472292952129 0.0227329705366 -0.249882247737 0.122383623559 -0.144364135291 0.0687992653257 -0.00233231259776 0.0340073791277 0.188524559512 -0.000261234415523
2995 -0.262215104902 0.136922132106 0.214113159395 -0.0590247375642 -0.199614633268 -0.0471667995135 0.0819343610236 0.174962347054 0.0699555214868 0.241010228492 0.275634838393 0.176933620146 0.0945559375868 -0.322872896949 -0.0961915543065 -0.473227143438 -0.187559927314 0.363897988721 -0.025128209285 0.0129053352114 0.133266543867 -0.416496917392 0.226373158839 0.126253204332 -0.0236856722007 -0.301585792527 0.0974045144352 0.0426747959 0.428398258069 -0.105165034518 0.0290367009082 0.284919300886 -0.357639039944 -0.454731781031 -0.140814942081 -0.0734757619001 -0.18348953394 0.376044693891 -0.0175338309858 -0.0548744999148 0.145980023882 -0.0444332236304 0.0933162353128 0.420610437863 -0.00449653763422 0.235280003701 0.491059669379 0.100740085066 0.315747080384 0.145534418002
2318 -0.0541652130399 0.00512017613916 0.0289786605428 0.0696187776603 -0.0756009412175 0.0485875716813 0.00294950016495 0.0826956411588 -0.0292084189011 -0.0481994817287 0.0293393723288 -0.0147329265954 0.0362681144274 -0.0536395373999 -0.0515567034057 -0.0333047506368 0.071800079464 -0.0801342735469 -0.0120990360389 -0.10029375573 -0.0617719225993 0.0388082523763 -0.045633825626 0.0155201057288 -0.000414787029924 -0.0415174321848 0.0424953774565 0.0215056764926 0.004911576668 -0.00739661674467 0.0470743929 0.0413062678993 -0.00933658232634 -0.0912640433495 -0.0635775822733 -0.0441450196688 -0.00570610690827 0.0452278551244 -0.0585970670811 -0.0536435106728 -0.00140210763343 0.0921668573041 -0.00689637978085 -0.0554125708406 -0.0441865732656 0.0108017485983 0.00621521479978 0.0089013629709 -0.0274483942489 0.0123549546296
922 0.0161794973093 -0.483080939331 0.125657024018 -0.0522986941888 -0.220063207344 0.123968488492 -0.0988870573239 0.0204916950804 0.0458951330767 0.344741701091 0.122404533047 0.28437530391 -0.1448600536 -0.246875046861 -0.0619311013603 -0.268417585631 0.347357351575 -0.0679343591029 -0.114613577627 -0.087219713624 0.0742681334 -0.0676997664553 -0.333372405341 0.0278773064347 0.374468271306 0.0269048769212 0.195875411484 -0.428036179681 0.0885939216703 -0.123856797595 0.185741142542 -0.301631926609 0.116703303041 -0.135000296337 -0.160505770458 -0.0479104134627 0.180890513216 -0.122486513256 0.245703919783 0.00271339221762 -0.333060750952 -0.25766888365 -0.0173164397975 -0.412183337216 0.161704570477 0.265284526359 0.0233560866088 -0.11404776521 0.171417116079 -0.575692306537
923 -0.219555731451 -0.29905732722 -0.0376550860737 0.360534853642 0.412479367577 0.326539729485 -0.149495972039 -0.377785960672 -0.17827780006 0.0479848965771 0.0917483532072 0.0855456293848 -0.268959164668 -0.260764017062 -0.0184337401938 -0.238439418633 -0.194310936142 0.336459311063 -0.455993300646 -0.0296424833339 -0.396553077982 0.06379068264 0.352060833335 -0.19354632733 -0.0520831959765 -0.158328224417 -0.350684126759 -0.254312308963 0.551050257725 0.337253725729 -0.145684063914 -0.460089542149 -0.064098120041 -0.00301721735185 -0.120736324816 0.0571455866947 0.0650548269142 0.263892762194 0.331403092876 -0.0502356445711 0.579622222893 -0.252418201108 -0.686838133004 -0.139534772106 -0.0237857782688 0.118040956322 -0.435169829039 0.670812517867 0.0500846036649 -0.129174406996
2428 0.0210953291739 -0.0638294166367 -0.152385693515 -0.0953556405397 0.28645284394 -0.0340988563213 -0.194767034487 0.0230984355569 -0.0203932359168 0.149017961906 0.240905007241 -0.0543874840012 -0.55346363981 -0.0821094645848 -0.0463511177035 -0.422952781357 0.0767280751577 0.341366962332 -0.203246282857 -0.0828509156971 -0.111380772095 -0.480936268558 0.309218665344 0.0943084654027 -0.0881367140491 -0.0690627379133 -0.0707442935122 0.157635524037 -0.023264208157 0.0410726171646 0.106022008596 0.00813151045051 0.0526850553371 -0.21493864611 0.0989518223459 0.0197998629708 -0.187119034287 0.0303353699892 0.0414740756637 0.0171561479633 -0.084348742696 0.37055988112 0.115665947132 0.264277879672 0.107274173385 -0.246832940864 0.632368027463 -0.00154534806575 0.025402300152 0.308720900044
1198 0.415111181565 0.314909362094 0.692158469413 -0.185156427172 0.373981792167 0.641663081576 -0.0984418571022 -0.125832677807 0.512034416195 -0.175425408464 -0.260379229723 0.492611267718 -0.12751831999 0.00336041453831 0.308751602347 0.218579044816 -0.330743293041 -0.046431133617 -0.269752349376 0.49433516394 0.0789090906443 -0.0728213097619 0.315024564599 0.15055650292 0.191122524181 -0.212724718089 0.111491731826 -0.0302948069569 0.223601860579 0.374750546005 -0.293129867824 -0.258237893775 0.335991608642 -0.0114593768438 0.67837495174 -0.471071232677 0.0108858875117 0.319187548482 0.271626692723 0.434917259407 -0.0937853052701 -0.29563023103 0.100799265705 0.291125083939 -0.139121423012 0.019841482337 0.292362369036 0.207730081014 0.393197184336 0.073369263774
246 0.265168908626 -0.217455063585 -0.167433612353 -0.0651052239604 0.549202285541 -0.00512909571091 0.151703616239 -0.0631051364384 -0.273300637969 0.191304667378 -0.182900349924 -0.163261032329 -0.431048970676 -0.00183045205692 0.0178586802065 -0.350579903175 0.625854843111 -0.0158168839075 0.209665011033 0.594017004141 -0.394324210193 0.179504391851 -0.293598573137 -0.125461043254 0.163452042243 -0.400785095237 -0.157376184559 -0.387611026513 0.205679886162 0.31084561659 0.200916005078 0.316750778743 -0.10112596777 0.35052134412 0.398700240069 -0.0500019795521 -0.172499806866 -0.143670461906 -0.454200566153 -0.265511850951 -0.124256561856 -0.393911539525 -0.307798235471 -0.362550797854 0.406183263148 -0.299587068682 -0.149908767754 -0.132451937386 0.403314377165 -0.334571517661
186 -0.826791696621 -0.0725281735792 -0.0645758461822 0.115339715453 -0.226492161264 0.0320612332795 -0.318663171313 0.537774626262 0.371672799272 -0.0546995198614 -0.434741169582 0.34763635712 0.0181625821252 0.0113366956625 0.056729168048 0.187061103697 0.286883556266 -0.134674525661 -0.0608888794515 0.324274112317 0.0549135514756 0.137326634212 -0.644242663269 -0.0482009308672 -0.171271670638 0.0379303939301 0.287698663665 0.0156468087749 0.139596316413 -0.184516583147 0.517576976026 -0.0954385342569 0.236948764259 0.0151256159963 -0.244245602399 0.0567745805272 -0.122675646887 -0.388514791489 -0.145048117221 0.190528019596 0.245799213751 0.183491722847 0.000135366152562 0.068262646917 -0.374718908659 0.263558705286 0.272316949733 0.0261683199834 -0.0301318748054 -0.0654862395755
818 0.0444970992573 0.00304997858096 -0.00781868591111 -0.022014144876 0.00546341505596 0.0351675325323 -0.0750555531225 0.0407096567755 0.00370635213461 0.037474599917 -0.0239252009219 -0.0275614674252 0.0395473076648 0.0146541479679 -0.0746852963992 0.0323065707551 0.0536640045344 0.0484061769327 0.017550327901 -0.0500899664103 -0.0136730348622 -0.0596611683744 -0.0240589014698 0.00750529795675 0.0263962957267 -0.00598309967054 -0.041069041904 -0.0876390552087 -0.0373407641226 -0.0411390548969 0.0258812766073 0.000498540244837 -0.00356533662595 0.0143799936027 -0.0271793716449 -0.0454807070206 -0.046429557949 0.0578602903165 0.0225832346126 -0.023020344413 -0.020962433955 0.0884193812816 -0.00742446249731 -5.20034236834e-05 -0.0113342784913 0.0169204045629 0.0173168947531 0.0413399853905 0.0572222497832 0.023900972083
736 0.208503832911 0.139558409632 -0.185750481865 -0.0545351993879 0.172089147206 -0.0110696252324 0.714908574152 -0.599971703592 -0.273483599852 0.591600221176 0.106325527445 0.595314514639 0.29757736726 -0.0925465833812 0.196458196003 0.320855799171 -0.179885288428 0.0650480691991 0.429863239574 0.061240179018 -0.196351639535 0.396865159238 -0.104603605332 -0.504507204136 -0.0815899590544 0.0414529872813 0.429794228024 0.536098350675 0.23826683034 -0.424577005308 -0.366443856707 0.105424987541 0.320399283975 0.228960053075 0.230639413599 -0.190041879291 0.206334644888 -0.0712157582196 -0.203969177769 0.422324505578 -0.0326259118433 -0.474533663963 0.236681477362 0.309712097306 0.454949810143 -0.276546048462 -0.27346754071 -0.0473564422742 0.260679605213 0.219143759393
1405 0.782964642174 -0.373354837193 -0.0988566390807 -0.513472553117 -0.82469140794 0.173643273302 -0.0906777648068 0.0470599191821 -0.0504774318256 0.131387939211 -0.0887504875051 -0.329462644335 0.154022846336 0.0512812237251 0.0112265565038 -0.0237256531447 -0.182355455379 -0.0447492316119 -0.375280275073 -0.138742285325 -0.169124901416 0.319150579258 0.293993631543 -0.241437926773 -0.288802381114 -0.179062691843 0.190822514666 -0.18816376729 -0.162160800809 0.00520054486869 -0.243560437768 0.208672725153 -0.0911814169542 -0.128328982141 0.616406272338 -0.157409592922 -0.261712838724 0.218352364295 -0.396502940039 -0.138121921603 -0.430866292489 -0.0982644081855 -0.100772009198 0.0642710095578 -0.498625070473 -0.213670113991 -0.104922360959 0.320274324566 -0.547493922631 -0.196569334621
1354 0.0613657900861 0.019557404921 0.20533871592 -0.183407657049 0.04084977897 -0.137107863323 0.0833200658748 -0.284237675064 0.3171629846 0.0324466763818 -0.247769309011 0.0318248957112 0.111610139181 0.0594897289523 0.0490626570109 0.320178437236 0.187126161469 -0.21509076675 -0.0443998738588 -0.184546146881 0.16572544349 0.0906563396007 0.17752481163 -0.0662968966981 -0.0192292646573 -0.133476994801 -0.134907084965 0.269045608567 0.216080640586 0.1312072375 0.31005709015 0.0594249817829 0.156570967659 -0.369093304169 -0.00771740162981 -0.234904239596 0.203220891156 0.14252079855 0.0803155665442 -0.215858744981 -0.142180528631 0.214533373814 -0.259291335053 -0.103361885773 -0.282909476169 -0.259073283042 0.0372663125081 -0.0236470302478 -0.11501836052 0.187922501644
150 -0.333005435699 0.0357545101206 -0.152668441398 -0.370618550881 -0.0907965707579 -0.0267123057711 0.496988063175 0.492258742234 0.193706767851 -0.160748681991 0.168940836344 0.107652061717 0.2819765986 0.27774547137 0.196181555498 -0.450624539011 -0.0191856751538 0.454616186355 0.376431492099 0.370661811223 -0.221141188322 0.156843992525 -0.116421157891 0.0904959836565 -0.110544391952 -0.197742752184 0.267007771424 -0.204468276617 0.385229704896 0.448166689372 0.0622171542665 0.227409391312 0.266093423915 0.35480149934 -0.0405872000688 -0.464666894567 0.508726799709 -0.166131486262 0.0912397816876 -0.166133366706 0.616395641794 -0.500218368702 -0.15391273856 -0.397494290959 0.26915978284 -0.442496331063 0.00490882986529 0.042150593339 -0.5012682434 0.476430324855
3535 -0.0440080532156 0.140934512518 0.170224707571 -0.0907516755803 -0.0235726150078 -0.125120319419 0.0182845902549 -0.218239987671 0.10176712179 0.145871380136 -0.0796908551795 0.122095580065 0.218851032483 0.0689377080218 0.0208077756941 0.0367780647152 -0.0761719349409 -0.188589911779 0.242147910214 -0.0841393406593 0.138736433717 -0.0465420882922 -0.138305422024 0.0603342773136 -0.147113334697 0.0876099818976 -0.00983110381232 -0.0466145166601 -0.0493703459137 -0.0992369646041 -0.0155755410783 0.167151275217 0.0656204699088 0.0413538287626 0.0479739135839 0.172544073539 -0.105805582577 -0.326855061856 0.0374106622062 -0.31504306557 -0.223468376178 -0.111125662209 0.186523266873 0.255637636312 -0.0734247721119 0.044331531714 0.217875257944 0.0683044939374 0.0922377044689 -0.0972268228335
1350 -0.339985074816 -0.101400090553 0.139494325949 -0.0307072729131 0.164129350472 0.0910352108388 -0.17761885464 0.152632951882 0.0873513605634 -0.105312687433 0.09361404794 0.0394215784326 -0.117144852523 0.00549240731402 0.0233800882954 0.00528214693064 -0.0698197585133 -0.0573502565302 -0.212318368224 0.0779802935378 0.401935056726 -0.112262791435 -0.0177853153943 -0.170686050959 0.0187327846088 -0.0334853553603 0.163414166369 -0.0401037720842 -0.290072980552 -0.102325413946 -0.0162989258654 0.0222404538603 -0.0687827015606 -0.0695467374844 -0.132138574483 -0.035602590644 0.0223330974693 0.121768789896 0.15259261255 0.151119458336 0.00811569367009 0.216248040188 0.13730892303 0.134657154714 0.200932986985 0.0113205194912 -0.0975592496123 -0.0810239742679 -0.0261093820405 0.0098360507122
1321 -0.440358254431 -0.238394530056 0.0165528774776 -0.219455547778 0.081901254721 0.453473544256 0.0898565934803 -0.431035586166 -0.267147226889 -0.283374204479 -0.208085176352 0.232505651957 0.0187882925567 -0.447967801642 -0.452506917287 -0.127034729162 0.0869448974162 -0.099371288835 -0.223843590188 -0.00840952037 -0.0179637189857 -0.0213478492893 0.454921089951 -0.146414606305 0.116927617481 -0.0526538545985 -0.0374867483879 0.369687091856 0.0694189581514 -0.00953106152978 0.257194711498 -0.195375177525 -0.122402357778 -0.148161303574 0.183468257476 0.120874741573 -0.210084283873 0.167214124206 -0.00778922953613 0.0580716106545 -0.441888441168 -0.0606805117771 -0.112905474491 -0.434056212753 -0.213996069791 0.123113410815 -0.26549993962 0.0931468630657 -0.229068745584 -0.0927681998063
509 -0.025443565424 -0.208368482562 -0.0425534553184 -0.44659970215 0.171586194374 -0.619236143347 0.333162020198 0.334862852432 0.100007634586 -0.00107862753193 -0.354499230436 0.129848637868 -0.30403338842 0.532690617969 0.185658247065 0.337820194353 0.0479783773459 0.199835776727 -0.295318951682 0.204670160781 -0.480231830968 -0.146147207063 0.123906819105 0.652629480581 0.154413949715 0.543385660115 -0.201388766452 -0.209452317223 -0.118069995763 -0.0140679337394 0.614342940419 -0.0671014187814 0.526890127664 -0.0542119309244 -0.0655429092401 -0.835345232635 0.606313616699 -0.200209897466 -0.607919247739 -0.0454561099135 0.63651727564 -0.265561896552 0.0364865731061 0.577905369042 -0.247899034335 -0.0738985907614 -0.331379409919 0.40052811825 -0.159519756785 0.176891978745
457 -0.250311563955 0.131345755039 -0.163342942941 -0.357622965772 -0.204050446788 -0.307505643746 0.487412009999 0.238494842504 0.181986345616 -0.461699820512 -0.1385303758 0.194403076542 -0.141772463896 0.237570497054 -0.210709250843 -0.305747560512 -0.14934769576 0.16237145139 0.433397313947 0.456716710664 -0.338094765493 0.356820820712 0.0687482189697 0.161527106118 0.22136232934 0.190830414163 0.263837688763 0.186461994679 0.0156124759662 0.485877180472 0.0425661581231 0.108276969051 0.04781854059 0.631882549514 -0.0235311271377 -0.483852774709 0.288317252705 -0.0571145278838 0.460474639001 -0.171597444503 0.622263309314 -0.493059333192 0.0800579347561 -0.0857744166747 0.245321732248 -0.341163458558 -0.269719556956 -0.0743368742599 -0.743056333065 0.127932506997
761 0.140291325889 -0.195245837838 -0.00147824970852 0.0835007277705 0.333857834351 -0.264519849942 -0.139037465494 0.222674176363 0.487561073581 0.220610426416 -0.447699322403 0.0373271464476 0.349863395664 -0.059178982448 0.210489553343 0.432174319485 0.0944797618576 0.123057649615 -0.155830775379 -0.121961287656 0.395051764633 0.265123276612 0.233373440411 -0.0651118158551 0.259420520427 0.156135150048 0.155893033761 0.0485014993406 -0.166410987838 -0.0364260305813 -0.507521378021 -0.0740879716287 0.0163896585284 -0.060505143799 0.436071446385 0.0215308572726 0.107951796744 0.321683269765 -0.211678430606 0.26704266305 -0.255912243998 -0.415703568071 0.109836613627 0.575648921454 -0.0741777215193 -0.358128905426 -0.181033590946 -0.222709252655 0.205961962153 -0.302903199265
663 0.183898385071 -0.329448666467 0.2269999889 0.149923745475 -0.0593502945062 0.619879256786 0.315565826596 -0.605746278547 -0.26960882068 0.33644367202 0.495282814719 0.0057068272431 -0.239981981691 -0.0318280705815 -0.128870714181 0.130871756146 -0.161245529968 -0.277859763767 -0.192088045453 -0.244726997667 0.343639912241 0.609354258498 0.261477628714 -0.632063598503 -0.0326195775099 -0.0841500159044 0.321388770194 -0.180382133824 -0.00228946945735 -0.145817558628 -0.14508655561 0.0555422959461 -0.418793800409 0.175071062149 0.225433324641 -0.032482098382 0.212133351697 -0.0733015258084 -0.120605488531 -0.498617868912 -0.0286249857457 -0.230019437028 -0.332110430542 -0.196150523786 -0.387314715664 -0.276051702122 -0.125190222624 0.200896139937 -0.132135207693 -0.113169939131
2019 0.678836102699 -0.316907658089 0.0311171814847 0.285403599227 -0.0503562559521 0.408655963463 -0.0617692735348 -0.00609722084343 0.178313171443 0.0136471976012 0.0975020136509 0.0678858941752 0.0809052803154 0.149523213883 -0.0747568256406 0.11213161828 -0.101779889723 -0.0054873494756 -0.0635441834524 -0.113255578038 0.130375273716 -0.00283497363336 -0.479247619935 0.130527380596 0.506624576006 0.153950095115 -0.00461637991145 0.0697298206685 -0.0066531448892 0.0268930021774 -0.062579519823 -0.221797125427 0.0956991737231 0.34281466277 -0.277197118324 0.0944540308377 -0.185997225935 -0.212567888315 -0.314012020858 0.0408034388367 0.299412209307 -0.0973221296825 -0.165519871829 0.205852038171 0.167907669199 0.605506730012 -0.179524363433 0.229524910799 0.121488851245 -0.178408750454
21 -0.168817997035 -0.0407513483116 0.124060393646 -0.204634147275 -0.0837677440398 0.18319951611 0.294082431641 -0.129141045273 0.251957156224 -0.234913281003 0.284015051511 -0.107300714104 0.389856954923 0.328874601312 -0.220434751616 -0.0700738577697 0.30338327175 0.159656582949 0.359085442952 0.342237523559 -0.169878776046 0.0300294294647 0.0904021937104 -0.113552318732 0.203035048385 -0.328037764901 0.017887364915 0.32451033452 -0.222546436099 0.277133090229 0.488738354101 -0.129272150949 0.44532512978 0.384387928939 0.0501610226385 0.157801309047 0.583926598385 0.439693825774 0.0848066932308 0.189929041865 0.0241099737959 -0.117162544984 -0.217804482626 -0.303339619015 0.302225677551 -0.0203882727201 -0.361811002391 -0.394039146232 0.0969522978857 -0.128757156352
1213 0.164206260663 0.294073249054 0.0372558251759 -0.719803636023 0.440137670159 0.255003410659 -0.364213105898 0.0149362247895 -0.360853722964 -0.54681918154 0.131688061992 0.296548749173 0.0391857061326 0.306131168563 -0.0273465159941 0.52135591621 -0.447908471261 -0.0392860982402 -0.338916445154 -0.151398860699 -0.223013587335 -0.47750433569 0.0862669454101 0.49675618085 0.338841587482 -0.206551943558 -0.0987501699114 0.262056457616 -0.167099273558 0.144877169784 -0.398969825302 -0.102033119559 0.0503102263436 -0.0437331228989 0.416972106579 0.429377201524 0.329125572305 0.183846760998 0.0399711547026 -0.0021696490008 0.370091709373 -0.385430639482 -0.18719575871 0.163640630225 0.314979739142 0.107471306545 0.206553098753 -0.101282428748 0.308087504851 -0.0369827691886
1377 -0.204002407987 -0.392149132688 -0.0206398615395 -0.298746787966 0.340015672886 0.163559765848 -0.20643718952 0.0178881218196 0.0479775320519 0.247283229531 -0.0325695987276 -0.0862714331262 0.0126716490616 0.0224006732076 0.0957915512916 -0.424965645368 0.0105727046323 0.223076717915 0.26541773221 -0.37967467493 0.0315736656391 -0.121347684106 -0.367943447531 -0.247381684323 0.262246737843 0.147650148065 0.132727181824 -0.0385559651024 0.312250043096 -0.217229801923 0.23049242118 -0.0411369009715 -0.346818344131 -0.353686765826 0.188883371449 -0.291722822628 -0.0869475041487 -0.41642783501 0.0877882399314 -0.288612036181 -0.139895090743 -0.00849979217284 -0.592902831574 0.203259037541 -0.067587140125 0.266455435833 -0.304586137663 0.363486347702 0.260103768496 0.412766686123
1639 -0.205040112477 -0.335226021091 0.0545236955874 -0.0920973978283 -0.0968644528751 0.329160673134 0.111125335432 0.23606703115 -0.0223286529525 -0.110612354267 0.00907172022164 0.337574478528 -0.333005408588 -0.198318211851 0.0836385689775 -0.112437622343 0.318761570412 -0.0301933373765 0.0528945105587 -0.218157994307 0.164954249914 0.0127559489193 -0.535699252904 -0.162927498206 -0.434976619611 0.451260376631 -0.692770246316 -0.0598157059917 -0.245171607004 0.2961074052 -0.144112243688 -0.0654351747068 -0.0248676394434 -0.648117031103 -0.272762235901 -0.0257978284409 -0.0890350903004 -0.532503050638 -0.0560598621864 -0.333131730773 0.0933390885569 -0.0828251869103 -0.435511600446 -0.230049232575 -0.023130159249 -0.246727830554 0.108822278332 0.0524507206181 0.326783158123 0.164234813308
942 0.162142598868 0.121083841233 -0.056630121853 -0.088851794519 -0.147444888662 -0.143710517799 -0.000324060704357 -0.0753705344507 0.0702160169733 0.0156502665382 -0.0211560063846 0.128850671903 0.252263849283 0.13381045052 -0.0285016902732 0.107820935669 -0.145312480866 -0.218150408849 -0.21188851987 -0.175922180611 -0.130178203143 0.241335713092 -0.143351880581 0.106772723668 -0.226119954489 0.180024494678 0.0395232670646 0.251447198237 -0.0610070182457 0.147101930264 0.164164443341 -0.00724542013029 -0.00817721956171 -0.189884100813 -0.0391365069794 0.106192181781 -0.120686876329 -0.206101679937 0.165989799218 -0.0919998487021 -0.0875998169675 0.330241950411 -0.0159399492162 0.026526046332 -0.253652124905 0.0231936399325 0.0664409802231 -0.359829076097 -0.119981091966 -0.0643337953832
494 0.0594315369155 -0.806710873735 0.272992870039 0.102996729906 -0.136604560966 -0.117527755163 0.292111476575 -0.559156908934 -0.423951646381 0.712693867131 0.0247470517465 0.129742825954 0.0727346431451 -0.275447310597 0.164506379742 0.447533072527 -0.326094823876 -0.303172894129 0.185327925343 -0.118896817309 0.130162432449 0.679022469899 -0.145646774787 -0.310100952165 -0.233127943844 0.1974856452 0.282678651089 0.22843003838 0.235884123622 -0.379638376044 -0.463528004537 0.202163043619 0.303573207267 -0.092571251249 0.300190772574 -0.0259695871955 0.367411635157 -0.218614668161 -0.0712503719594 0.583456848827 0.00517723082346 -0.494649692212 0.0103200809351 -0.11522101887 0.223823535364 -0.479777879575 0.0893315069471 0.144471234431 0.253087339727 0.276712813246
801 -0.0137592051603 0.00123679537643 -0.00307332101391 -0.000680993078522 0.0273277226084 -0.0457275487494 -0.134002954394 0.0907008935011 -0.100870994354 0.102335594139 -0.0492051458073 0.0331932506358 -0.000790716566066 0.0270402665269 -0.0944757007975 -0.0483804346103 0.0609292361472 0.0200939599807 0.00128611666068 0.00357607374218 -0.00270375252017 -0.0084205604536 -0.00733490247266 -0.0780453950633 0.117827605659 -0.0137992488904 -0.0583175417618 0.0569307515774 0.141692945993 0.0351779944627 0.0843477258397 0.158919123936 -0.105360424067 0.0303660287122 -0.00521501666495 -0.00818055355158 -0.112100941493 0.0469801450598 0.0712308305238 0.0432907414747 -0.0831341906155 0.138196733749 0.0408140818021 0.0959053726659 -0.0193247668063 0.0421904090603 -0.0865286067288 0.0502683130351 -0.0143548884896 -0.0313457048819
7254 -0.0995227915144 0.043830683025 0.0313599354901 0.0811937328848 -0.0146401045425 -0.00359329947242 -0.0694324233014 -0.141742001909 0.118884806882 0.0044504332449 -0.0436291231124 0.113165831052 0.0866501434288 -0.149526396076 -0.00105856707513 0.0347286795809 0.0504623726573 0.0492273227746 -0.0863048498643 -0.303450540463 -0.203775572609 -0.252048653985 0.0608118799251 0.113291617639 -0.196289634876 0.0446303402961 -0.149809000311 0.0861675951651 -0.207768037474 -0.0148424394325 0.0657346417623 -0.107031386409 0.131384854135 -0.000208666752118 0.00673068469088 -0.063428855227 0.00451372399521 -0.0720044816677 -0.124059802818 -0.135915730242 -0.285525738199 -0.015091263344 -0.0264653789846 -0.00659856359222 0.0804112993778 -0.0408061710637 -0.132381107157 0.148502935969 -0.186761925984 -0.164981174607
377 -0.228897042203 0.179655048798 -0.195808588654 -0.181070196418 -0.0823258154964 0.134451413613 0.0218263411223 0.045671869595 0.531888665423 0.0581170839077 -0.344435590357 -0.0131252422925 0.0253228624955 0.324400085141 -0.0278249287412 -0.452735035413 -0.122877279669 0.1884839039 0.518929492348 0.39588282408 0.0891761156126 -0.00635013946964 0.260308984035 -0.120895745353 -0.0419460249336 -0.439154690701 0.628668483302 -0.156280582102 -0.155053679894 0.333790405889 -0.131434059291 0.104505051571 0.355461847342 0.130229545968 -0.0940007948309 -0.395686235361 0.493651377269 -0.120335065079 0.245374000853 -0.245593133399 0.162908014649 -0.0836713173822 0.287380502721 -0.201848625538 0.389410515636 -0.211192291928 -0.333509719766 -0.136281117336 -0.712324432532 0.0790428630576
208 -0.192188838837 -0.107896018368 -0.207774472401 0.00456041906667 0.0339321296457 0.0725674008857 0.0337483217041 -0.0671791271984 0.0407800262329 -0.217145957228 0.260302342614 0.0939521925207 0.130176342163 -0.34432223216 0.0353430844024 -0.623104416594 -0.0903851418806 0.382360133692 0.511937420064 0.463197299954 -0.651699350944 0.552562136758 -0.436160300412 -0.0215491529154 -0.116263165769 0.0221326288767 -0.0455039606151 0.244534757695 0.340901161753 0.293750308992 0.168751363266 0.293443973717 0.390050145874 0.11257426931 0.0261708678895 -0.494553960056 0.195930116213 0.197492581091 0.396591488922 -0.0123172850548 0.898331605175 -0.295546628033 -0.172375625806 -0.00363846509195 0.086417103557 -0.0816294119628 -0.112056233199 0.175938854119 -0.365009307581 -0.137658707771
5952 0.281130080115 0.573031534102 -0.522448480131 -0.176265864804 0.136769865787 0.219369129383 -0.263520533753 0.118429681973 0.38795782626 -0.143826011646 0.0693640061272 0.0564599413756 0.0925887032444 0.427576798176 0.11663590115 -0.534297587289 -0.208130351765 0.199451757144 -0.106891819741 0.352475439927 -0.0357238815015 0.000474746319504 -0.264415448825 -0.399934408164 0.314458257832 -0.188641356819 0.370041712556 -0.0979657947527 -0.1644527017 0.125986244129 -0.16785159328 -0.0315959035731 0.0689255160195 -0.791290137998 -0.017966243137 -0.26751380863 -0.0151834247665 -0.0517403765859 -0.0197714787336 0.286496893423 -0.355984649409 -0.370472612516 0.0975829753126 0.16044384702 -0.239226724084 0.208957632949 -0.178835136337 -0.0450655805458 0.569161406852 -0.15709761956
1267 0.32681376949 -0.165503177051 -0.210599155962 -0.0481421296953 -0.0360461899889 -0.135692713228 0.331979862294 -0.127790984862 -0.0415601361211 -0.402233141198 0.314560685983 -0.208588713983 -0.554039850475 0.213511698811 -0.119579257507 0.300921323142 -0.146644097947 0.0922484842711 0.322272116764 0.0312072875184 -0.0821153162083 -0.0304307713072 -0.0908066052089 -0.0257841552428 -0.472958972116 0.0377317650069 -0.228448467579 -0.0314527858616 0.17304773914 0.144097016636 -0.293347808402 -0.229920791527 -0.0544258822459 0.162064768859 0.0150774311175 0.00340646220526 -0.187964804815 0.203843966411 -0.444452646794 -0.163687546602 0.167032412719 -0.216697296162 0.211522628177 0.0452875445645 -0.108102267676 0.202991607268 0.0773276777008 -0.252555832166 0.043856318684 -0.0631030980963
3911 0.0619198742119 -0.295576385004 0.0931287425802 -0.244046001914 -0.090764371855 -0.164377520201 -0.00829810010552 -0.491377536577 -0.0173884450336 -0.04158189401 -0.113808789926 0.0950209910098 -0.298145342113 -0.423009862052 0.231483917618 0.181647816401 0.15002031556 0.0562103617223 -0.107042553225 -0.195444514738 0.0187805191969 -0.0345110878819 0.0521658132876 -0.150711517139 -0.0687294195684 -0.411764586799 -0.558814939008 0.296752205006 -0.128799941316 -0.00956034890623 0.168255074172 0.0830286088829 0.474658061314 0.208318299562 -0.0362389348906 -0.00606988564986 0.000755325363857 0.0613459929292 0.147875611843 -0.130966845082 0.242983235115 0.339622477868 -0.416528521016 0.0821312277486 0.0783226489067 0.0731225204425 0.154400616185 0.501270640133 -0.0978731434435 0.00858452368288
1127 -0.15729774538 0.301780765105 0.470511395615 -0.0614441933047 -0.0256368441612 0.267004893094 0.0285203954948 0.011487405729 -0.0981515270237 -0.0125966110398 0.196496120294 0.211091388708 -0.172089594084 -0.203942566618 0.0894303571112 -0.533742391915 0.141008245753 0.00413816902733 -0.00868896227808 0.0277810003168 0.647597470918 0.12066297901 -0.0350124588334 -0.339641439902 -0.399570924104 -0.248700237014 0.244889587882 -0.14311757977 -0.137840712057 -0.332692758069 -0.367803139542 -0.192908283271 -0.334082802422 -0.235626712657 -0.0395460631286 0.079155565578 -0.00992195734218 0.475262375873 -0.246818251119 0.116946749589 0.568361733684 -0.159297925073 0.152996019087 0.150963889665 -0.621317414887 0.690627577601 0.0656364052454 0.0819230362648 -0.0404136210892 -0.0139483841965
314 -0.0148765776323 -0.0137452874711 -0.0557790003629 0.0367646511913 -0.0339505592874 0.0244484717921 -0.115530065419 0.0482917308175 0.00191521933884 -0.0067646391506 -0.076112587731 0.0359004730554 0.0575298944882 -0.0650349060393 -0.0119756297443 0.0416453172565 0.0489306030551 0.00571843638187 0.0285324463001 -0.00678476909785 -0.0486241226692 -6.56733483139e-05 -0.030719491384 0.0380300456853 -0.0371931872093 -0.00693118343394 -0.0621194626186 -0.0763093176042 -0.0331586940204 -0.0231964526382 0.0297156309658 -0.00398913409162 -0.0799380877408 -0.00994546760891 0.0490447074683 -0.00929265939308 -0.0589863774494 0.047726809212 -0.00536140647441 0.0240566268212 -0.0572911361034 0.0913719574568 -0.00636317490673 0.00229865955606 -0.074424929238 -0.0440595202221 0.0348178838411 0.0158096233921 0.00281960275563 -0.0515415789977
300 0.150253053193 0.0685846088312 -0.195625167771 -0.318558100261 -0.124488916335 0.347132094897 0.457362374276 0.412123978381 0.174430381689 -0.113738879303 0.069129975898 -0.00418465814135 -0.119909131994 0.226934520763 0.220145873465 -0.389106722099 0.130544525203 -0.0675631606242 0.30365073858 0.583648978138 -0.378927133455 0.395767541013 -0.0187317639567 -0.281434980061 -0.404789813882 -0.268488519351 0.037887881109 -0.255779127551 -0.0125934241338 0.411568672594 0.323125435473 0.113046692288 0.108308733037 0.52684884183 -0.135587193358 -0.0141700507671 0.389880055913 -0.117320665884 -0.261961771596 -0.0525428591939 0.549987891087 -0.316501007748 -0.0734738596946 -0.209849238414 0.224064635875 -0.0999432470684 0.0893068015623 0.0375863170227 -0.233259228841 0.183154927381
17 -0.360269603051 0.575657945368 0.277054312604 -0.388830134298 -0.326505565889 -0.286510148764 0.32649891118 -0.399553974828 0.274898905016 0.321969717335 0.237598006208 0.339419853381 0.137491902163 0.0225558570213 0.587183797438 0.303115199163 -0.241597659251 0.209614972582 -0.0655870326671 -0.0858637980759 -0.225810385246 0.61482768722 -0.284137195329 -0.648505621827 0.461824358771 0.235828505545 0.00497512105452 -0.0242910089157 -0.0809686867548 -0.18689017372 -0.0599697960685 -0.654647274106 0.171639402304 0.0492872361845 -0.16914427224 0.132726628707 -0.00795502047004 -0.364194518433 -0.244220701333 -0.00506224064554 0.255556686168 -0.428427021784 -0.0355692823054 -0.321399748741 0.389064794704 -0.0763944292023 -0.149668630727 -0.000160481483845 0.289789531582 -0.195196723552
41 0.192084913517 0.101304324755 -0.108449016319 0.156970715561 0.240200909113 0.161599798605 0.443062983327 -0.1560559388 0.12316123307 -0.317131542664 0.281087854568 0.350549155213 -0.268160346935 0.264856747287 -0.2917681818 -0.00618042984462 0.169956672053 0.26124703782 -0.500751449523 0.131595801412 0.638675111681 0.115065577113 -0.277642439146 0.0825604417967 -0.36489858919 0.281624030985 0.145007095897 -0.0447086277935 0.273636956136 -0.30510413782 -0.180177911886 -0.00657694514936 -0.256007437525 0.589413395833 -0.238424863698 0.151425412953 0.167317398093 -0.296815446183 -0.249380089024 0.0214718264071 -0.371096546469 -0.443295534431 0.373318202034 0.02196934692 0.492282552214 -0.262803655995 0.00702531863785 -0.252452377216 0.167369343502 -0.264907350233
1907 0.330228436289 -0.0282733429652 0.770811934467 -0.232277472147 0.145496362658 -0.0402238238749 0.179101613132 -0.214951702643 -0.697878979408 -0.137709163646 0.255661551595 -0.088677584651 0.273476483284 -0.164337090734 0.147810414195 -0.0340275244711 0.321795714507 0.1269483017 -0.403080083932 -0.0799919812954 -0.185573750869 0.0541395800855 0.2515825272 0.00396735007609 0.224405787647 -0.319105619302 -0.368080118892 -5.26598445581e-05 0.14135556894 -0.180621716648 0.142229806396 -0.438490646208 -0.144334901493 0.351485041528 -0.309497673786 -0.267164280116 -0.123709235623 -0.186914497736 0.428057138636 0.0926073235572 0.100489115019 -0.45516124256 0.157200299383 0.133773371222 -0.515955392286 -0.0316125918147 -0.031860695175 -0.13947941551 -0.115633087806 -0.0605907652825
4015 -0.0250793744515 0.148629377753 0.0451938887906 0.224501796153 -0.148661844793 -0.173483436569 -0.126608051321 0.0178796424639 -0.229697220869 -0.240231418697 0.118594727976 -0.161439143516 0.0773689780228 0.0355861210205 0.102855537665 0.00588487425961 0.149110437594 -0.122219132691 0.0470029733017 -0.0865794130456 -0.00741399671909 -0.0541337298274 0.224014717053 -0.0781133170464 -0.0533067396404 0.135634561097 -0.108277802707 0.174405145895 0.161781567904 0.0377259527536 0.113945483139 0.00386166560562 0.0200034443707 -0.133731561014 -0.0965256196448 0.182642681565 0.106036316981 -0.0479249160675 0.24962668355 0.0649786066818 -0.136874309538 0.0477926478914 -0.124553051028 -0.107730949656 -0.0126548754582 -0.10156143825 -0.0812401211529 -0.0331211198298 -0.066087775619 0.152155064607
1206 -0.260186488941 0.167205254386 0.192559984653 0.352113968486 0.411497136355 -0.359245361107 -0.285089632551 -0.101368539186 -0.114836175643 0.0241989884865 -0.48724820616 0.155124788923 -0.0668593145661 0.211091022399 -0.0890716505147 0.0533120367336 -0.501436187112 0.300179938735 -0.0148930559739 -0.310932785994 0.100378080907 -0.0168888589382 -0.0803048651126 0.392853307073 0.183885908089 0.186259468697 0.186534490574 0.0985251648416 0.172398088459 0.0412247030053 0.318244611548 0.329535190897 0.247700463301 0.305647663653 0.0888069719884 0.189210771669 -0.325903025039 -0.237706609239 0.185481447014 0.000676907972168 0.034410963189 0.0628677544222 -0.577822993697 -0.695916519269 -0.595347235037 0.461051632762 -0.186764929033 0.166272035102 0.0154756170434 -0.0977902429514
1374 0.021624352993 0.0923071378343 0.113068070489 0.0969576151087 -0.0285757281392 0.0624490097407 0.0339150597788 -0.0417222305401 0.108995215677 0.173948075616 -0.0970333435443 -0.250920857142 -0.105570056064 -0.168308424795 -0.318622601745 0.12465718304 0.137560121512 0.306102517977 0.220796259748 0.111551145932 0.407149265256 -0.0795953774304 0.0816612320402 -0.15903126522 0.15130926072 -0.422696107415 -0.12387315527 -0.141518653611 0.0314906400131 0.164866469863 0.10174498624 -0.0731212704771 -0.125098651982 0.0227335041776 -0.0522271669029 0.210759395116 -0.344803488768 0.101430628056 0.155559689248 0.119933270654 -0.139296187298 -0.0695226545884 0.0360723202733 0.204739008598 -0.0814789010578 0.133759595445 0.272224893549 -0.0748339167467 -0.0797263578888 -0.221994601117
628 0.25651746517 -0.49292609824 -0.389161234662 -0.767877899942 -0.00270766112036 -0.18295817762 -0.207555286603 -0.200355475688 -0.235744782427 0.178897180025 0.351541674471 -0.0603953510833 0.15055451058 0.143071357525 0.0746256907267 -0.0293724731551 -0.0973518129927 -0.0440892297497 0.167516138538 -0.263708844482 0.16956601528 0.35645679659 -0.0257945050924 0.144478663037 0.509757854693 0.0200806842312 -0.234605374438 0.220103458871 0.259993335011 -0.146577867819 -0.300123918253 0.382153821489 -0.500852458156 -0.375651019182 -0.179142593331 -0.291424623329 0.229769318866 0.154101371038 0.371366037076 -0.0198232464764 -0.512022816191 0.230720788929 -0.00608308680487 -0.141393576764 0.384637216953 -0.399426116586 0.0835628813704 -0.162749957504 -0.0202670183592 0.439425857129
16 0.0394937608141 0.307542182199 0.465451417022 0.137000680528 -0.179506309149 -0.14871829933 -0.234932068266 -0.105072643865 -0.300763504882 -0.29107217663 0.436494944013 0.24595949435 0.529925349368 0.510779952524 -0.0821517401175 0.0125513935381 -0.39974314148 0.145570475803 -0.0618163734546 -0.163837429853 -0.0250517365312 -0.026292619148 0.299380655728 -0.19202362524 0.323000469649 -0.500207760591 -0.223411105613 -0.130727137132 -0.281446076547 0.13914524066 0.250157550821 0.33978900683 0.420500413244 -0.0281213227974 -0.0833104286905 0.142610639472 0.171221007422 0.827347321887 -0.173724778078 0.0897325515129 -0.00827615598048 -0.160030674027 -0.019933400364 0.222690332557 0.457103279027 0.0169682785852 0.0756731086993 0.336925967479 0.111554627584 0.361304881247
605 -0.0934081545587 0.342132533315 -0.202182576698 0.466551109055 -0.249801897188 -0.815894445738 0.0113764921597 0.121267158076 -0.106528492572 0.0162633449731 -0.266114141243 -0.0310308468578 0.162056617931 0.750689349881 -0.0862757734334 -0.315165937435 0.121688650001 0.645705983403 0.0487543401281 -0.0581513247077 -0.0616776584682 0.162550164696 -0.0383673762761 -0.367361166502 0.119874939685 0.488502839664 0.21494446781 -0.0359788138497 0.411884067543 0.608602399193 0.00776991607599 0.0416269059358 -0.524316969418 0.315311713517 -0.0842308829565 0.190909456343 -0.11633073028 -0.0796662339673 0.155398814995 -0.132857940383 -0.376575374042 0.336998301115 0.0192566892273 0.0279499965174 -0.114487099145 -0.159057875724 0.215111563265 -0.339816541334 0.58848402071 -0.0170486269577
107 0.0230377780561 -0.0488947295203 -0.231089910616 0.50329225615 0.21045239105 -0.213907516568 0.368513387495 -0.373569084699 0.222627204985 -0.101040519851 -0.657450723529 -0.0768178695255 0.051272600897 -0.0854118243099 -0.0784431688578 -0.139133524879 -0.284793008174 0.209301510207 0.100426388061 0.128530392468 -0.0933940731222 0.404362604012 0.299505382534 -0.296899313258 0.0766606079427 0.215782950722 -0.14701244658 0.0873816647545 -0.0356391713762 -0.042563298114 -0.123926671966 0.0512562951204 -0.0322601933558 -0.252382947408 0.166482602808 0.0937117298345 -0.181827775421 0.0784700431541 -0.485006972524 -0.524554084787 0.00553807105326 -0.481186248879 -0.108673293164 -0.199686935648 -0.230852332543 0.180456450124 -0.375007595456 -0.367997700055 0.277779711148 -0.366450721572
1019 -0.245779461847 0.108405883172 0.0660564885872 -0.0188240489907 -0.346344600664 -0.177113166304 -0.0897227115287 -0.0709829042092 0.237002028238 -0.105490412627 0.225622453192 -0.250892262821 0.276344756551 0.059717185563 0.18954839877 0.172635265592 0.16661126534 0.180378131399 -0.17613836249 -0.0723129961106 0.129176781873 0.132069737815 -0.111202140215 0.197476064538 -0.00478164198775 -0.184857720682 0.0238116953648 0.0409638925031 -0.105968535324 -0.333405275059 0.0482469092629 0.0680357934736 0.435271482942 -0.163584695348 0.214698963716 0.0369807359354 -0.526298319895 0.0464325731794 -0.0544372022971 -0.0809316677223 -0.051077464721 -0.23729743683 -0.215937643585 0.163177585008 0.00565257458412 -0.264770252486 -0.223009374852 -0.0333722356776 -0.176508848884 -0.108204094078
1917 -0.358428785577 -0.236145220161 0.588326496683 0.0242728641618 0.586140335212 -0.342703268256 0.0615839303886 -0.071788154536 -0.143587919936 -0.151347843497 -0.209433713548 -0.00686149623301 0.502354218636 0.080851907644 0.196233389448 0.140675304008 -0.224418676103 0.323868000672 0.038990918971 -0.027926397586 -0.204220322672 0.293662892492 0.310870558808 0.126078060175 0.0503175030546 -0.295640080072 -0.26092400733 -0.302779064901 -0.350615937769 0.398046217903 0.11415390394 -0.173222812911 0.0496039397501 -0.161605622852 -0.347001148238 -0.0964380436824 -0.145061027644 0.174659096722 0.0759295133858 0.235660502731 0.0275694940608 -0.182974165391 0.353194734832 -0.481830453918 -0.0320133649425 -0.271079095048 0.454529292872 -0.144872425672 0.392414626847 -0.266036653505
1375 -0.204732470658 -0.320001483713 0.283714774505 -0.143494403623 0.350731461257 -0.749980588357 0.171024422426 -0.288460960618 0.224297555547 0.127965312766 0.0896844197514 -0.532449377336 0.148293743467 -0.232823027108 0.200271011256 0.18168002579 -0.339954107725 -0.398109558175 -0.592587805119 0.225719355111 0.075378688539 -0.119967841886 0.0670802009166 0.434966336433 -0.0750086731383 0.121755727923 0.236881722104 -0.0861277098118 0.0253792369833 -0.269518774575 0.052268077563 -0.224298459917 -0.405127921286 -0.0950421272436 0.330200348137 -0.107246003783 0.10405327437 -0.0260778844287 -0.364215959797 -0.263396842699 0.328220909253 0.121344826135 -0.0264908914596 -0.158629255011 -0.143950875816 0.948510527622 0.249208177335 0.171185744805 -0.15523928584 0.0464235631
370 -0.22190892362 -0.0574096243245 0.317443534637 -0.225195232427 0.349500995985 0.305497604327 0.0201285708685 0.280390551776 -0.140597354176 -0.0717915492859 -0.193141384714 0.485112370592 0.459923695648 -0.390785634836 0.139400302197 -0.24275300969 -0.119196658933 0.0721877103699 0.0534416799583 0.296020831376 -0.0282762494603 -0.0246885233919 -0.133111545592 0.013864662575 -0.173883702689 0.181768030121 0.420529372799 0.0918239621927 -0.0504091847689 -0.345872050376 0.13098947847 -0.0704730464329 -0.372940937712 0.0318389928696 -0.498281044176 -0.295847028055 -0.179484831881 -0.0695905989295 0.0470616896438 -0.168090553234 -0.140312912182 0.401905958217 0.104066799959 0.411620424847 0.079386179738 0.301800667255 -0.0234104086232 -0.195383072155 -0.00578749999317 0.124294591207
553 0.442490819011 0.020637705033 0.127718278537 -0.421854182897 -0.554848500867 0.0139027488754 0.246041734882 0.09887572951 0.0598725088631 -0.583083073626 0.643689627843 -0.0317768977188 0.281929745406 -0.0059610410192 0.143322091813 0.141823394725 0.521641408568 0.156191263862 0.166786549495 0.112690231933 -0.377758252959 0.194667596437 0.0787079389856 0.33009366974 -0.0159026167972 0.52031491736 0.167092943511 -0.420470465992 -0.338866758397 0.516465966075 0.0392267673792 -0.151011559643 0.21841238275 -0.291720287417 -0.128542649892 -0.638881458561 0.286234867672 0.43509911994 1.0040753513 0.089416610507 0.0639210488454 -0.0598197372381 -0.325967136955 -0.0125939478713 0.555188553802 0.106067123318 0.0481039292735 0.452314120055 -0.332880606885 -0.246385293138
1958 -0.138673803328 0.296437394741 -0.145892637813 0.158122734816 0.0344233197009 -0.0929408451823 -0.156298215673 -0.128677917975 0.00676239713417 -0.0546114523031 0.0701843820293 -0.0565160253699 0.0638733913284 -0.00145776848742 -0.12709364957 -0.291239703434 0.0609829338978 0.0439943510134 -0.142585036919 -0.0809511302696 -0.0967734064119 -0.127506192981 0.000239240295003 0.0535008160772 -0.0614519992308 0.0466602480918 0.148448885081 0.0860042074633 0.0308610318312 -0.0839187809678 0.00794108259009 -0.0543321155533 0.152001748809 0.198538288466 -0.0671628493767 0.201880853507 0.0672657879974 0.332343292093 -0.187645628627 0.194471619085 -0.0277794273671 0.0550648237982 0.123742374972 0.0921099067832 0.148091738674 0.0997618124981 0.122783972396 -0.00939606731105 0.0563569328464 -0.132818846551
46578 0.312926623055 0.458070854248 0.136581018834 0.114985530811 -0.381348294178 -0.0973644229731 -0.0707777689854 0.0490947653026 -0.0170270626066 0.228055637206 -0.141833207131 -0.13982500791 0.0489012841533 0.195981370152 -0.608873353963 -0.318450943545 -0.180735836349 -0.0359606678899 -0.144890829554 -0.0133542328371 -0.118634195327 0.00786708338025 -0.261271757455 -0.0721473771666 0.107399239313 -0.198931805428 -0.569860671472 0.166440174775 -0.191403630332 -0.382919538813 -0.158394955675 0.0930400513509 0.564786866215 0.397679056669 0.115199999297 -0.158785104249 -0.0567304273489 -0.464890206462 -0.313498469252 -0.0523902230709 0.332999948608 -0.097583079829 -0.0664238724985 -0.262825410857 -0.226476826492 -0.0798991959023 0.25703722135 0.0263669992689 -0.0481339520782 0.0474347417914
6763 -0.0434716607821 -0.00826272917937 -0.0260968221654 0.0131841048799 -0.0540098548678 0.00792199564006 -0.026441539497 0.0139934451388 -0.0849784573725 -0.0195968391212 -0.0448681155624 -0.0527927307514 -0.00118719415887 -0.0156465681245 -0.0239663044843 0.0309592116858 0.0754751607406 -0.0337441310457 -0.0489398748592 -0.0703719230924 -0.0044602941151 -0.050344330512 0.045590822934 -0.0402071171114 0.00909329929211 -0.0123925274274 -0.0340567909269 0.00622975248379 -0.0300704908504 -0.0627932605231 0.0139106097787 0.0303730670891 -0.109694794664 -0.0564059390857 -0.0223063456078 0.01931779552 -0.00703945199774 0.0086544960434 -0.0164336595953 -0.0141203550254 -0.0255638674399 0.00276575017899 -0.0293604953454 0.014599197136 -0.0157768554809 -0.0437309257799 0.00618256501545 -0.0167232621719 0.0398797823294 -0.000558943653499
1232 -0.0510931613107 -0.00563298046117 -0.0226475093565 0.00889099508768 -0.0506487998732 0.00823595564741 -0.0261056239061 0.0195691955085 -0.0863494384631 -0.0165127594909 -0.0484534272508 -0.0545256651678 -0.00932728120436 -0.0195888772156 -0.019971312984 0.0229869057454 0.0778962130181 -0.0318108512329 -0.041083453541 -0.073599566263 -0.00245185465531 -0.0556134932731 0.0404896314601 -0.0412408625605 0.00112355543202 -0.0111613976981 -0.039497484618 0.0118307076686 -0.0268690916664 -0.0595316251334 0.0158345360655 0.0301049395784 -0.0997106224338 -0.0613513255025 -0.0283491851737 0.0265613556074 -0.0118556191926 0.00393073434827 -0.0201820713844 -0.0125958069007 -0.0289704522878 0.0103202642593 -0.0320162417425 0.00871701108295 -0.0105456075759 -0.0392547126405 0.00912588768251 -0.0102983517616 0.0376184318125 -0.000772743067969
367 -0.144849217264 0.370927056711 0.0705706649741 -0.131551844127 0.19862705809 0.227415891005 -0.165252171405 0.0334424762043 0.134290780683 -0.376147134113 0.0163965888887 0.177235314345 0.227812723587 0.0697939275583 0.0275979763224 -0.343204006834 -0.527616661875 0.394268483484 0.516838821833 0.0540813210368 -0.305175545502 0.278849895626 0.26881715129 0.11344175239 -0.308561575224 0.085891558255 0.354337039289 0.0586387040342 0.103319878394 -0.238130713442 0.299773092549 -0.0766430388414 0.0599853225247 0.0602394770079 -0.191343008902 -0.648654547825 0.350027366846 0.059306922597 0.212775753372 -0.119100851227 0.517498088618 -0.0264757034209 0.0633968375229 -0.072188549221 0.0557835561056 -0.150407661361 -0.640834777198 0.115486161721 -0.384253470493 -0.0875009865586
435 -0.264494868062 0.045770433226 -0.282421323806 -0.203841576015 0.0511003552907 -0.0196381533894 -0.180816473263 -0.307825438522 0.0707579764483 -0.263681516505 -0.118532414303 -0.208706864476 0.10617082148 0.325139963569 -0.287181512006 0.436590507977 -0.214984835649 0.0313791801604 -0.271276758391 0.285561713242 0.10133623306 0.129615562146 -0.151223640158 -0.212300079368 -0.148420248873 0.0317418724397 0.0816252772628 -0.162195876905 0.140169694972 0.0670697033019 0.342977997835 -0.381805603784 0.218827563023 0.216928545611 -0.13510937352 -0.409699267643 -0.486855428955 0.23144052468 0.0930918931361 0.205088893034 -0.118895029086 -0.0545142770264 0.0365795847614 0.120030998292 0.130778652889 0.390209123988 -0.385139913363 -0.0293049687999 -0.0462289612638 0.00423939514603
63992 0.0159489344133 -0.0381564179423 -0.0320462992137 0.049277725334 -0.0466195595431 -0.000552809260807 0.0128870634377 -0.0224063636075 -0.0226546054301 0.0391124616609 -0.0570694126728 -0.011265191325 0.0469259325777 -0.0330641965894 -0.0131692552907 0.0217844253749 0.054396886959 0.0393006333546 -0.0213817841678 0.018320073236 -0.00360468311267 -0.0270013201708 -0.0122556496184 -0.0219258616998 -0.016529207936 0.0291675751878 0.00554007038059 0.00146750772824 -0.0126531790786 -0.0437021694623 0.00878265737994 -0.00248911126091 -0.0637378416103 0.00731948645072 -0.0429808540559 0.00746452346834 -0.018736663548 0.0140064453629 0.00556503298633 0.029804749723 -0.0312013844874 0.064562958792 -0.0205382790206 0.00789535265544 -0.00292454597765 -0.00881333083815 -0.013581320989 0.00401709102902 0.0278118462392 -0.0369797527301
106487 -0.0397328023318 -0.0904805765097 0.0418717667477 0.0677458030251 -0.0185503737273 -0.0201980554972 0.0189763611925 0.00887296883652 -0.00346701505295 0.0181639720146 -0.0327250748935 -0.0205106435091 0.00791017302406 -0.0372447821905 0.0205174372883 0.0245509194478 0.0581492278316 -0.000919757663456 -0.0558637892605 -0.0311525884522 -0.0305453660329 0.0243058245633 -0.0210221369687 -0.00967530325643 -0.0322047903819 -0.0204086474193 -0.00806734532806 0.0308768345572 0.0114206009375 -0.00951184868665 -0.0143694258374 -0.0334896983295 -0.0702078259995 0.0177071225903 -0.00642458378734 -0.0169955189622 -0.024057343476 0.0357466059039 -0.016086159959 -0.0283318660164 0.00639025519986 0.0272908830611 -0.0246839362979 -0.0145857506682 -0.0519165343185 0.022168740397 -0.0165989793985 0.00276756410166 -0.0204472031829 -0.0267143222391
48516 0.239754023175 -0.206879884372 -0.37458563284 -0.13373363348 0.359454028194 0.00390615505769 -0.207768275437 0.281447766101 -0.343408554373 0.0468040753428 0.441915616657 0.524015065399 -0.180240818281 -0.313428381859 0.470294398128 -0.103333784717 -0.267639471982 0.0152243921451 -0.199897119712 0.203631270266 -0.0238916062459 -0.447621885877 0.147216554225 0.397286589059 0.334935341421 -0.526411538926 -0.305717800493 0.0175735280675 -0.0542551495128 0.165438177191 -0.341889584433 0.363189930506 0.178444181805 0.441171808789 0.141143568546 0.00265345080655 0.413994903115 -0.165622954614 -0.224235920425 -0.0655400764182 -0.248824463384 0.151537399248 -0.654318472708 0.339546018652 -0.0697001148152 -0.148202302717 -0.0291663839345 -0.164268959353 0.071556211593 -0.077843551859
5 -0.153618004879 -0.318823459187 -0.19012164106 -0.129217061204 0.252994551488 -0.178438888744 0.0579606145137 -0.738847920609 -0.413494053923 0.250510295455 -0.349768829232 -0.23377275633 -0.353585811257 -0.136259957427 0.138529313298 0.0438842114875 0.0198612690648 -0.17172284585 -0.110997525241 0.228852653662 -0.0367964034797 0.679970609062 0.275563647842 0.16971659997 0.176129417122 0.790372078236 0.172938569533 0.463363967423 0.153565666835 -0.203575110004 -0.259412040212 -0.0493944974271 0.259644122222 -0.60321434699 0.373936847894 0.083076511386 0.117284449895 -0.0675608103359 -0.179874264308 0.46003907032 -0.15518077885 0.110785730825 -0.360613075843 -0.39927505726 0.0833533514178 -0.283221444795 -0.27001383534 0.0710069911529 -0.141960416361 0.303350063623
765 0.0339429527395 -0.124210304084 0.292590641493 0.10859259628 -0.289684904424 -0.0147828071334 -0.393782710961 -0.610472864138 0.326984207467 0.3456331905 -0.162452526315 -0.101321612021 0.143687415291 0.170603678222 0.422335569346 -0.309092594464 -0.24359766374 0.333841139091 0.215228584897 -0.0288658160263 -0.260700265415 0.0995821411412 0.537462690919 0.407133291263 -0.182719196606 -0.168622819548 0.0483463474304 0.183987447678 -0.280893993391 0.0761274118741 -0.0247347069112 -0.335811055559 -0.243429124846 0.189022473854 0.0663652146144 0.0472103390696 0.123444461812 -0.0759043832162 0.074070029922 0.0980379144581 0.238895061813 0.360694508162 0.289390861124 -0.189318628689 -0.32474210267 0.172960809986 0.0666668534451 0.0621356753242 0.278436928044 0.338638868288
4040 -0.0695070280378 -0.00205077322459 0.00464068653758 0.0735529403792 0.00622730422604 -0.0745588329754 0.0347707382938 -0.0240664934409 0.021376127559 0.0114156036298 -0.00137708670896 -0.0670085862911 0.00284583270899 -0.0127577459035 -0.00472024720057 0.0368687991587 0.0357306630569 0.0371299015817 0.0122302441276 -0.0108263631847 -0.0113135308235 -0.056067975216 0.0171691791925 5.2281606795e-05 0.0191413674618 0.122471009837 0.0137974266454 -0.0256714153426 -0.0266249692615 -0.0712869728648 0.0989977921021 0.0167952464759 -0.0193928820839 0.0157085551887 0.0106039064834 0.0347402200107 -0.0491489471467 0.0729212913872 -0.0144241040931 -0.00634996111347 0.0416255679622 0.0461440875837 0.0392611766895 0.0357639430436 -0.0180102015072 -0.00131089149445 0.0163571092115 0.0215926261819 -0.0180479679757 -0.0392650133711
7773 -0.0726481036966 -0.00297965962777 0.00615625259735 0.0771987653065 0.00637001188563 -0.0691347514999 0.0325493479507 -0.0225171482307 0.0215288160679 0.0120117537713 -0.000818526356719 -0.0694463550563 0.00341855516778 -0.0120598041747 -0.00182384190972 0.0333246529631 0.0299352453891 0.040337067108 0.0130750469676 -0.0174530647252 -0.0183152130398 -0.0533523149728 0.0187873577868 0.00252940507951 0.022470630878 0.120502203616 0.00955063494531 -0.0266855662182 -0.0306642712714 -0.0687116636893 0.0950554653824 0.0245027786554 -0.0239123854974 0.0170645610164 0.0140243873605 0.0309428317583 -0.0476047670531 0.0733636264845 -0.012845054782 -0.0158682027897 0.0334909866525 0.0486183695876 0.0361522381053 0.0354588467788 -0.0225795053339 0.00404316851809 0.0184347379644 0.0189135372931 -0.0236403428414 -0.0368900894982
1270 -0.00732087154184 0.430639621754 0.300935517551 -0.330109326382 -0.328520604839 0.268413902827 -0.0204506324956 -0.175687704135 0.33108598532 -0.0826975459693 -0.388882341927 0.245554502675 0.271780005639 0.181016239259 -0.0967920362229 -0.141815584028 0.170709585245 -0.087716277807 -0.0527259858986 0.092669320542 0.00980118918638 0.208465046499 -0.108584104237 -0.233872203934 -0.0175249516788 -0.037334519166 0.17717414101 -0.367101841219 -0.0781306429868 0.520265394273 -0.593032581007 0.248847056418 0.46008415536 -0.47341034462 0.360959148763 -0.254451558363 -0.0448224159496 -0.186228150035 0.373478434079 -0.384419877282 -0.376011229013 -0.020500176451 -0.175392669553 0.480696115355 -0.455222622476 0.147215844056 -0.0991451250408 -0.128051046708 0.209342588117 0.0433945160042
1707 -0.0329355828953 -0.0195057426094 -0.0565586831165 -0.0300571248432 0.00281118313372 0.00328142871184 -0.0432756154405 -0.0143244370818 0.0452961626815 -0.0343842897713 0.0143453534099 0.013480494143 -0.0153897240903 -0.0136925941547 -0.0701578073364 -0.0295072977643 0.0602123860046 -0.0254327642074 -0.0375577267029 0.00756176179941 0.0200743307998 -0.0294718479231 0.0086930307054 -0.0192019283046 0.0347214138763 -0.0248892318669 0.0330714884898 -0.0084062562585 0.0006241243656 0.0486428084362 0.0489485682796 -0.00530190825417 0.0135674900938 -0.00790506737611 0.0358031754745 -0.0262154131235 -0.00523147416288 0.0485186848087 -0.0544400835752 -0.0203091758109 0.0259549826395 0.0549425739151 0.0673304224265 0.0262972932432 0.043990940528 0.0115465848197 0.00627115791802 0.00627403063588 -0.0509279052907 0.00196151347014
2827 -0.133619043743 0.116112619227 0.0549640209148 0.115295167139 -0.200382133318 -0.0420100172407 -0.295074467413 0.315117840955 0.242258672885 -0.0229870216882 -0.0494031825872 0.117768190586 -0.0256211120202 -0.153302315213 -0.0376634906577 0.0854898262086 0.273866914138 0.211292594002 0.346163096146 0.14346880324 0.0861615657995 0.0475492879352 0.000718578063359 -0.0357559289586 -0.186381759029 0.182853027447 -0.17979251884 -0.0754544918845 0.188045347974 -0.232456183771 -0.456695738099 -0.121639764707 -0.328130659661 -0.219690854752 -0.0468528103905 -0.0644813207418 -0.0913334442645 0.117835695036 -0.0807275652399 0.122088251222 0.476411489118 -0.413763124136 -0.0501515482665 0.243876480377 -0.269908304759 0.12036731592 0.00604325812043 0.14461899713 0.0433102355897 -0.00892446409136
3543 0.000978353009352 0.0522031519201 -0.0491151556739 -0.0368372111971 -0.123861850558 -0.077187512816 0.210826647106 0.213939341819 0.108586935531 0.012849045584 0.140878689051 -0.0212754597396 0.0507315899854 0.144507484009 -0.0322907256943 -0.431039451545 0.185480151574 -0.160205412347 0.148649141849 0.0955356946959 -0.0673868468142 0.208951179249 -0.109432627053 0.128634922799 0.0421440218876 -0.0497643308536 0.171535139315 -0.00509351354688 0.0295846811437 0.10404777436 0.0179919028782 -0.0476675956914 -0.164464897377 -0.00398224098743 0.00396880763602 -0.0325563979865 0.126990230723 0.0664123946122 -0.0106018820789 -0.105379585491 0.202246005788 -0.164534832498 -0.0374708942018 -0.201601526093 0.0548419891913 -0.135023454622 -0.16303792962 -0.135594030843 -0.148837225425 -0.0669764178168
542 -0.123249101724 0.00197317959147 0.171653008427 0.212633532582 -0.00344767676692 -0.0423059505995 -0.0784674110501 -0.176749034961 0.128057043798 0.000408281353954 0.0730169026798 0.0782997158289 0.0871129022394 -0.229692770469 -0.172575999884 0.0121476912065 0.0866639329145 -0.0210764074215 -0.0530202587355 -0.0886155573286 0.15092007918 0.093906628155 0.159537496522 -0.0719804378902 0.145062122944 -0.0138470834524 0.0487907491413 -0.191068607539 0.205537018907 -0.0367227376642 -0.154763201102 0.118059400162 0.222297091908 0.0577606110378 0.16964657019 -0.237257754176 -0.0616136147865 0.0331880910553 0.0734228338738 0.0258461303499 -0.0579900089829 0.134007055352 0.0191340136415 0.0436244123015 0.0523731495227 0.0218585628586 0.0107084379851 -0.0149866875152 -0.0280210840306 0.241456988061
54272 0.0325532809742 -0.0142397046495 -0.0395167244024 -0.00720555661791 -0.0092470130726 -0.00336041563628 -0.0209356797739 -0.00885463863587 -0.0186506952867 -0.00724204817677 0.00133417914464 0.00945708408305 -0.00935155289094 0.0114861941508 0.00350601752296 0.00121207137511 0.0221234428798 -0.0133477907686 -0.0155041139979 -0.022608360698 0.00820196613957 -0.0215002438112 -0.00367129113916 0.0470114630507 -0.0133319905087 0.0321845497479 -0.035456033032 0.0153463570175 -0.0229757937609 -0.0134283660505 -0.0030848605612 -0.00859283259696 -0.016395326247 -0.0437032440066 -0.012067572745 0.0279041395069 -0.01171323737 0.0263940145072 -0.0458991539033 -0.00447552594006 -0.0159152820727 -0.0202072981164 0.00689518263835 0.0211727151353 -0.00418585612455 0.00130335064561 0.0241553762516 0.00385699879677 0.0230122880396 -0.0160158765601
1372 -0.437335093624 0.173141699595 0.00368521542853 0.0320154990328 0.747139506612 -0.121359116011 0.172587846494 0.257559852019 0.23624528952 0.286212585076 -0.202606610671 0.0332122547819 0.354719045354 -0.210549163132 -0.00170131033243 0.0651352548715 -0.321847399905 -0.466428255856 -0.25461281113 -0.0593751387093 0.104592281093 0.0283576797372 -0.161680118413 0.0929752063771 0.00249619699937 -0.230452418232 -0.0260055557632 -0.164222407734 -0.120535494082 -0.389229025069 -0.322426628529 -0.114671650658 -0.202162296413 0.0283537458846 0.290651255547 0.216575127866 -0.0762224703007 0.279354259468 -0.24391383727 -0.411602116478 0.0348873454418 0.0250169346977 -0.0582226955536 -0.368113643173 -0.00269280765206 0.0824494799777 0.285350218892 -0.0303312407582 -0.234635426733 0.36218401716
1172 -0.117685080724 -0.0718344933625 -0.242052400711 0.0104994517575 -0.218828055802 0.0655557853066 0.205542272681 0.00125462564044 -0.157450142537 0.131332200605 0.68946431156 -0.155455532659 -0.0526814939523 -0.00960640634629 0.384136306038 -0.293349584527 0.450187233367 0.336013857084 -0.0265963637125 -0.195340294727 -0.192735130284 0.0674327701393 -0.0812874277481 0.161564237761 0.0758699842491 -0.217250757127 0.438798268531 -0.255329652429 0.0837561136748 -0.0963707995666 0.238073062724 -0.271478340539 0.0505876190885 0.0253761202248 0.28057570939 0.495475655041 0.120818402223 -0.127341897711 -0.15860143836 -0.0673339381323 0.00546461906208 -0.166498223712 0.0604043480425 -0.208877223348 -0.327064153386 0.171063652488 -0.0245840812242 -0.182532416745 -0.028316315204 0.25424864664
593 0.0293698062786 0.440617713869 0.121207873777 -0.828571664681 0.242439614995 -0.0281891264365 0.559966742258 0.366041129886 -0.0845015602049 -0.575492192232 -0.142646933491 -0.233436389713 0.11701137281 0.0549410819369 -0.0767246373279 -0.315129346662 -0.88502342774 -0.340221705506 0.360172039247 0.495765679083 0.574365693641 0.353090294051 0.081503237869 -0.000188166397594 -0.207346840333 -0.516797295086 0.367007211165 0.0407920425133 -0.25640162634 0.318187327553 -0.23803660055 -0.094978814145 0.241256564457 -0.072473162031 0.524905700578 -0.334585491519 0.446572767022 -0.282273343469 0.377818893907 0.0187782547703 0.0606947702248 -0.29877331919 -0.462523151147 -0.0354933630076 0.472130453332 0.37689916734 0.351423622457 -0.266750070181 -0.393244909572 0.0486935009781
1927 0.104878120101 -0.0821745921758 -0.0729962758082 0.0827789958007 -0.0597588896796 0.123650103222 0.0877126800906 -0.124169385206 0.0683940267665 0.0513724369141 0.0387761226289 0.0496782221609 -0.0611419317398 0.0622173414141 0.0833374649555 -0.179651509659 0.0876735771827 -0.0554772522389 -0.309261957993 0.0424541601809 0.128449636641 0.0336656091549 0.0149312415228 -0.150798837573 0.196421746373 0.149571979798 -0.0146042228525 0.222243397973 -0.181808392799 0.104870225247 0.301275400491 -0.217015006725 0.1601777927 -0.138377214155 -0.145671330941 -0.0989432148668 -0.310711384148 0.102040162868 -0.0988821845012 0.175733612358 0.111439450519 -0.0911441026552 -0.0476024826397 -0.0771092306769 0.129407815747 0.0283363409764 -0.0449579326024 0.00611680159838 0.196548133922 0.125995996719
5816 0.0666511431068 -0.0750866701293 -0.0418607756339 -0.205823225605 -0.0473139690785 -0.0757542351452 -0.361458696879 0.10255148936 -0.113433745868 -0.036353707373 0.0264802724161 -0.265264535114 -0.0371081312965 0.18246242778 -0.0474056488667 -0.0507570536047 0.167876075945 0.0753971649717 -0.0322388321381 -0.28758609563 -0.0998491138281 -0.169606504344 -0.089047229056 -0.0941268380167 -0.118057244089 0.0565335363413 0.184924421433 0.0168228745491 -0.199151837172 -0.0824320072984 -0.198120890612 -0.279568886793 -0.186568993332 0.0948479256736 0.32031371887 -0.225804810143 -0.249485045688 0.0807122511305 -0.102320672145 0.195314710102 0.0925366851381 -0.076541087638 0.0841944686054 -0.00649249615701 -7.83483964825e-05 0.36198661027 -0.161572396906 0.200177269045 0.453613969157 0.0514789624971
595 0.140679088018 0.104016120422 0.219299989446 -0.625759291792 0.0892266065553 0.0872985587917 0.103625784864 0.109595563572 -0.090600429717 0.0572873498448 -0.129329528032 -0.0723563402798 -0.22827218181 -0.210059101237 -0.168579897128 -0.556840385718 -0.100260682165 0.123052093192 0.34587621444 0.64743907892 -0.125328067431 0.423554207922 -0.588493672673 -0.240437306023 0.0393144881838 -0.140993678646 0.167442043641 -0.117256839862 0.0233591488624 0.607317956629 0.14091847824 0.0248758800471 0.0093551836732 0.374672588262 -0.338206148171 -0.557742406843 0.487557647137 -0.252389584115 0.317129343974 -0.186555233624 0.440051857631 -0.326828096917 0.0404589613939 -0.174977830336 0.075176784922 -0.195253562219 -0.0702602904164 -0.0348576932157 -0.174560311993 0.409734958255
56367 0.0595868207699 0.0447290447298 0.245007046763 0.272238101441 0.0530755021791 -0.363256955042 -0.26331596536 0.300983554906 -0.059548157896 0.199204658744 -0.227026402125 -0.358326824092 -0.351952007791 0.139651227977 -0.211659533046 -0.0888319008699 0.228075192056 0.363799343702 0.360379446184 0.0179830642764 -0.0561331003804 -0.00140586849156 0.225859176871 -0.0872198293834 -0.549356076153 -0.271036335147 -0.0283842386017 0.102503811921 0.150099909784 -0.297144245967 -0.340125083806 -0.23541967751 -0.104963350652 0.205845683844 -0.0751554342226 -0.39661121433 0.247198481167 0.147076477818 -0.247371439215 -0.290061393468 -0.145719700445 -0.333200098211 -0.218057507154 0.299395417536 0.16478104439 0.164301241283 0.32075930802 -0.0816716793977 -0.161148054561 0.151553539906
2797 0.141385251063 0.00610546294162 0.149015384538 0.216435180017 0.103555495924 0.00162795367557 -0.00543971348555 0.108064471362 0.264836251421 -0.122435426234 -0.232341425922 -0.191274624069 0.116594445495 0.158603602493 0.0208923712762 -0.305613016518 0.0946907325941 -0.195754600524 -0.269892283539 -0.0335927952904 0.0528309907139 -0.0100920110727 -0.459215880924 0.375083394871 0.112231608989 -0.126882297578 -0.131160902246 0.432904097961 0.317484535313 0.165942380663 0.213210736855 0.150990617848 -0.0119168136397 0.0363932314695 -0.124527637149 0.15669482272 -0.272203316961 -0.0828929646399 0.062394131581 -0.152903188015 0.0750743494156 -0.178846713483 -0.115186696973 -0.132754754507 -0.189529411311 -0.320619352246 -0.114099922003 -0.127210852512 0.0479716822838 0.274428416808
5418 0.347462350538 0.112318513395 -0.283311233585 -0.419965769702 0.0935141725476 0.347378848928 -0.0554155970663 0.385774152725 0.09576745585 0.179511253106 0.031788490842 0.0400948293736 0.152011745873 -0.144778330909 0.0216602772121 0.401755436348 -0.222601329151 0.209290295726 -0.0748326204078 -0.0163386668095 -0.230790013312 0.206316938532 -0.0552736028089 -0.176590213295 -0.0137083802676 0.19962677227 0.237867624205 0.201069751413 -0.104752549543 -0.0712462368165 -0.197324112732 0.0740435356554 -0.273021050105 0.0433145097486 -0.227597118773 0.109604925471 -0.347870548369 -0.211565483917 0.284684263997 -0.0983227517202 0.0417882712315 0.104853871297 -0.103646653624 -0.421277228769 -0.0916321241981 0.293937391232 0.0703483980974 -0.0758776467349 -0.202153975933 -0.509997221116
2059 0.0266501131999 0.031299329622 0.000284356606678 0.0391978324636 -0.261309455126 -0.0634031272441 0.0927563655564 0.101710659612 0.304291916543 -0.0995428023388 -0.0771107109923 0.0966932697715 0.213498204469 0.0373358179949 -0.0727414924012 0.0431492153647 0.207344125669 0.129482232542 0.0453112615316 0.0841211498332 -0.0433934423185 -0.20353557803 0.144780603039 -0.0462715536159 0.145061586933 0.136747351051 0.0229402826683 -0.0031739170457 -0.0703694371185 -0.136502241065 -0.0153398246429 -0.121049810707 -0.0680980867459 -0.0391884900318 -0.0811910213056 -0.0345669157719 0.0468342117259 0.00831183294204 -0.0408616534266 -0.159078888478 -0.226698336558 0.0420928707219 0.131955410793 0.124684203917 -0.00310757971676 0.0636176297441 -0.061671389292 0.021427554445 0.0559634987626 0.0449556561328
1197 0.529544626814 -0.182205971203 0.852698028559 -0.502084620912 0.0979815187824 0.442311640224 -0.286417466286 -0.250975734262 0.138487231943 0.0703612121693 0.436617603279 -0.0845195894494 -0.00533257175809 -0.0385925279822 0.272592425754 -0.0414704845585 -0.187841681524 -0.293739746436 -0.249359866788 0.206106051359 0.130886285838 -0.104865858064 0.0104157370128 -0.095636117029 -0.105348560247 -0.31639194282 0.34799668761 0.201457055251 -0.227392536385 0.273800444673 -0.264076103159 -0.156078006896 -0.121739346656 -0.278064507718 0.029414251291 -0.083813669533 -0.198815924853 -0.207829002034 -0.349672676795 -0.403122426689 0.227679731551 0.0195482616292 -0.0526387039639 0.240206225426 -0.361532766155 0.135529124182 -0.276918419061 -0.212368692335 -0.0149894955954 0.0384712263286
2054 0.0246805663399 -0.20710091975 0.234656235565 0.479858974689 -0.031643426287 -0.342129912559 0.217524734911 0.284910063762 -0.0789633438143 -0.202444135823 -0.142253175586 0.195161205912 -0.0385709556043 0.000632588487281 0.140061894286 -0.0760566764123 0.123618882129 0.117987990704 -0.0256806353962 -0.167489532609 0.0987434277082 -0.248117186271 0.0465882833224 0.0824039938727 -0.0786769335172 -0.139966999331 -0.138006294471 0.0774347007891 0.122315884274 0.297730549316 0.220782125487 -0.162788987892 -0.264971244451 0.0629254997797 0.104201779591 0.154208936542 0.129063570398 0.00901514240197 0.166389494007 -0.105957731493 0.0429896641656 -0.355204880154 -0.00720931432468 -0.0704460712982 -0.414547008575 -0.18220666522 -0.227212547764 0.125236243041 0.15982179295 -0.259736004283
1302 0.0343961991847 -0.237585407492 0.215313392277 0.116105491807 0.290099397821 -0.203986010072 0.0198256364751 0.218847638392 -0.194822426813 0.0817699531516 -0.0186282720705 0.175099619886 0.0430559206378 -0.375953954651 -0.132627761098 -0.413769357764 0.263751710259 0.13961562661 -0.0312960718135 0.351458535164 -0.0395541193309 -0.326767194804 -0.171037076305 -0.182712620394 0.225293303342 0.239284710164 -0.0424032750727 -0.261139052519 0.183963846033 0.16094808666 0.19065619277 -0.0946667437042 0.00553624280373 -0.195165212418 0.158958601774 0.343472124496 0.00502878772454 0.00480956240248 0.139164374111 -0.0580233786061 0.0571944509354 0.147498666197 -0.0608101148647 -0.0346096036986 0.0673560218305 -0.0869026185653 -0.321626399923 -0.0214447386101 0.309749704119 0.2128440434
1094 0.0696083010154 -0.451736784872 -0.140758731966 -0.0654001097888 0.14548806891 0.432768929894 -0.0463780195341 0.222861396186 -0.251591301298 -0.174417594105 -0.304760069777 -0.200208306264 -0.131867011479 -0.195507945965 0.287544461057 0.20294462157 0.0903792827725 -0.262559728887 -0.0853142167064 -0.601781178988 -0.313740775542 0.136953072011 -0.304989720409 -0.242130356388 0.0211773719719 -0.107553558432 -0.431982203581 -0.097367984548 0.261040095388 -0.0213297320703 -0.0447637027703 0.0305211288145 0.454713484281 0.0696532127294 0.0570575409905 0.0485442942395 0.138655459927 -0.186833417896 0.346798965794 -0.268284906202 0.0398275436416 0.179220688467 0.187742990393 -0.327681671112 0.265770105211 -0.167311056029 0.0870930199197 -0.103438754077 0.195798864409 0.00571570906545
6534 0.00721713748335 -0.0346174411148 0.0161685006322 -0.0102613714727 0.0013698109169 -0.0197689636755 -0.0107039506351 -0.0242080290304 -0.0689187137888 -0.00809709902003 -0.0204706786303 0.0608960793985 -0.019691872985 0.014129346769 -0.0459412576152 -0.0460856454623 -0.0213220682198 0.019185256756 0.00455692515069 0.027869501771 -0.0357112244474 -0.01024662993 -0.0282222764292 -0.0243096432354 -0.0192960104999 -0.0213507574562 -0.00139214085963 0.0192025581739 0.0373005100063 -0.00139259347891 0.00161750444857 0.0152677732023 0.0405660864935 -0.04627486117 0.0487814832517 -0.0191896459574 -0.024650441546 -0.0323021144554 -0.0202114255 0.0356932581564 0.00923094188006 0.0213439534792 -0.00660005511004 -0.00338227702505 0.0299684592204 0.0091468560614 0.00592436721359 -0.0137383312067 0.0282122451423 0.0243619099605
508 -0.428272451692 -0.20564809711 0.046993607114 -0.321968440004 0.147109166375 0.431945821161 0.291971688036 -0.00588850526922 0.148957994712 0.510978285545 0.182135856531 -0.212640380115 0.268109000624 0.0749082038449 0.0879217434384 -0.292056438295 -0.139880843763 -0.302110176429 -0.0110665837289 0.15144883434 0.144743982503 0.148218409613 0.321047564132 0.162929553438 0.0274980988284 -0.260482259266 -0.278728508704 0.130939025121 -0.246443857817 -0.0105519853729 0.688792146722 -0.0592808238458 0.40773174508 0.00990534511782 0.4228732125 -0.215050660623 0.0142613105984 0.0135639695504 0.36230060069 0.322084554213 -0.302028620536 -0.0864730328765 0.105316023129 0.645257752616 0.445316563629 -0.160721128746 -0.375051811677 -0.188566914574 -0.788080556338 -0.00871954203778
34 0.192293960882 0.254089729821 0.0787131759353 -0.244845976874 0.35614433596 0.222025839671 0.241458502887 0.20796717994 0.298722447227 -0.041494448125 0.146281838394 -0.102564643859 -0.200835816532 0.100814819269 -0.0542893050972 -0.00440580359283 -0.245107934896 0.162271757227 0.409193099747 0.460635136587 -0.171517004967 0.411650871141 -0.157973757444 -0.0569294184035 -0.0752835618427 0.00797105481331 -0.19282575168 0.506133351066 0.627545130265 0.513665800484 0.0975215983006 -0.247395062208 0.337722155597 0.408575147487 -0.154482650027 -0.246782374425 0.253961280693 0.124833049144 0.314553564171 -0.0491923184043 0.297781531478 -0.0285244801806 -0.0422237569792 0.165117234049 0.233005918341 -0.399225476741 -0.0478704600703 0.165430345835 -0.306159865853 0.100428050833
5283 0.422856833093 0.116126314434 -0.0588465522434 0.0465821878803 0.0665605754064 0.286771169623 0.0524424656191 -0.0740147602498 0.0031051188794 0.198301904454 0.0699891837032 -0.0385244945945 -0.0574028539531 0.260306232251 0.276170550096 0.116527503302 0.107563908906 -0.133812629473 0.00851646442175 0.028544931956 -0.196549332488 -0.0359030171803 -0.0148581236294 -0.0494128337538 -0.130894562413 0.195361111704 -0.18040666807 -0.203169427781 -0.212245471126 -0.142894059906 0.174383846518 -0.113036819799 0.0450947749544 -0.0404880050192 -0.092955261694 -0.107541306534 -0.0527904852333 0.0350672455929 0.0782915837446 -0.254928392155 -0.272029715152 -0.0386482486442 -0.0744417136718 -0.0695481530017 0.358222355554 -0.0642395505254 -0.300988919484 -0.187638297147 -0.0311902840604 0.134100328101
3578 -0.141422184593 0.249536444751 0.312831474781 0.267443794575 0.319975310874 0.165892527698 0.124345049323 0.424050470765 0.117313775439 0.11305404333 -0.114888303729 0.0990162319255 -0.70343178164 0.056667558859 0.286068893238 -0.352261917438 -0.251573703435 0.203668606182 -0.402336083276 -0.0944577880796 0.220583653478 0.347036822419 0.315853883438 0.0803641190533 0.304889587332 -0.147168579374 0.524465916186 0.0947201688487 -0.0891622027006 0.231943335367 -0.0468368661703 0.41159825808 -0.147799940781 -0.0725731336616 -0.115133640416 -0.22033854887 0.281164473041 0.0100578170566 -0.0754931184051 0.237425111946 0.0474264807589 0.20128083534 0.03784888424 0.314616472442 -0.0812750996301 0.126007356259 0.508611926874 -0.0190701583996 0.262365306118 0.0569599171556
1396 0.101316842813 -0.196197293629 -0.119791730768 0.169831531757 0.141303572936 -0.0132077410168 0.105354099352 0.153120381785 0.0295463878951 -0.120395049298 -0.078765515551 -0.0433876944115 -0.0448173113148 -0.0540705495943 -0.0545477001966 0.00123303031608 0.0821685254448 0.0462477061922 -0.0153125924537 -0.0793426415402 -0.0444747116428 -0.158920292579 0.219125560113 -0.146827155935 -0.106092240923 -0.0780175452311 0.0919837581736 0.00145846173182 0.0214302215347 -0.269098927697 -0.0522125311652 0.212115189313 0.161094699407 0.0862142444987 -0.0224058846545 -0.0320444735068 0.176185655413 0.0571450366435 -0.0597639282321 -0.239381284553 -0.139537965643 0.0202080411745 -0.0798098548061 -0.164728212518 0.0900142283957 0.213132902762 0.166655101545 0.0709493331703 0.104650854314 -0.020794462998
